9996 16
. -0.040333133 0.07915616 -0.013431626 0.0050576935 -0.0015137346 0.014076291 -0.012879508 -0.070753306 -0.19755612 -0.06322087 0.044799615 0.028055603 0.030989267 0.073497385 -0.03462354 -0.003526183
영화 0.011408197 0.12328818 0.0458748 -0.003135233 0.037196208 -0.012648771 0.01786762 -0.00084287184 -0.0827508 -0.0919168 0.00907378 -0.01682015 0.06647386 0.03220123 0.015174787 0.004159918
다 -0.06924618 0.05722619 0.03894534 0.02823237 -0.024342323 0.0004635276 0.029489849 0.031650774 -0.13043892 -0.075615 -0.026726585 0.03441243 -0.010430364 0.026979534 0.053767256 0.04301027
고 -0.029866267 0.080423556 -0.04173396 -0.028894728 -0.017059922 -0.04209654 -0.12061164 -0.06474165 -0.13316275 -0.0892711 0.03844581 -0.044237323 -0.033860262 0.02065003 0.11725358 0.0147590265
하 0.020376252 0.08589896 -0.06738378 -0.02775581 -0.08423982 0.02283283 -0.0027088237 0.029744808 -0.00046133035 -0.02111535 0.018900882 0.059588008 0.018857513 0.0743697 -0.0055884426 -0.00955333
을 0.01539736 0.07159291 0.091264494 -0.027958104 0.021587523 -0.073038235 -0.032212432 -0.05455175 0.016378278 -0.06302439 -0.089442834 0.007431936 0.041193437 0.041640934 0.0036235298 0.065854855
보 0.018001674 0.089137465 -0.1222342 -0.0021011948 -0.03894548 -0.021498626 -0.10596306 0.019483116 0.010377802 -0.04255586 0.051704034 -0.08881352 0.040287036 0.019545611 0.04715898 -0.021240337
.. -0.07455109 -0.027060179 0.0790227 -0.021748083 -0.07179232 0.057747945 -0.07259852 -0.029775245 -0.033313427 0.016849622 -0.0015967367 -0.059426196 -0.03960277 0.107308656 -0.032453712 0.009608735
게 -0.0020641768 0.07659067 -0.07099888 0.06175996 0.007310846 -0.059738126 0.014445818 -0.10762524 -0.058748707 -0.045641888 -0.011492763 -0.011207088 -0.07033098 0.025589993 0.018472508 0.05003466
, -0.030879756 0.09222916 0.048877984 0.0006894154 0.005892215 0.06782427 -0.05055135 -0.06769617 -0.09140667 0.013900448 0.046504248 -0.028571986 -0.0020533875 0.06040278 0.0030115084 0.017556626
! -5.254624e-05 -0.0011645283 -0.010492777 0.07103633 0.03512983 -0.11261037 0.068578854 0.04847683 -0.063117765 -0.075960234 0.06786639 -0.019718198 -0.06907733 0.05073468 0.060218 0.0633315
지 -0.08474868 0.037477322 -0.017602341 0.0064895675 -0.0030625772 0.05545585 0.061364762 0.11038281 0.06104255 -0.03486681 -0.0325792 0.011807939 0.102948196 -0.0508601 -0.035770163 -0.034492042
있 0.057269484 0.04160388 0.010476583 0.0884348 -0.015777227 -0.07291878 0.028948024 -0.008070554 -0.066894926 -0.06301313 -0.0131027065 -0.037069272 -0.03535191 0.04177677 0.04780386 0.08687114
없 -0.112983495 0.07711642 -0.02258121 -0.048652843 0.001038293 0.08997461 0.10160606 0.040332302 0.022673268 0.120953135 -0.10164125 0.08355228 -0.066846855 -0.024245646 -0.07872929 -0.056742914
? 0.007037706 0.021062765 -0.09631692 -0.07659025 -0.067457095 -0.0030427594 -0.120689735 -0.062070195 0.10428935 0.054290537 0.009139059 -0.057906304 0.031090153 -0.13240428 -0.085994855 0.0020639063
좋 0.06440578 -0.012899933 -0.10127644 0.04028435 0.04090871 -0.0113119325 -0.00019053515 -0.04010413 0.08897141 -0.14290282 -0.008321165 -0.12796131 -0.05447433 0.091730475 0.06754087 0.07837197
나 -0.0016357662 0.062185246 0.056467887 0.011883853 0.04948692 0.012558177 0.0555324 -0.07293185 -0.040039673 -0.019713651 -0.09072378 -0.026825374 0.08660994 0.07263372 -0.025484756 0.05965774
었 0.03961235 0.024595244 0.054841854 0.01620656 -0.099171765 0.07011017 -0.023346268 0.026712224 -0.11061576 -0.009447237 -0.05059073 -0.024041839 0.04388783 0.0804324 0.052672785 0.024773484
만 -0.036990255 0.044450205 -0.0017392004 -0.057167005 0.10844904 0.017526386 0.018854309 0.13243325 0.043621216 -0.015731975 -0.019387938 0.028213724 -0.12362542 -0.011030638 -0.06666399 -0.037560523
는데 0.0019497663 0.17426772 -0.07178721 0.0033959327 -0.106978394 -0.024435777 -0.063226685 0.12497095 -0.061056074 -0.086209595 0.009604515 -0.06926784 0.011010057 0.14353256 0.028804475 -0.011115256
너무 0.025604052 0.074118555 -0.019633729 0.07911782 -0.19073579 -0.09228499 -0.06417793 -0.10071255 -0.018810814 -0.059964553 0.092045754 -0.09180377 0.012923166 0.3234153 0.0850163 0.026475139
봤 0.040086545 0.0028357706 0.021982532 -0.007591782 0.035122152 0.102488935 -0.05963727 -0.04037588 -0.05336913 -0.09792664 -0.030926473 -0.006168749 0.04252793 0.13884914 0.08864633 0.040807284
적 0.045830112 0.053988878 -0.11065482 0.05522273 -0.016114598 -0.07682564 -0.09108344 0.06375996 -0.04752456 -0.085715964 -0.041250475 -0.019761477 -0.018987982 0.01757379 -0.015010359 0.004532298
안 0.005564087 0.005481577 0.0033767673 -0.022847058 0.03694484 0.03930061 0.047976643 0.066236034 0.08723327 0.036142584 -0.20812681 0.0098808985 -0.03889535 -0.15461782 -0.106267735 -0.06399594
정말 0.027878776 -0.0018083605 0.044251885 0.090712525 -0.0712665 -0.074285634 0.09022752 -0.03575916 0.073243596 -0.14089288 -0.015707133 -0.0766541 -0.042228848 0.1469517 0.060215063 0.01853273
로 -0.034214992 0.07010466 -0.0021649338 -0.07235993 -0.051115487 -0.05848163 -0.025463283 -0.057304427 0.10156548 -0.06328792 0.037269868 -0.015490821 0.005753358 0.030882867 -0.016894208 0.014509275
음 0.049914222 0.06263314 -0.018371744 0.055959515 -0.017668312 -0.079638325 -0.047170512 0.026295695 -0.13244326 -0.0069702365 0.0012249586 -0.005319783 0.044502176 0.08293048 0.088737324 -0.027585309
것 0.020416541 0.037955437 -0.032363016 -0.040786296 -0.0001520873 0.016913261 -0.017762233 -0.0042906376 0.0056537753 0.033007577 -0.055142146 0.012460974 0.015794376 0.043300074 -0.021799175 -0.0129415635
아 0.031713966 0.02003476 0.040588163 -0.03012105 0.041860558 0.04949704 -0.008621454 -0.08033008 -0.02966516 -0.010614535 -0.022763385 -0.021092098 0.04070539 0.033710442 0.0034852745 -0.04645826
네요 0.030445931 0.048958674 0.04597857 0.0706038 -0.028061798 -0.08758665 0.042827316 0.099158876 -0.011744735 -0.044115674 0.08937617 0.004989482 0.027744362 0.03124375 0.15833892 0.067440934
재밌 0.11309475 -0.064252056 -0.056695472 0.10769535 0.018817091 0.019510394 0.12998572 0.08696463 0.08160566 -0.14134724 0.08371744 -0.19742954 -0.08583342 0.055542335 0.15550819 0.066565864
어 0.038362384 -0.022938002 0.035002146 -0.02490819 -0.042047914 0.056452557 0.07493603 -0.054064617 0.015801847 -0.018041696 -0.00014758424 0.021507887 0.011783 -0.015514708 -0.016554862 0.042053875
같 -0.015833903 0.011451747 -0.0031959575 -0.029421095 0.07416788 -0.01571699 0.07371451 -0.035119254 -0.025261488 -0.0135757495 -0.002252681 0.018155053 0.056992482 0.006431896 0.02439097 0.06229373
점 0.088271245 0.0593841 -0.011089185 -0.045331106 -0.032634966 -0.1250253 0.08025542 0.17538118 -0.067219995 0.003544874 -0.012507722 -0.081047714 -0.043731656 0.025385935 -0.010811335 -0.04357326
지만 0.06679487 0.1494456 -0.06406849 0.08882912 -0.16247228 -0.020761091 0.015378603 -0.00722726 0.007916275 -0.10720426 -0.18294057 -0.07671285 -0.113250375 0.17969942 0.09908241 0.059187807
진짜 0.042840622 0.08717707 -0.036158893 0.015031681 -0.068405844 -0.0013926304 -0.00085845444 -0.0040821442 0.08545145 -0.043897316 -0.020982469 -0.04230977 -0.03224097 0.15185261 0.050710224 0.050850637
했 0.02375799 0.045827348 -0.029040437 0.0405036 -0.0137728965 0.01796976 0.012334113 0.067991585 -0.04742992 0.002460362 -0.010563652 -0.013578289 0.008921592 0.033337377 -0.01891487 0.007153215
에서 0.0030481932 -0.06511386 -0.003232783 -0.0016209 0.02496154 0.041983448 -0.0022045926 -0.04298244 -0.02961942 0.044316933 -0.011789538 -0.02011448 0.024684478 0.043769915 0.017349835 0.01679085
기 -0.07075784 0.055520426 0.03962898 -0.043345906 -0.026066357 0.0073957928 0.0039388468 0.018351648 0.04257902 -0.005388576 -0.055902664 -0.017257018 -0.0016397143 0.14420366 -0.018297706 -0.061882325
네 -0.019483702 0.02486369 0.024359481 0.0012743366 -0.013541763 -0.06402663 -0.023246592 0.2127864 -0.010442856 -3.9262755e-05 -0.10684554 -0.010000727 -0.07032732 0.10096223 -0.03306824 -0.060467638
않 0.12942071 0.07649725 -0.009871014 -0.0071317484 0.033463314 0.16806285 -0.09022595 0.037945192 -0.15807314 -0.023740347 -0.13835461 -0.07039666 -0.085136965 0.034636736 0.048498914 0.10643602
거 -0.048324388 0.072927386 -0.0963166 -0.040138613 0.041620195 0.011775328 -0.06381182 0.0016981266 0.13031359 0.027690344 -0.06413874 -0.007936062 -0.09458262 0.0058200997 -0.03363685 -0.045104932
았 -0.01732949 0.019457966 -0.09535357 -0.031517748 -0.047493543 -0.032396227 -0.14647515 -0.06500638 -0.018367432 -0.02386759 0.05110504 -0.039330117 0.03993722 0.1331923 0.037975978 -0.015687143
수 0.06205124 -0.004474505 -0.04955338 0.043691516 0.021615867 0.024490329 -0.007965846 0.07167181 -0.053463534 0.009263537 -0.09396528 0.052092936 -0.083527125 -0.1040492 -0.0052549774 0.079383075
되 0.037594456 -0.010096041 0.05229385 0.08128641 -0.02527703 -0.09303147 -0.03843938 0.048441738 -0.06477281 -0.0010834348 -0.08415368 -0.07801051 0.0030896356 0.07757555 0.016347522 -0.021665813
면 -0.023216402 0.048036322 -0.093439735 0.0108622145 0.11290856 0.014650153 -0.024332926 -0.02382101 0.03819664 -0.0009998516 0.077431485 -0.05234585 -0.06660759 -0.0615049 0.018279264 -0.04195559
ㅋㅋ 0.05755684 0.054334108 0.013783674 0.082515985 0.018605953 0.083469704 -9.398237e-05 -0.0089533385 -0.057648618 -0.035856053 -0.06068362 -0.007237044 -0.0039826906 -0.0052197846 0.031691574 -0.020527419
말 -0.007816432 0.016378645 0.069128655 0.034894567 -0.048053555 0.012255267 -0.055889178 -0.04719823 0.008170307 -0.07559032 0.052018214 -0.0070978096 -0.017391209 0.014783977 -0.0071348012 0.048562463
연기 0.022722391 -0.027631847 -0.03645967 -0.016352734 0.048953496 0.008393594 0.018441793 0.027269518 -0.05882278 -0.07894354 -0.014725145 -0.03531026 -0.009286956 0.07433746 0.07575042 -0.013166287
인 0.039268818 -0.031768624 0.03226759 0.0052451733 -0.1408148 0.08407367 -0.09267534 -0.0014091316 -0.060837045 -0.010037728 0.011925712 -0.0038698264 0.016372425 0.08440527 0.005823763 -0.0041190186
주 -0.0136758555 0.0018123465 -0.02170571 0.002211601 -0.039321374 -0.07846775 0.049726944 -0.024287498 0.038502358 0.021275515 -0.033233173 -0.0036561429 0.04773471 0.08855196 0.038897574 0.019446671
내 -0.02499267 0.13108595 -0.17781852 -0.088874854 -0.027456893 -0.044548094 -0.028289221 -0.038292143 0.038839407 -0.057140186 -0.010040344 -0.06595451 -0.026384026 0.047987953 0.0074400217 0.022322753
최고 0.10468427 -0.1761568 -0.17773893 0.15650885 0.13649528 0.05483959 0.23935466 0.006495406 0.1511541 -0.2276985 0.08237233 -0.13839887 -0.17809118 -0.01388604 0.13733518 0.07908486
~ 0.004762566 0.005015955 0.0012616012 0.02363647 0.06829033 -0.07464069 0.014218003 -0.050088968 -0.14025411 -0.041305475 -0.0256054 0.019682249 -0.029357895 0.096056595 0.059495844 0.0137713635
평점 -0.06985484 -0.046014626 0.04413692 -0.0038296503 0.039361253 -0.0066186655 0.09420533 0.08676875 0.004454477 0.043773115 -0.024100795 -0.01141645 0.016479364 -0.12738584 0.029660419 0.027238214
이런 -0.011316091 -0.05582838 -0.03694666 0.020746894 -0.08340295 0.0075434186 0.011322231 -0.06221206 -0.14671367 -0.05002272 -0.07433935 0.033803098 0.13508058 0.21280514 -0.00531209 0.0091618635
던 0.02748117 -0.017804164 0.029383034 0.015550598 -0.018866016 0.037626043 0.009606729 -0.053735085 -0.037798043 -0.018736158 -0.10265044 -0.060710326 -0.081095226 0.12779544 0.013191443 0.060740046
어요 0.020866517 0.02589665 0.089302585 0.116609626 0.08124781 -0.14601481 0.07704955 0.15422715 -0.015152046 -0.04296058 0.0042322427 -0.044295616 -0.044238545 -0.0038369033 0.100726485 0.13021176
할 0.024991985 0.09157094 -0.072733745 -0.04088951 -0.0516902 -0.01658993 0.067790695 -0.034299113 0.08233672 -0.043272406 -0.044823393 -0.011060327 0.04546496 -0.10784302 0.042559426 0.00033285777
왜 -0.027646646 0.024024451 0.07313565 0.013880609 -0.05799486 0.055256534 0.14468047 0.07125431 0.036603678 -0.011183887 -0.07177204 -0.049768977 -0.11407989 -0.1304353 -0.05336756 -0.022960933
겠 -0.0340926 0.04170042 -0.079823904 -0.016538009 -0.07938985 -0.016333282 -0.1188694 -0.077183716 -0.045609232 0.066615775 0.09232129 0.05720437 0.08933708 -0.07501292 -0.1081843 -0.023355687
1 -0.08101385 -0.03710141 0.029099038 0.014049477 -0.019163217 -0.028313702 0.11053194 0.0044409866 0.06533666 -0.038849264 0.07925511 0.009454006 0.08164202 -0.07748697 -0.074849054 -0.037389874
스토리 -0.05693498 -0.060279775 0.03729035 -0.054429755 -0.03905653 -0.023512866 -0.08912135 0.10818693 -0.20998523 0.013967446 -0.08756116 -0.09155463 0.07556678 0.0815329 -0.05400954 -0.012756708
해 0.06952897 -0.035823446 -0.007930936 -0.01904979 -0.00057206885 -0.013034545 -0.0406889 -0.025826957 -0.049722105 0.015620123 0.038591385 -0.033467185 -0.003036417 -0.0004480849 0.050346766 -0.00672593
습니다 0.0515473 0.012189879 -0.042234838 0.0349911 0.10018652 -0.049854476 0.0060827476 0.07894629 -0.033966966 -0.088716246 -0.08391081 -0.06544369 6.99473e-05 -0.09052318 0.04171319 0.06158911
ㅋㅋㅋ -0.05374933 -0.027440328 0.06549189 0.012869738 0.050089672 0.01375729 -0.050234374 -0.029415524 -0.046180654 0.023515157 0.0020583181 0.056142416 -0.014603896 -0.012709906 0.0063695447 0.030483037
... 0.0011062522 -0.099945515 -0.037816092 0.008360658 0.013823187 -0.033016846 -0.020903204 -0.0069724643 -0.14746799 0.035907872 -0.012031881 -0.022656117 0.0756525 0.04895686 -0.03096361 -0.052261095
드라마 0.025274817 0.016409032 -0.02124872 0.027990177 0.057497814 -0.016409526 0.068785876 0.051335257 -0.053645153 -0.06947394 0.10734619 -0.0024149686 0.027140873 0.047043383 0.033605106 0.02015013
생각 0.036302567 0.030393178 0.061776295 0.020018533 -0.069472924 0.11994881 -0.032494582 0.050265197 0.008285721 -0.10611072 0.00094934664 -0.06938061 -0.05535063 -0.0020353145 0.058547646 0.031883154
아니 -0.062420018 -0.034751 0.012589733 -0.02064016 0.0235939 0.062422372 0.07408347 0.08440726 -0.06872422 0.046445616 0.011953737 0.024010552 -0.006941081 -0.0648599 -0.03308227 0.020289356
더 -0.038160592 -0.10006278 -0.16310216 0.008421484 -0.032577775 0.01484153 -0.040922035 -0.047984026 0.033191737 -0.043746233 -0.030554064 -0.02287431 -0.017908465 0.04919941 -0.058134194 0.014430512
그 0.027298193 0.12312717 -0.0015287121 0.018008918 -0.0011398051 -0.00704521 -0.05195043 0.008677703 0.020097496 -0.03768625 -0.01013956 -0.03307986 0.0067948396 0.009612438 0.037051454 0.02503676
싶 0.07391929 -0.145003 0.054331552 0.00520615 -0.10671927 0.028850049 -0.06579013 -0.053679943 -0.0892182 0.039423697 0.07637068 0.029093638 0.009967732 0.029526202 -0.015570612 -0.019552596
사람 0.062432904 0.116640694 -0.07107809 0.06132361 0.005305814 0.065677926 -0.013580463 0.017722659 0.029948851 -0.02349929 -0.2344473 0.002940077 -0.033940606 0.053977896 -0.03234454 0.01287875
듯 0.03276364 -0.030144347 -0.06227675 -0.020679824 -0.15928195 -0.027126769 -0.02815164 0.014211563 0.06094439 -0.022319142 -0.061360072 -0.023404531 0.07391953 0.031877305 -0.06690215 -0.0639628
때 0.02214603 0.019216627 0.053524837 0.029802464 -0.028966162 0.047235273 0.01098201 0.07021882 0.0013592665 -0.03646001 0.022651374 0.036367275 -0.009757103 -0.0022415756 0.05540834 0.10859349
감동 0.11969429 -0.014045071 0.009856085 0.13161038 -0.01763544 0.0064802906 0.09889323 0.105482444 -0.0046039484 -0.101673104 0.13053161 -0.125919 -0.078295864 0.12512314 0.11815543 0.04497382
함 -0.017869491 0.06428285 0.017367588 0.06596887 -0.11639143 0.026594268 0.04525505 0.0068728384 -0.053603448 -0.0033465782 0.052097283 -0.011127038 -0.010786662 0.059232276 0.06492162 -0.03837504
배우 -0.046953846 0.0750818 -0.0017606097 -0.025301415 0.07799059 -0.04802621 0.030716268 -0.03724628 -0.042671252 -0.028602596 -0.015459722 0.03013207 -0.029210445 0.10469978 0.02526115 -0.01824724
본 -0.004577555 -0.032462507 0.017108237 0.028113505 0.013355753 0.019732311 -0.05119513 -0.05622886 0.019278646 -0.03877854 -0.06375077 0.0090628285 0.030556347 0.012488692 0.031571466 0.06579645
까지 -0.037912138 -0.0026716134 -0.081573576 0.03745188 -0.0039326977 -0.048734438 -0.15343688 -0.040806033 -0.07556157 0.007322563 -0.034232415 0.019455597 0.044707548 0.1236081 0.026563868 0.05144716
뭐 -0.0787261 0.08026668 0.05899447 -0.009465142 -0.010486503 -0.023310417 0.014436872 -0.061198995 -0.056359127 0.07303664 0.039994385 -0.023860747 0.0831807 -0.14786644 -0.10588264 -0.042013854
알 -0.006702814 -0.005924959 -0.12338387 -0.07063876 -0.045945633 0.00056641427 0.033554107 -0.045533728 0.02770818 -0.041109372 0.035573307 -0.049188685 0.098610066 0.15219955 0.039247546 -0.011073192
만들 -0.01095768 -0.018596651 0.11240872 -0.024001569 -0.02127952 -0.044050816 0.021901492 -0.10863811 -0.060661286 -0.018019635 0.078116186 0.07730918 -0.09298126 -0.020379135 -0.021500558 -0.00885891
내용 -0.055534277 -0.07240087 0.0057727057 -0.03295573 -0.08625748 -0.022897618 -0.13084415 0.01356019 -0.106177144 0.029407945 0.0068562753 0.008319875 -0.02232907 0.16578345 -0.072810724 0.014020873
볼 0.045680225 0.0460282 0.036576536 -0.010089527 -0.03871138 0.06130758 -0.19372281 0.023147402 -0.103404716 -0.02384855 -0.046168428 -0.05566168 -0.00420059 0.0128986165 0.07196654 0.015919954
감독 -0.06882404 0.04135714 -0.07221864 -0.0498126 -0.06672779 -0.063888624 -0.13323118 0.037129223 0.12619147 0.057913017 0.15804332 0.016099408 -0.015119393 -0.013831588 -0.05553434 -0.049932152
보다 -0.022575371 0.08146171 -0.05309887 -0.0119440155 -0.0120170005 0.07487544 -0.008704461 -0.016854616 -0.08625302 -0.057031617 0.005353166 -0.09089052 -0.011298191 0.08020907 0.005420837 0.004209658
라 -0.00715049 -0.022949375 0.08038142 -0.014961089 -0.0050882744 0.07967836 0.01925308 -0.059784733 -0.028133268 -0.037242558 -0.12705335 -0.08289206 -0.013350855 -0.030344617 0.02018397 0.026043255
그냥 -0.0084784245 -0.020962529 -0.0014258014 -0.061508104 -0.12528268 -0.118616186 -0.005262652 -0.06641184 -0.068775594 0.064270005 0.13940431 0.006843861 -0.053486172 0.026033843 -0.014456472 -0.09101281
재미 0.0038036017 0.10834922 -0.037694935 -0.0099693155 -0.13593851 -0.030722378 -0.049882986 -0.0026627926 -0.04008426 -0.034451853 0.083147235 -0.039329577 0.0018347321 0.19481225 0.00088270183 -0.038450748
시간 -0.038287494 0.06148456 0.07467723 -0.051987913 -0.05288609 -0.05767464 0.06731531 -0.008668008 -0.04229474 0.029294262 -0.018277682 -0.063644364 -0.13271694 0.03651331 -0.034308348 -0.07089888
지루 -0.10689106 0.1832364 -0.032553002 -0.046098944 0.12265977 -0.14041197 0.10201231 0.025512872 0.08824494 0.118039005 -0.17675644 0.10084128 0.0120724775 0.009079139 -0.07201517 -0.014511937
중 -0.0064486833 -0.004731546 -0.108987585 0.048627775 0.059631955 -0.045302 0.07720066 -0.047712564 -0.078967795 -0.0273279 0.03993689 -0.084422715 0.009116668 0.063018546 0.07057955 0.080865614
재미있 0.11813472 -0.107905194 -0.12794034 0.12548387 -0.0012371747 0.0061574196 0.11224038 0.1344409 0.111223206 -0.12519751 0.08506968 -0.15446231 -0.056012247 0.10935816 0.13986288 0.09561272
년 0.02286548 0.008462462 0.0047012265 -0.0025723062 0.015245365 0.030695518 -0.05197818 0.023510858 0.041773573 -0.0556571 -0.05891565 -0.030606 -0.00761363 -0.004970507 0.018062845 0.04755883
10 0.07551378 -0.029701374 -0.14480883 0.016668964 0.13287582 -0.03217203 0.048715416 0.027464384 0.02440669 -0.08325556 0.064148724 -0.084364265 -0.11247989 0.0320176 0.034445997 0.034605354
였 -0.029262906 -0.023679433 0.015021712 0.017141677 0.034444902 0.030346243 0.0003341847 0.0037894172 0.018513335 -0.05296147 -0.015653232 0.034034092 -0.079736486 -0.012546488 0.052216884 0.056263905
잼 0.0063031497 -0.036488958 0.00039869908 0.14359416 -0.089406565 -0.0026626005 0.071168825 0.09199287 0.04052921 -0.08704104 0.17864837 -0.07672409 -0.10729578 0.04702393 0.1210309 0.033586048
사랑 0.058163397 -0.105156586 -0.0803663 0.06504816 0.092186555 0.0009099361 0.055273414 0.059582494 0.015299137 -0.0999107 -0.060155068 -0.09679251 -0.059766605 -0.0015465732 0.09394527 0.036094785
못 -0.056570332 -0.03038645 -0.033545483 0.012318151 -0.08307778 0.0067109065 0.025092475 0.06825379 0.18866667 0.014874623 0.03575127 0.033371262 -0.03386575 -0.00085332344 -0.059570793 -0.053353626
냐 0.0042839414 0.08081908 0.09497885 -0.080223 -0.056114163 0.011956513 0.07958122 0.036629964 0.026465567 0.062496513 -0.031260915 0.053953424 0.0362473 -0.032723878 -0.011610063 -0.046946876
재미없 -0.12746018 0.073972374 0.08575846 -0.14893176 0.06060271 -0.030307697 -0.02155387 -0.100224696 0.019334838 0.15989272 -0.07631345 0.10455949 0.16131128 -0.13408288 -0.14930518 -0.17212217
쓰레기 -0.06281944 0.017751912 0.09651746 -0.10278645 -0.01773856 -0.040753786 0.070021406 0.0867123 0.009901629 0.16500543 -0.08441734 0.16502267 -0.047711954 -0.13072366 -0.09451326 -0.18252835
서 -0.044366334 -0.09443959 0.11570669 -0.026226649 -0.05924839 0.01692162 0.04318753 0.016805615 0.023731364 0.024297958 -0.024962293 -0.0007556229 0.049271774 -0.10637765 0.005889201 0.014467639
2 0.0007592271 -0.06244581 0.022943622 0.058611162 0.022982255 0.036483873 -0.028780695 -0.061877355 0.06828548 0.015051711 -0.025874542 -0.08155483 0.06703494 -0.1329616 -0.048783362 -0.03161025
라고 -0.038303535 0.029954415 0.06867825 -0.036234975 -0.13621858 0.07394653 0.02829798 -0.08521963 0.042597562 0.029505244 -0.09917338 -0.027210135 -0.04295613 -0.06732223 -0.034001447 -0.012699339
야 -0.017320547 -0.05181367 -0.04939775 -0.027427671 0.093313456 -0.007766138 -0.00043758535 0.09951346 -0.07343633 0.007960926 -0.05444605 -0.009758024 -0.081515715 0.025317352 -0.020557415 -0.006534044
니 0.024170332 0.015571816 0.0028701285 -0.011701376 -0.0023638315 0.0763561 -0.05968401 0.0024129446 -0.00079377333 -0.010118332 -0.048939716 -0.026313808 0.021970266 0.013207715 -0.0041363365 -0.017494211
면서 0.029381363 -0.03333969 -0.00549698 0.05581937 0.049797446 -0.03443831 0.06675705 -0.0920637 -0.0010203337 -0.04977252 -0.06801732 0.0129236085 0.033549998 -0.012763557 -0.006959707 0.023198644
번 0.05203893 -0.0072254413 -0.04907863 0.087220125 0.04182704 -0.0112588825 -0.028119523 -0.009700023 -0.051397063 -0.08505596 -0.049002405 -0.019631397 0.0002319575 -0.010617415 0.026042825 0.08520088
다시 0.047775637 -0.0524467 -0.04449558 0.12247597 0.014495302 -0.083445825 0.09053003 -0.044134863 -0.03568106 -0.12357885 0.0055115568 -0.10389038 -0.1289948 0.07231192 0.09895643 0.07138736
나오 -0.026042683 0.065109774 0.030915225 -0.011561502 -0.0042952835 -0.06774418 -0.03440305 -0.0033206453 0.06925704 0.02161657 -0.06447398 0.040424857 0.03975711 -0.06630757 -0.022435727 -0.02160445
작품 0.011961906 0.083719864 -0.063301794 0.05374111 0.05990968 0.015143286 -5.3069787e-05 0.0644164 -0.012352628 -0.07766669 0.04692613 -0.031015443 0.052118067 -0.055695277 0.012540667 -0.0053584552
이거 0.028351115 0.044103563 -0.022569027 -0.055145107 -0.03400731 0.010259853 -0.05216918 -0.04989126 -0.06851255 0.024184566 -0.1224603 -0.017052663 -0.041202843 0.04458165 0.0053032897 -0.0035189895
하나 -0.0035451595 0.023020212 0.06423877 -0.085874 0.0033211922 -0.04561734 -0.011145359 0.074093215 -0.054782744 -0.001437989 -0.026686085 0.010060971 0.057422552 0.059352543 0.036373813 -0.018966293
줄 0.10109112 0.03592803 0.05183481 -0.0102953855 -0.17231748 0.024061134 -0.0028280022 -0.03137263 0.057568077 0.025282385 -0.04708932 -0.029422363 0.022737922 0.07355525 -0.035305113 -0.006655544
해서 0.02324501 0.080014795 -0.030565355 0.020373177 -0.05847536 -0.0059310747 -0.12765485 0.08950972 -0.010123866 0.03361264 0.09261232 -0.029231748 0.0075509837 0.10776414 -0.08059557 0.014532988
개 -0.020667898 -0.01667698 0.022506071 0.016312608 -0.18442056 -0.05526294 -0.08364478 -0.0033180104 0.03320037 0.043245975 0.075836785 -0.12246613 -0.024481388 0.16222332 -0.06132725 1.7653947e-05
남 -0.01132534 0.085668355 0.037187207 0.022082431 -0.052909072 -0.07321943 0.003460696 -0.018374998 -0.1070914 -0.006863475 0.12639931 -0.034118332 0.011336375 0.10864756 0.00924973 0.02906051
정도 0.040595796 0.042782336 -0.052315436 0.032627463 -0.05550424 0.05838096 -0.062008973 0.016664382 0.10718475 0.02500291 0.027898986 -0.046953093 -0.008358162 0.04673699 0.032609373 0.045850866
마지막 0.089508094 -0.0053566527 -0.009537059 0.10354092 0.02520356 -0.00651393 0.029734079 0.05994925 0.06504247 -0.075262114 -0.058433354 -0.020763047 -0.036398698 -0.07083202 0.030912347 0.008988098
끝 -0.038436882 -0.05254264 0.050901376 -0.042147253 0.011389241 0.01452303 0.062566675 0.042658612 -0.048479218 0.019164018 -0.15372822 0.037190918 0.020284621 0.01132777 -0.01561212 -0.016963681
이건 -0.05206601 0.029038629 -0.0023284908 -0.049507156 -0.15090166 -0.08880775 0.17331249 -0.090261325 0.030535484 0.08567017 -0.04561646 -0.043382753 0.09873459 0.08225229 -0.027087804 -0.052173156
액션 0.054463953 -0.03568824 0.04811358 0.041188315 0.02199951 -0.018078493 -0.037155025 -0.014940031 -0.0039270353 -0.0230031 -0.045719434 0.012129262 0.045140922 0.07684468 0.023171972 0.054595634
임 0.003636045 0.013433236 -0.0073791416 0.045816693 -0.053999793 0.04432357 -0.06979887 0.08305704 0.029585132 -0.022302574 0.0018420973 -0.03491614 -0.021495514 0.09170995 -0.013881515 0.058256596
ㅋ 0.0077094324 -0.043997858 0.040146872 -0.03177033 -0.058384087 0.05435519 -0.033035673 0.00353288 -0.11747761 -0.011762485 -0.14475839 0.020630542 0.024440158 0.059449054 0.009971374 0.04928627
3 -0.06525317 -0.008821116 -0.067086965 -0.03408983 0.00024981712 -0.0901618 0.023992086 -0.038693283 0.036645647 -0.04046486 0.05662664 -0.02693554 0.10257209 -0.04036121 0.0007444957 -0.09976394
기대 0.06308983 -0.044640403 0.035513744 -0.029726446 -0.035535492 0.081597626 -0.13663529 -0.15139507 -0.21489094 0.039834317 -0.23691931 -0.052765597 -0.07859194 -0.17971809 -0.039873995 0.012422571
입니다 0.07680529 0.09647314 -0.018542653 0.05699307 0.07762018 -0.065498985 0.093963884 0.09865755 -0.034875873 -0.10656171 -0.05323096 -0.059968267 0.041946027 0.04000221 0.11198152 0.066256836
건 -0.010664477 -0.038396668 0.07016272 -0.067867115 0.031632457 -0.02620869 0.061089683 0.009028827 0.05454712 0.007848417 0.070885554 0.06735024 0.012186232 -0.08078885 -0.059376094 -0.01970119
라는 0.064013295 0.07826957 -0.0522198 -0.0014585283 -0.008042545 0.061275784 0.03594686 -0.042075463 -0.06603704 -0.007105653 -0.06523157 0.009269734 -0.060619928 0.13765281 -0.06656159 0.052632656
분 -0.09203188 -0.031310443 0.06686298 0.0017240965 0.14078932 -0.03215229 0.18009026 -0.07993587 0.0050437083 0.05962204 -0.14077821 -0.013199052 0.012916346 -0.06831691 -0.04201085 -0.021474281
완전 0.034130212 0.040745553 -0.01985567 0.032100126 -0.10832915 -0.015016496 0.054702982 7.225266e-05 0.094145946 -0.147701 0.10844599 -0.068037555 -0.016350523 0.21232292 0.062123254 0.042731013
다는 -0.0025737963 -0.022487083 0.019510614 -0.053739157 -0.00635923 0.020537343 -0.04586124 -0.022365876 -0.02117513 0.070021234 -0.08106856 -0.027166663 -0.027120186 -0.14478758 -0.027521394 -0.03459035
참 -0.03796092 -0.061793398 0.09507929 -0.030465644 -0.07549354 -0.026290178 0.026850864 -0.08517053 -0.060325906 0.01922547 -0.08479703 0.07118435 0.049864914 0.09645135 0.030287465 -0.014845665
많 0.0068754633 -0.04088953 -0.1821087 0.06284816 0.04404127 0.055504378 0.09743729 0.08090093 -0.02341389 -0.065092646 -0.03860888 0.030317808 -0.07465722 -0.040849186 0.024541475 0.035466928
처음 0.07016058 -0.040292606 -0.0055668177 -0.023126766 0.03095148 -0.050831366 -0.04899352 0.09760439 0.14765786 -0.0046386537 -0.053023722 0.005120487 0.01917016 -0.03481458 -0.05688634 0.015972065
장면 -0.00144562 0.035702746 -0.040660024 -0.025924198 -0.01584011 0.063287124 -0.026161375 -0.05976753 -0.05090804 0.0044862605 -0.041005317 0.025068298 0.03585491 0.01764075 0.03183902 0.011042132
대 -0.03641928 -0.03545457 0.058870297 -0.016565833 0.041540362 0.08921509 0.032335237 -0.073419906 -0.09643823 0.0095334025 0.010084103 0.042578574 -0.05067965 -0.08140855 -0.044004183 -0.0016079369
아깝 -0.090948984 0.0657332 0.054195277 -0.09178009 0.08266645 0.038427837 -0.09791788 0.085284404 -0.07294655 0.11156073 -0.10443991 0.12259535 -0.22540307 0.04779115 -0.105377905 -0.07625304
다가 -0.084607095 0.015115102 0.03150102 -0.013885835 -0.017410869 -0.03079022 0.057886362 -0.08974538 0.018837191 0.05763825 0.09603361 0.0075560287 0.05194207 0.074010655 0.020587277 -0.073907495
으면 -0.0024196487 -0.052450906 -0.08045743 -0.057560924 0.11575312 -0.012752703 0.10040839 -0.011296556 0.09802508 -0.03328842 0.068371564 -0.021898327 0.024063915 -0.15083787 -0.028891455 -0.060240645
지금 0.09632776 -0.047116876 0.031985525 0.06445946 -0.017512603 0.09217887 0.052777793 0.031274922 0.047960415 -0.024812205 -0.16128552 -0.032116074 -0.06530963 0.041457698 0.04227842 0.06038548
모르 0.087438494 -0.057234265 0.003573898 0.01936808 0.061478384 -0.01200972 0.06142555 -0.03155521 0.08577351 0.002906187 -0.0070766485 -0.08991445 0.036945675 -0.0035760074 0.03038197 -0.0076423455
이렇게 2.1365038e-05 0.03652868 -0.017479919 0.0026071449 -0.2382785 -0.0045624473 0.014781151 -0.062886134 -0.07758863 0.01579021 0.040277276 -0.0050033336 0.07331357 0.23345718 0.0077702506 0.05533453
' 0.023502674 0.020548435 0.042554077 0.04816792 0.028514495 0.017698795 0.01022653 -0.05029096 0.029683292 0.04177071 0.07267408 0.007926466 -0.0843971 0.010319011 -0.017104732 -0.06140636
편 -0.0008548288 -0.03759354 -0.106927596 -0.0013074761 0.03616107 0.09099004 -0.03420609 0.013907046 -0.009314332 0.041456945 -0.095681235 0.027179224 0.035361167 -0.064356945 0.027589943 -0.014501863
일 -0.013658878 0.058659695 -0.16400303 0.01217126 -0.04225723 0.04622495 -0.085084446 -0.10620325 -0.05306801 0.030498492 -0.033873647 -0.027970733 0.09067515 -0.12318074 -0.03174845 0.037829228
돈 -0.12561677 0.05198359 0.059937615 -0.100647144 -0.10740099 -0.059067577 -0.077490054 0.056423925 0.0648796 0.08882139 -0.034385666 0.12889698 0.042224105 0.0013439474 -0.17105067 -0.073438734
이게 -0.08817938 0.025402805 0.040073518 -0.06808871 0.08262162 0.07104085 -0.01840306 -0.091885574 -0.16434729 0.055592313 -0.072509296 0.013974364 0.0025834313 -0.061651804 -0.10798595 -0.095507085
성 -0.031900086 0.03182155 -0.050584286 0.041549332 0.036725827 0.005266282 0.0983496 -0.08295992 -0.04540518 -0.014754816 -0.019584533 0.004069883 -0.01860432 0.09039605 -0.021111496 -0.02967983
느낌 -0.010876112 -0.0653419 0.029534228 -0.008238427 0.022467926 -0.020292608 -0.02768158 -0.027019301 -0.0641953 0.024974301 -0.045252364 -0.010587462 0.026863888 0.039564293 -0.010193596 0.022126304
시 -0.052879013 0.0020870615 -0.0725694 0.030256545 0.065888524 -0.0074190167 0.14056656 -0.016822739 -0.013032844 -0.040595982 0.039820477 0.04890426 -0.042866677 0.025355792 -0.037473906 0.04494586
이야기 -0.029921465 0.015344939 0.02863131 0.06711032 -0.015189399 -0.037734944 0.052711356 -0.08595186 0.008120212 -0.01646634 -0.07070918 -0.08637221 0.06040145 0.13376655 0.038700163 0.08039248
최악 -0.3109458 0.23447455 0.27985734 -0.27042678 -0.22355212 -0.19293696 0.2465996 0.3286728 0.15597187 0.2491203 -0.21837842 0.3220774 0.17186646 -0.26182085 -0.29609787 -0.2628888
된 0.032640632 -0.002169884 -0.060445257 0.041105144 0.035987932 0.007140113 -0.069321245 0.024019277 -0.059178427 -0.021970142 -0.08807632 -0.052106887 -0.035226204 -0.059106506 -0.019734254 0.028501827
봐도 0.10547386 -0.022622107 0.12196462 0.091103226 0.018042324 -0.07956012 0.10910842 0.20598134 0.01128397 -0.058772575 -0.045995865 -0.013349546 -0.0589943 0.018236678 0.043643646 0.14446557
님 0.030300159 0.0029522786 -0.07209846 0.065007165 0.03995733 0.022361476 -0.016320726 -0.008293297 0.021501938 -0.049527235 0.017895937 -0.046806775 -0.048868045 0.0053127566 0.08327471 0.027790224
어서 -0.031835925 0.03036192 0.04991607 0.023145061 0.0128868045 -0.04346015 0.051414985 0.047389347 -0.043574955 -0.052864403 -0.025790324 -0.043116342 0.026502065 0.05350296 0.041963853 0.009067128
애 -0.030996284 -0.0028953953 -0.013259341 -0.0054521305 -0.047557745 0.037369378 0.023233445 -0.037296243 -0.014794895 0.0026126362 0.0069564395 0.055377774 0.007898626 -0.037240904 -0.07710673 -0.025977047
전 -0.008913211 0.0641658 -0.08360411 0.07103413 -0.017292617 0.018629475 0.058375128 -0.069400415 -0.055990838 -0.024213783 -0.055827525 -0.07624678 -0.020850528 0.116225034 -0.0036429542 0.024943119
넘 0.067094 0.029595947 -0.11516219 0.027069 -0.044754773 -0.04598507 0.07775417 -0.031463586 0.17064919 -0.1315253 0.14152001 -0.023271801 -0.03702923 0.16930696 0.08422016 0.05554015
ㅠㅠ 0.023763753 -0.060531948 0.03684774 0.05799753 0.053362645 -0.03162973 0.10676533 -0.02243902 0.07064391 -0.026892874 0.06711807 -0.070354514 -0.088639 -0.09209471 0.05265946 0.083705045
인데 -0.02714546 -0.029847706 0.030658176 0.04498499 -0.013631668 0.030310247 0.009457982 0.12795833 0.010016466 -0.03480236 0.069297135 0.057326835 0.014367412 0.026290815 0.012372979 0.023138765
다고 -0.033881422 -0.0688072 -0.018409872 -0.05661866 0.09110097 0.07313937 0.1590105 -0.16590017 0.004911489 0.040155508 -0.16934463 0.007991324 -0.023258448 -0.117028415 -0.086300075 -0.08464198
이해 0.010392893 0.0045377957 0.09145124 0.029422779 -0.06512852 0.01250949 0.12493894 0.02003071 0.015629625 0.04484339 0.0048059016 -0.054843955 0.052511998 -0.13202852 -0.03888763 0.0100025525
별로 -0.09284282 -0.036153425 0.06847904 -0.060599584 -0.051154822 -0.09182295 0.13104226 0.017607354 -0.12056601 0.1231964 -0.07216678 0.061090842 0.14769894 -0.11758589 -0.112151176 -0.10543849
그리고 0.050057508 0.039888337 -0.09787063 0.003435287 0.013634591 0.012975911 0.07172983 0.20405714 0.0056883544 -0.055581585 -0.09519838 -0.03375046 -0.03204179 0.04102652 0.09573998 0.022068243
명작 0.13617465 -0.011652668 -0.07821106 0.13226147 0.0473605 0.07440797 0.09776999 0.13075803 0.011829776 -0.054174773 -0.023133416 -0.09986886 -0.06659232 -0.023126718 0.1287821 0.12581965
여자 0.0057229022 -0.026203308 0.028625855 -0.07271025 0.15778695 0.025362857 -0.031931777 -0.069547564 -0.05814925 0.075619675 -0.035518654 0.038126037 0.071260706 0.032129854 -0.05100148 0.017938372
^^ 0.14981619 -0.10582079 -0.08204593 0.09987818 0.114161305 0.11580001 0.06255288 0.037167717 -0.011269896 -0.13755153 -0.12875448 -0.034907274 -0.1037181 -0.0123091275 0.09398082 0.092765965
역시 0.07371416 -0.07097797 0.0067233606 0.015423035 0.07685641 0.035599146 0.008455232 0.12137783 0.02903005 -0.023410331 0.023254354 0.00399322 -0.060234744 0.0077257045 0.044954944 0.035399135
난 -0.009033037 0.052990545 -0.014769242 0.10009867 -0.019547084 0.021103198 0.019906305 0.031959817 0.046502836 -0.041956887 0.06280812 -0.01554104 -0.020414911 0.048798732 0.10853336 0.017147183
이상 -0.04369814 -0.033933222 0.023811664 -0.034889046 0.004714949 0.07491088 -0.0044960584 -0.0440593 0.007010456 0.04873928 -0.046073347 -0.038704257 0.08939222 0.12837076 0.0055180094 0.0037804034
또 0.043163154 -0.075503886 -0.045544334 0.047607265 0.027125116 0.009341415 0.042722534 0.016012788 -0.08117408 -0.09438224 -0.018548137 -0.033308107 -0.006952153 0.07900786 0.053860605 0.07667037
걸 -0.09724652 0.05196281 0.006800879 -0.061785694 -0.06029354 -0.04607012 -0.034899615 -0.07901445 -0.07533196 -0.0036494767 0.024415355 0.0023842682 0.065688275 0.07208032 -0.05171552 -0.029779322
한국 0.053724043 -0.08732727 -0.009868387 0.057380896 -0.05756919 0.097352795 -0.06710168 -0.005842549 -0.032013148 -0.026305867 -0.029696044 -0.051557817 -0.042534035 -0.013484754 -0.0020709008 -0.0012082923
는지 -0.081451304 -0.038590476 0.063986294 -0.07088415 -0.04019086 -0.023519116 -0.0045605483 0.08569748 -0.014344666 0.05366342 0.04789499 -0.0198286 0.0555955 0.04608314 -0.022742609 -0.021419974
많이 -0.023350693 0.0153049985 0.026781943 -0.01371441 -0.0088999765 -0.09317372 -0.057887617 0.06094052 0.07921049 0.008979967 -0.044014126 0.009158892 0.03809034 -0.0066385977 0.04141407 0.052207965
에게 0.072636925 0.008401962 -0.032208692 0.0110206185 0.0032314162 0.05860245 -0.015411511 -0.008961668 -0.029313216 -0.028466238 -0.083186634 0.007957928 0.019539684 -0.04993429 0.03710522 0.0059611327
부터 -0.02038167 -0.03057267 -0.0040483377 -0.029628951 -0.07503971 0.114411905 -0.06015052 0.00026739232 -0.02503224 -0.025889229 0.022515297 -0.02015049 0.0146027105 -0.03635849 0.04390796 -0.05083827
만든 -0.025389228 -0.035114307 -0.0020300231 0.025878664 -0.016924616 -0.054549187 -0.015198423 -0.0040137894 -0.08491929 -0.032042935 -0.00584304 -0.00560328 0.062200803 0.11836863 0.02328499 0.06471848
주인공 -0.032754235 -0.0546535 -0.00050759985 -0.09028933 -0.038652565 0.00687678 -0.13186094 0.044664554 -0.0818152 0.018418591 0.06297365 0.021464363 -0.047154278 -0.009429725 0.020676745 -0.03786184
받 0.03722143 0.027097931 -0.013619143 0.039048415 0.07261873 -0.034471624 -0.0970771 -0.0240686 0.055653926 0.004503117 0.022620946 0.002392189 0.0048497804 0.0012118809 -0.032721724 0.015221703
합니다 0.020825405 0.03175748 -0.04590884 0.042267174 0.08851891 0.029209293 0.042153317 0.010885611 -0.031594492 -0.0011160106 0.0040369947 -0.0087430375 -0.009274775 -0.018917937 0.005413069 0.00448839
우리 0.067229494 0.023768198 0.12968995 0.040217992 0.008794245 0.038637955 0.073150106 0.05039695 0.014812542 0.028954718 -0.055916168 -0.0035904185 -0.043016836 -0.08447241 0.044011984 0.11258238
두 0.07150965 0.014623251 -0.037664637 -0.003075778 0.049812112 -0.027584122 0.026993982 -0.001138634 -0.10457563 0.011866302 -0.09927317 0.007156472 0.0422455 0.1447513 -0.0094182165 0.034481764
살 -0.064233094 0.023492657 -0.098469645 -0.06321505 -0.0012771916 0.11192831 -0.11588529 -0.15326653 -0.09439525 -0.028438777 -0.08463807 -0.030568691 0.0033428827 -0.008169832 0.06381011 -0.007501115
!! -0.08340294 0.015611372 -0.016013324 0.0011045716 0.08772732 -0.021462345 0.0629557 -0.11264172 -0.05401737 0.021035235 -0.023475165 0.005273583 0.05183258 0.13715911 0.051116914 0.005185353
길 -0.005832041 0.050284244 0.031141765 0.009614859 -0.1454559 0.05821599 -0.11292249 -0.03674404 -0.08939249 0.038071513 -0.014920909 0.00235408 0.020721704 0.04809674 -0.032521393 0.0028156335
엔 -0.043787837 -0.1104225 0.011977726 0.0011683134 0.06564182 0.1362785 0.0099370675 0.018881235 0.03412969 0.041760094 -0.14175548 -0.014351309 0.013258566 -0.17351502 -0.030676626 0.059227124
괜찮 0.039435737 -0.031569906 0.014218183 0.09216114 0.04394884 -0.012903418 0.02643889 0.07757494 0.08726831 -0.12778859 0.24068762 -0.010768925 -0.07230975 -0.0071925176 0.10478658 0.0643901
기억 0.048116226 0.0011923633 0.10071762 0.06951439 -0.08053172 -0.0086757215 0.015876789 -0.050475657 -0.0211836 -0.05433557 0.075285755 -0.09836557 -0.03760525 0.032277126 0.094597794 0.049584735
연출 -0.09544119 -0.0083074765 0.060429752 -0.04351708 -0.0017997217 -0.037181523 0.06444163 -0.06598022 -0.022716323 -0.036328044 -0.02293729 0.03222935 0.036984056 -0.06250074 -0.017967451 -0.043797046
한다 0.028845185 0.0059085763 -0.00031973462 0.029702885 0.06807999 -0.028400704 -0.009065673 0.033647314 -0.030614616 -0.06293548 0.030348612 0.05051546 -0.010046047 0.03234011 -0.0068233977 0.014556297
때문 -0.024893556 0.014685304 0.005170479 -0.05074175 -0.038472638 -0.062447608 0.040176764 0.047850933 0.104974255 -0.008659052 0.077269115 0.026566451 -0.01904859 -0.022426166 -0.030517975 0.014079422
이나 -0.08274917 0.050779514 -0.050435875 -0.021390919 -0.0149014 -0.0617261 0.007943216 0.054710973 0.0535646 0.015038864 0.032959647 0.07683077 0.010328145 0.12751167 0.0034348224 -0.11249203
ㅎㅎ 0.0659594 -0.020487884 -0.08817448 0.10494067 0.07951265 -0.017058874 0.08050896 0.039325193 0.017621381 -0.11869992 -0.038640514 -0.09383952 -0.08500094 0.017630253 0.075290486 0.030579839
요 -0.05808405 0.00576742 -0.09997896 0.0327151 0.044241987 0.062789835 -0.05070159 0.09713985 -0.062572524 -0.004259304 0.0010964972 0.05545371 -0.032110635 0.027490374 -0.0023414441 0.025780274
저 0.045310844 0.034691814 0.03558804 0.09719 -0.0796443 0.023598133 -0.009112734 0.011470628 -0.042460196 0.009572729 -0.029826416 -0.019468416 -0.11418464 0.07461154 0.065388575 0.057310943
재 0.091010496 -0.091038495 0.0572599 0.096032426 -0.04755981 -0.11317779 -9.440824e-05 0.08007407 0.052186113 -0.14052644 -0.039327912 -0.053544134 -0.044304915 0.044305284 0.09259233 0.09004044
꼭 0.12737659 -0.08239966 -0.054538142 0.12083556 0.051797535 -0.16019897 0.1651146 0.120973006 0.11020391 -0.14642376 -0.0519088 -0.12429384 -0.075656116 0.070941605 0.120229706 0.15466976
랑 -0.032063458 -0.016528517 0.010332967 -0.009134273 -0.03413211 -0.07970904 -0.016601166 -0.005253626 0.003984978 -0.026396783 0.058127627 0.03156308 0.04694114 -0.058338948 -0.025242059 0.0068006855
며 0.0544573 0.039983775 -0.10691201 0.06710422 0.08798693 -0.051397536 -0.0076981545 -0.022017106 0.025617909 -0.030436896 0.01959076 -0.03394732 0.017428502 -0.011218803 0.024505587 -0.03417568
현실 0.023988215 -0.0379839 -0.041238 0.0214769 0.03353614 -0.03583281 0.10556131 0.08571446 -0.05550643 -0.1310525 0.21431027 -0.10053729 -0.06212136 0.006423999 0.09731427 0.08487493
긴 0.0044326177 0.09580752 -0.20770541 0.02650224 -0.081081755 0.080584064 -0.100794226 -0.06294099 -0.004760654 -0.044959992 -0.12857395 -0.01706875 -0.009070895 0.07229174 -0.043032326 -0.01176938
ㅡㅡ -0.07217276 0.12073155 -0.043702297 -0.13608287 0.015280851 -0.17147303 -0.10359027 0.053529464 0.07886854 0.06416028 0.1315385 0.040190846 0.14770342 0.088300124 -0.02537174 -0.13214187
무슨 -0.07719716 0.07388623 -0.0103088515 -0.09708486 -0.09923975 -0.079430304 -0.076958105 -0.07253863 0.07158458 0.060007073 0.060798813 0.030827276 0.065849364 -0.1490655 0.014695341 -0.11410965
내내 -0.047166605 0.030672707 -0.012588687 -0.05308619 -0.03125369 -0.025518212 -0.068664484 -0.16016278 -0.15073253 -0.04432154 0.014387469 -0.01934947 0.020932904 0.22077449 0.03987763 0.014284903
결말 0.020145968 0.028288186 0.048243493 -0.03429584 -0.029207047 0.038290884 0.027040109 -0.01330238 -0.09470581 -0.011347017 -0.044216715 0.026799656 0.06696694 -0.049994305 -0.014226014 0.00053903623
죽 -0.0060551967 0.004961834 0.026512956 -0.021893464 0.009020199 0.06420922 -0.0978224 0.0092662405 -0.10678962 0.040370464 -0.04344739 0.027889118 -0.034966573 0.017081624 -0.10868348 -0.00412445
남자 0.07076151 -0.012515182 0.029971978 0.04685757 -0.013220292 -0.01489739 -0.20910622 0.032726128 -0.02433466 0.055324018 -0.00065367547 0.02949135 0.030013846 0.058554526 0.01814608 -0.008845552
세요 -0.019934123 0.034606192 0.070172384 0.006092924 -0.11130829 -0.07265327 -0.13260272 -0.089700945 -0.011587099 -0.012188169 0.074202895 0.059653547 0.025338521 0.008295407 0.067411505 0.011686566
전개 -0.022481523 0.07475291 -0.0023597027 -0.07214154 -0.07284785 -0.017430734 -0.038588602 -0.008117458 -0.0054188906 0.027943695 0.067032054 0.042741023 -0.025708035 0.027817745 0.013640493 -0.05014093
마음 0.08136547 -0.09414002 -0.082146004 0.17749147 0.017026829 -0.0025456815 0.080970526 -0.015835728 0.19673878 -0.15714392 -0.012076809 -0.11165489 -0.09449512 0.022166299 0.082357034 0.09921807
소재 -0.06283929 0.051041976 -0.021659097 -0.072635695 0.04639671 -0.016189065 -0.0066862525 -0.06469504 -0.026229003 0.021123212 0.03708305 0.11651656 -0.040049996 -0.04424486 -0.09587472 -0.108456455
속 0.036991164 -0.020554855 0.10974338 -0.041945655 -0.08813636 0.04896774 -0.010976377 -0.058309667 0.0023317756 -0.054502383 0.0413999 0.046719898 0.06553781 -0.00018088799 0.050044376 0.08648566
공포 -0.0039076935 0.0500962 0.045740183 0.041463852 -0.033528432 0.02392601 -0.02489537 -0.053292785 0.00020822708 0.037946302 0.05194119 0.058736555 0.04909418 -0.03376342 -0.05247851 -0.08261908
아서 0.024394618 0.033303645 -0.031195482 0.0057792915 -0.11642222 0.07091641 -0.15063968 -0.004096756 -0.05851733 0.043191686 0.090341754 0.051644772 0.013652243 0.06422454 0.025939198 0.057907753
다른 0.009914525 -0.10062704 0.10640684 0.016847406 0.024827177 -0.02264102 -0.07958687 0.02318365 -0.0050762384 -0.012918006 0.07414592 -0.033728898 0.012163912 -0.046943154 -0.039067175 0.04453348
씨 -0.022752134 0.037224706 -0.03662782 0.03100267 0.09642684 -0.02643455 -0.13193116 -0.037742175 -0.064910345 -0.01452528 0.04016532 -0.029609432 0.004497249 0.019510385 0.020973762 0.019323936
인생 0.033878826 -0.04923123 0.048613228 0.11685934 -0.031447582 0.0821751 0.031533197 0.016647875 0.091615565 -0.0792692 -0.016907947 -0.12522835 -0.06931768 -0.046262797 0.027926069 0.12358278
~~ 0.08034614 -0.028357718 -0.05498207 0.02439803 -0.027728545 -0.052798893 0.010561367 -0.063355684 -0.065764144 0.001803836 0.025569165 0.014852015 -0.04212128 0.10376064 0.05491807 0.070729576
짜증 -0.13858435 0.02925566 0.09180852 -0.10088295 -0.07372125 -0.1052327 0.074211486 0.11907935 0.03662483 0.15335664 -0.09502991 0.14190017 -0.025595272 -0.15747488 -0.14661829 -0.08807407
짱 0.08724343 -0.009936098 -0.04556386 0.061660193 -0.00828697 -0.037204187 0.07590943 0.1398138 0.08064051 -0.10383398 0.13901478 -0.046204112 -0.042795714 0.06353296 0.093491115 0.11939893
뿐 -0.031683847 0.044507083 0.12440518 -0.045051623 -0.026792653 0.038478427 0.08514373 0.095259875 -0.14003785 0.03774701 0.06468658 0.10923793 0.0144875655 -0.10922992 -0.013825848 -0.046114344
은데 -0.014265928 -0.04510855 -0.040561847 -0.09342067 -0.019354405 0.08831971 -0.022060744 0.007938281 -0.078833744 -0.022271592 0.005777806 0.024337146 -0.00593183 -0.052662633 -0.08887378 0.031219363
별 -0.090297624 0.06665136 -0.0030889704 -0.026420906 -0.014509377 0.006971566 0.12917125 -0.0009772961 0.030708475 0.026483618 -0.035012044 -0.030024277 0.05579145 0.032698736 -0.010750515 -0.0715173
아요 0.14490235 -0.0630479 -0.08878923 0.07551016 0.06445944 0.024652312 0.13401937 0.08681462 0.0022666594 -0.1011369 0.07014494 -0.06250687 -0.073379315 0.020424496 0.02818135 0.046833687
유치 -0.11212229 0.109749876 -0.0043640207 -0.121183164 -0.028195903 -0.024799092 0.07364214 -0.05673786 0.057862498 0.015589351 -0.1486796 0.10038193 0.0068454663 0.021544345 -0.059085727 -0.039964676
가장 0.048616283 0.09591986 0.10336207 0.08609926 0.0077531035 -0.07121114 0.017596828 0.033817027 0.09107297 -0.05827542 0.05693957 -0.064950585 -0.07835792 0.002452495 0.10151237 0.009535586
필요 0.18421693 -0.12465911 0.13393408 0.07055888 0.051454186 0.073910825 0.09937545 0.09436862 -0.055930518 -0.10873844 -0.15833694 -0.116276085 -0.09771565 -0.07478976 0.12784769 0.15849397
음악 0.08070855 -0.031384613 -0.08630584 0.045394953 0.0036187714 -0.04197136 0.097044386 0.029480623 0.06668529 -0.042994916 0.038873564 -0.06462348 -0.0619662 0.03313715 0.021393262 0.031918243
) 0.0057335687 -0.051983643 0.024474407 0.04660581 -0.07159083 0.09050325 -0.10080686 -0.0005593343 -0.087930284 -0.012575347 -0.115078464 -0.003789417 0.012642538 -0.056329317 -0.07503329 0.05604609
일본 -0.047388997 0.039371297 -0.012304449 -0.0835581 0.09328368 0.029965386 0.018157294 -0.028362654 0.033416457 -0.0016562411 0.07894997 0.03545753 0.018130535 -0.046021953 -0.08068979 -0.022071796
낮 0.17337626 -0.022421591 0.110937856 0.185116 0.06758172 0.17909011 0.09139796 0.12270767 0.03286415 -0.14867553 -0.22071797 -0.1485725 -0.12234249 -0.0839018 0.19903961 0.08720868
아이 -0.020888364 0.042077634 -0.095929556 0.051943306 0.123792544 -0.0919808 0.012558204 0.026603607 0.10943494 -0.035334792 -0.01897409 -0.0070929383 -0.023753067 -0.0033958163 -0.0007265392 0.08771676
;; 0.00095771323 0.06785396 0.034604914 -0.06565983 -0.009386892 -0.07632326 0.10948475 -0.01308697 -0.07636283 0.08352797 0.002541773 -0.035015218 -0.06855129 0.023691483 0.010260536 -0.044040035
오 0.028682673 -0.06173196 -0.122684576 -0.0052227587 0.005471218 0.03262145 -0.046014857 0.08510145 0.03918161 0.009964114 -0.015207054 -0.030689714 -0.028380794 0.015012557 0.0046575996 0.011796243
반전 0.043194965 -0.0006409153 -0.02762337 0.020569304 0.033270568 -0.027774427 -0.059450198 -0.035180647 0.032862473 -0.016810343 0.025628245 -0.07670306 -0.03248732 -0.0020926748 0.015858265 0.010986632
수준 -0.091671504 -0.032917187 0.0050677974 -0.09621695 0.23938377 -0.06298661 -0.021030143 0.009279417 -0.03033555 0.10131721 -0.10773124 0.09293009 0.042106953 -0.11960353 -0.084634684 -0.0322446
다니 -0.040471286 0.016150646 -0.027126454 0.028567584 -0.074352026 0.0432462 0.03841221 -0.073453486 -0.019522823 0.0037862102 -0.028495017 0.01673918 0.009608304 -0.0041230107 -0.015564097 0.0011642594
웃 0.12033865 0.052776452 -0.04852139 0.046609223 -0.030286351 0.008751068 -0.090064436 0.01437952 -0.01827607 -0.050243057 -0.12128669 -0.043981846 -0.03839673 0.10078749 0.07491545 0.06944201
매력 0.039864007 -0.0017138809 -0.07105919 0.039855044 0.036744576 0.022774236 -0.0075982534 -0.059778124 -0.004541616 -0.07952449 0.115797944 -0.13903506 -0.08769669 0.12178863 0.090756126 0.08644159
맞 -0.076660596 0.13166003 -0.08837422 -0.036129873 0.04170776 -0.064124346 -0.038344663 0.0415749 -0.067551546 0.0024585682 0.05613365 0.112985894 -0.008047102 0.026837986 -0.049507562 -0.038536325
인지 0.0035624427 0.003124819 0.07050896 -0.066334 -0.07758925 -0.115390286 -0.03017942 -0.015316123 0.031158647 0.065647535 0.02479197 0.014031397 -0.059501693 0.029334193 -0.05563077 -0.026020387
가슴 0.071518146 -0.10078934 -0.037692875 0.15681331 0.08005973 -0.11062998 0.123344794 0.07096615 0.10735543 -0.1291105 0.042214174 -0.06492124 -0.1158092 0.026315946 0.060328905 0.15116085
없이 0.0044806427 -0.016120803 -0.04684593 0.007846119 0.0142685 -0.026872475 0.061696146 -0.018318232 0.15522338 -0.10881855 0.009033433 -0.11962212 -0.0131809125 0.1644841 0.048939053 0.0007495441
원작 -0.076124944 0.08431806 -0.008695276 -0.00875957 0.07100589 -0.03660632 -0.076123804 -0.002010109 0.04990168 0.025535196 0.01605618 0.045707703 0.10142403 -0.07134111 -0.033752713 -0.051275447
ㄷ 0.06833146 -0.091690496 -0.07883407 0.096076496 0.023973705 0.04684385 0.017557763 -0.0028618963 -0.05632771 -0.020670408 -0.013417768 -0.029386362 -0.09254716 0.0031753785 0.029124048 0.034498904
인간 0.073640645 -0.0070640557 -0.021890119 0.084748425 0.028661449 0.038209207 0.013793582 0.00447004 0.014739225 -0.04437133 -0.045467895 -0.0733956 -0.05919367 -0.008246994 0.009338152 0.11021555
데 0.044140227 -0.058462013 0.069474444 -0.0025984459 -0.029036881 -0.0016771195 0.005698648 0.14238228 0.0035511213 0.074584424 -0.055782106 -0.028830964 -0.00672156 -0.112981245 -0.06174509 -0.042485032
굿 0.16759332 -0.063733034 -0.029990565 0.16998637 0.05578969 0.17521843 0.09801918 0.084323965 0.08440927 -0.1462394 0.0951089 -0.12737924 -0.08999743 -0.020098552 0.1276428 0.18716069
ㅠ 0.012560577 -0.06230858 0.03846919 0.06780858 -0.060634725 0.020086465 -0.0641701 0.12582637 -0.054703858 -0.01599747 -0.030735223 0.0027111277 -0.07993539 0.024564305 0.019402258 0.050021492
높 -0.02178577 0.056865722 0.03955165 -0.08465765 -0.06892236 -0.017919717 -0.04666371 -0.040671136 -0.004687268 0.05102362 -0.03875443 0.0045181005 0.018672755 -0.04906599 -0.06564401 -0.119149216
밋 0.05118654 -0.08430725 -0.0031971703 0.03800676 -0.06476842 0.005340317 0.065638766 0.044894975 -0.035258986 -0.0765176 0.11363346 -0.023660593 0.024095437 0.11295303 0.1288105 0.06587566
( 0.040214084 0.08348962 -0.12553066 -0.0037358825 -0.06394198 0.030429075 -0.00011660671 0.044281103 -0.050301783 0.023075629 -0.04727578 -0.021591518 0.028365396 -0.027594194 -0.031156134 -0.03838389
만드 -0.05035226 -0.06823843 0.0416964 -0.053326346 0.0695928 0.009301951 -0.041154865 -0.06232044 -0.17605023 -0.0022309117 0.037609853 -0.012664887 -0.06558824 0.052838042 -0.041564368 -0.047728393
급 -0.05175077 0.11396411 -0.056310486 -0.034550782 -0.09674751 0.0325385 0.050604448 0.0008578476 -0.0022062345 -0.03106161 0.035769403 0.0269119 -0.08633133 0.060902443 -0.051243193 -0.07531162
눈물 0.156231 -0.031917702 0.09646988 0.14067876 0.056197613 0.07301547 0.075884774 0.09544383 0.07439981 -0.12828006 0.053983815 -0.096502766 -0.098218724 0.04992774 0.09778946 0.11612028
보여 0.036948126 -0.014739389 0.034982856 0.038270634 -0.024875216 -0.012546683 -0.0469203 -0.061819848 -0.11303999 0.05221579 -0.0020833716 -0.04091669 -0.0035930807 0.02308408 0.035101935 -0.042254187
준 -0.012679988 0.04755226 -0.058846887 0.0250663 0.137672 -0.0124808485 0.031468347 0.0786348 0.009856205 0.017826436 0.14132337 0.05347002 0.0038186093 0.050524756 -0.03707559 -0.011359996
찍 -0.015597866 -0.007842497 0.05841068 -0.013685566 -0.022735085 0.0014141736 0.09584207 -0.01885979 0.060644783 0.105028816 -0.025666991 0.03460938 -0.043382578 -0.028526722 -0.06778729 -0.10579479
인가 -0.08135752 -0.008927969 0.068108015 0.029936839 -0.08592676 -0.09403749 -0.05556017 0.066136874 -0.076768935 -0.012987027 -0.07419236 0.02364493 -0.03426026 0.027185801 -0.058293253 -0.04365712
노 -0.14605777 0.19946559 0.060926627 -0.1851146 0.13456796 -0.18561168 0.02879063 -0.16880524 -0.01918547 0.09141277 0.050135974 0.16972074 0.26617512 0.008410318 -0.14923322 -0.17250864
을까 -0.041762475 0.03948174 -0.03493995 -0.059170507 -0.010332903 -0.053231433 0.0065543014 -0.032546364 0.1265435 -0.006998753 -0.007251228 -0.001591525 -0.010513889 -0.09049229 -0.042847026 -0.049895838
용 -0.022361653 0.08794419 0.01950403 -0.047766592 0.054071993 0.010265331 0.013318242 -0.085900724 -0.09299935 0.054275505 -0.037471488 -0.05359864 0.05188337 -0.013423852 -0.0135710845 -0.034747556
코미디 0.008364146 -0.05508306 0.008631169 -0.049512554 0.059739042 -0.061125204 -0.041999783 -0.1293147 -0.09892065 0.028386777 -0.13190135 -0.04566863 0.010184789 -0.019470306 -0.046708014 0.031745672
마 -0.058673576 -0.034703154 0.12841554 0.021233847 -0.02333994 0.08652719 0.012003452 0.017192747 0.0015066998 0.035385497 -0.0637413 0.031870242 -0.013912512 -0.11051157 -0.058873624 -0.0642799
화 -0.037533462 -0.015267764 0.059598673 -0.05385551 -0.05432133 0.005962451 0.02402309 0.053734273 -0.053077705 0.018910881 -0.04818542 0.02358341 0.029164333 0.00033505406 -0.03318671 -0.06523969
신 0.023640683 -0.050676864 -0.10724853 0.0618948 0.08381764 0.0662761 -0.03324252 0.044713046 0.05956652 -0.0118389595 0.0048213005 0.0024156447 -0.056252353 0.0038111166 0.01718259 0.054751243
모든 0.094990194 0.058855396 0.12192021 0.06301305 -0.04446926 0.0016227951 -0.037923485 0.10427737 0.076574996 -0.06058244 -0.09252342 -0.026933573 -0.056135733 -0.02628953 0.015799385 0.098584086
쓰 -0.06305882 0.047535617 -0.05649464 0.028891722 -0.04699923 -0.059704725 -0.04075361 0.05594513 0.12698403 0.09036051 0.11874084 0.025064636 -0.04624287 -0.017635653 -0.042872034 -0.03183006
여 -0.0023531434 -0.022948679 0.065165244 -0.0111752795 0.026329037 -0.10307786 0.039445266 -0.07806279 -0.018269775 0.0137235215 0.03329029 -0.002608198 0.0433669 0.077261016 0.020874806 0.043414887
5 -0.010474495 0.092106536 0.060707092 0.031046376 -0.03396993 0.041872066 0.118745774 -0.063657194 0.09132699 0.020243788 0.021333626 -0.038000155 -0.08011133 0.05597572 0.053158734 -0.015666034
아직 0.05752737 -0.029075153 -0.1036761 0.09482161 -0.12530583 -0.047324296 -0.026591629 -0.06147316 0.020072825 -0.08585091 0.046693493 0.011270346 -0.012957473 0.03710143 0.037092574 0.008572629
추천 0.049802136 -0.054468103 0.07475428 0.037458465 -0.038063757 0.00991767 0.04874666 -0.06454442 0.08875488 -0.103175156 -0.04689504 -0.06137818 -0.04310154 0.07429173 0.065276474 0.06523386
처럼 0.00632609 0.016532332 0.0010198421 0.026171377 0.023470027 -0.10003149 0.12048269 0.020593965 -0.035753228 -0.07134325 0.010462094 0.044803854 0.027456127 0.011890068 0.058508094 -0.017878918
눈 0.055583753 0.042649396 -0.04992743 -0.015124635 0.0073002893 0.023977807 -0.034738503 0.011862874 -0.09816785 -0.025706101 0.15717687 -0.026948072 0.00076042325 -0.005703727 0.055877518 -0.009276415
아닌 -0.031431448 0.058533862 0.055270996 -0.018933326 -0.088833734 0.0056132823 0.06445574 -0.049779434 0.026357463 0.0055845743 0.16929185 -0.010525986 0.026833044 0.060355764 -0.025351277 -0.009730896
자체 -0.009436801 -0.0056294547 -0.0297674 -0.027374329 0.017882124 0.050439853 0.08719833 0.048082724 -0.022680935 0.04394785 0.009273972 -0.003103691 -0.07977973 0.043966305 0.016575458 -0.031280592
울 0.0818638 0.0036404473 0.04906449 0.11769649 0.09830857 -0.037167687 0.048964825 0.058165435 -0.008625828 -0.117734626 -0.12792441 -0.071999356 -0.045622054 -0.081371106 0.06566636 0.10435502
몰입 0.050992582 0.069670975 -0.0047654184 0.067749515 -0.0098911915 0.026377942 -0.017200047 0.03020178 -0.023651881 -0.13244356 0.11423645 -0.096445955 -0.083767414 0.065827236 0.08675621 0.08826178
4 -0.10099524 0.018273707 -0.033394087 -0.01228956 -0.050493784 -0.0561354 -0.047853984 -0.017948998 0.0016838771 0.016114822 -0.114430994 0.030955894 0.07880943 -0.007411741 0.031849213 -0.08450407
대박 0.093926355 -0.018739264 -0.10926167 0.12431435 0.033598587 0.044421062 0.0044939592 0.0815174 0.16508484 -0.09439162 -0.038461365 -0.092224404 -0.084764585 -0.06564243 0.112839416 0.08570377
몇 0.044218305 0.015990932 0.024476785 -0.004814065 0.045931604 0.0003022115 -0.08591851 0.0064865057 -0.046572357 -0.01257272 0.022460038 -0.036518138 -0.031402536 0.058605894 0.0069144173 0.07135095
스럽 0.05439151 0.02581012 -0.032274034 0.03433312 0.05382359 0.014277633 -0.025440395 -0.060819607 -0.078486934 -0.0035226613 -0.08548371 -0.023907633 0.014722845 0.011506879 0.034000825 -0.007069077
실망 -0.14171477 0.06601801 0.039256155 -0.10058209 -0.019385235 -0.14520706 -0.09322878 0.11773582 -0.08878213 0.11137492 -0.12268041 0.0641068 -0.05820872 -0.012038358 -0.15587598 -0.07730929
는다 0.016328776 -0.047988515 -0.09875214 -0.00086847745 -0.032299917 0.03320152 -0.11349267 0.012767803 -0.0259575 -0.061031956 -0.013062893 -0.036334783 -0.0093628615 0.14526522 -0.0013097454 -0.012971908
대한 0.024692575 -0.107480295 -0.026670227 0.021785332 -0.055080924 -0.005328709 0.023541994 0.0844588 0.05894499 0.013354651 0.046802726 -0.0015744618 -0.015867166 0.10046223 0.1003823 0.03520761
죠 0.0092932815 -0.046173975 -0.12096659 0.0012590581 0.14193724 0.004593918 -0.008145002 0.079691105 0.0794888 9.7949305e-05 -0.0086894715 -0.00010507443 -0.026947254 -0.07692176 0.022177208 0.027147949
란 0.039407246 -0.081528075 -0.036242604 0.0052882 -0.0010634181 0.010281971 0.050609127 0.008179055 -0.061243184 -0.015648527 -0.12481692 0.044057272 0.021107776 -0.034099896 -0.011088616 0.002005964
그런 0.09631008 -0.035558473 -0.14781256 0.014802688 0.061414767 0.0819411 0.003800583 0.003926309 -0.018277202 -0.048812658 -0.0762553 -0.082733184 -0.0101844985 -0.0352579 -0.019431842 0.0030201771
솔직히 -0.02606553 0.045426488 0.05215579 -0.025271058 -0.03915522 -0.029036483 0.079441674 0.0563619 -0.027345546 0.012001273 0.002743573 -0.030134415 0.054431338 -0.090137295 -0.057277393 -0.015195152
캐릭터 -0.065448344 0.023582848 -0.02985538 0.017927067 -0.005041578 0.020036822 -0.058407634 -0.12068397 -0.11173973 0.014942507 0.02141176 0.050206423 -0.011261035 0.0642936 0.0129512735 -0.029171549
ㅎ 0.051081892 0.029133782 0.061335035 0.069973454 -0.062277857 -0.01863422 -0.036433507 0.022782678 0.019665208 -0.09379959 -0.04763325 -0.061805483 0.03122275 0.111971475 0.08203583 0.0027660155
모두 0.10505047 0.007947456 0.038136087 0.025039006 -0.006166718 -0.012875706 0.03125523 0.03891791 0.10647974 -0.051813673 0.055241045 -0.06399507 -0.088501975 0.027211733 0.074649006 0.028848577
아주 0.0010120962 -0.05199213 -0.07666125 -0.0017633267 0.023035614 -0.1028742 0.10760766 0.0395053 0.103774786 -0.046159446 0.18625516 0.0054176776 -0.022972578 0.105676524 0.016101535 0.019212492
- -0.0052198325 -0.09661431 0.05456845 0.007075589 0.10477505 0.030487115 0.0056495564 -0.02796122 -0.07915012 0.042672385 -0.028858814 -0.0033167435 0.010547313 0.006144532 -0.019097183 -0.02479839
가족 0.031690247 -0.02110146 -0.032583274 0.045215834 0.078836635 -0.049399126 -0.010351543 0.08209883 0.05734719 0.018244425 0.10555584 -0.001915011 -0.07178587 0.018855572 0.025284717 0.086441584
여운 0.14658281 -0.18357065 -0.0074804644 0.1565768 0.14481342 -0.02800953 0.17623988 0.066960715 0.13326892 -0.19535632 0.12367581 -0.15260348 -0.1646058 -0.0030516817 0.20574614 0.11732253
건지 -0.08182847 0.10707934 0.08241595 -0.097348325 -0.054287393 0.0028636418 -0.076369986 -0.043463595 -0.07132938 0.07628457 0.101913586 0.016065922 0.08539727 -0.010219742 -0.08617117 -0.053737387
전혀 -0.008317145 -0.0067314086 0.067678995 -0.08964726 0.16014084 -0.046357706 -0.03016691 0.122184254 -0.1451282 0.07018469 -0.098527566 -0.013349043 -0.03415085 -0.10109554 -0.07659559 -0.09131605
연기력 0.033277057 0.06166367 -0.0805451 0.022388015 0.0109165665 -0.033385247 -0.02460751 0.026972905 -0.022873035 -0.09063248 0.057416774 0.008965227 -0.0641449 0.08137516 0.034895822 -0.027479734
나라 -0.036089044 -0.05075532 -0.016146854 0.027070947 -0.018769434 0.051980447 0.0057029016 -0.046773966 0.029239561 0.08231139 -0.07603461 0.021294659 -0.017381918 -0.014271657 -0.020835042 -0.05498377
후 -0.014381238 0.00035906892 -0.00062770257 0.023157204 -0.024730373 0.01957551 0.0064991782 -0.03243422 -0.019881176 0.050723236 -0.0008617296 0.03027031 0.030196464 0.027698725 -0.008554571 -0.05609057
될 0.0020330532 0.01829296 0.1943747 -0.026312152 -0.069750346 -0.0010123049 -0.06246633 0.023424793 0.03274949 -0.0023348734 -0.13161495 0.050523523 -0.06123505 -0.1448511 0.013049563 -0.008929516
다면 0.02962826 0.07609768 0.030653354 -0.004130576 -0.037291676 0.034351725 0.04060619 -0.023103988 0.19091101 -0.012730995 -0.030930134 0.017667344 -0.077580884 -0.044330116 -0.0034114756 -0.011268178
뭔가 -0.031302016 0.13579082 -0.06602891 -0.07468917 0.0022633772 -0.010412527 -0.11142464 0.046185456 0.05929235 0.0020533581 -0.0656172 0.03520877 0.00013650305 0.041423257 -0.032401774 -0.0061299573
그래도 0.08845412 0.0048697856 -0.143267 0.0663046 -0.044361167 -0.0147736 0.045423497 0.04958172 0.022144161 -0.046639875 0.09447581 -0.032879286 -0.021980437 0.17888615 0.12519477 0.016565239
; -0.07946593 -0.0065106293 0.10859994 -0.0061792433 -0.0345843 0.025002863 0.17633191 0.051863536 -0.094242536 -0.003107421 0.069129735 0.0634126 -0.04830797 -0.017914314 -0.041457012 0.0085585425
시리즈 0.038113356 -0.006107709 -0.015924813 0.06518819 -0.0036696952 0.027155835 0.0052062394 0.04468211 -0.038067102 -0.080849476 -0.059318133 -0.0846981 -0.010962313 -0.011599015 0.013299474 0.06054539
근데 0.06290458 0.018510642 -0.08434446 0.06568411 0.02966908 -0.020117292 0.073675916 -0.0012725691 0.010983668 -0.029107105 -0.027236054 -0.03672675 -0.024514116 0.07679814 0.015725337 0.016604219
작 0.015847862 -0.032433018 -0.017875843 0.0064771604 -0.006500245 -0.013396951 0.007914802 0.10647739 -0.02212928 -0.0015669372 -0.0117824 -0.06428397 -0.08738296 0.058443017 -0.021588163 -0.005116471
표현 0.03689135 -0.031038243 0.040617213 0.03794609 0.07678221 0.08003519 -0.049649112 0.005549043 0.044113725 -0.03619496 -0.117592745 -0.061446216 -0.043534882 -0.083889045 -0.00084341894 0.04540922
모습 0.058835104 0.08548176 -0.012639052 0.081250936 -0.0760044 -0.008258951 -0.051476657 -0.006409965 0.05919319 -0.056908533 -0.026688024 -0.13354954 -0.05186545 0.08607615 0.0435552 0.11211464
공감 -0.01658126 0.03403446 -0.024269994 0.05010919 0.07603258 -0.06028792 -0.039344657 0.039339386 0.04125027 -0.034369066 0.1227668 -0.013309176 0.0025516103 0.13972236 0.044245444 0.029115705
계속 0.07461567 0.045860283 -0.048015058 0.08332551 -0.021393824 -0.015844172 -0.01660979 -0.003628641 0.0346469 -0.07391382 0.06907854 -0.02939725 -0.042703297 0.10845927 0.0891451 0.051982068
먹 -0.041215252 -0.05269277 -0.0020511555 -0.0606239 -0.07656231 0.02326272 -0.102796786 0.09548248 0.038109224 0.026744604 0.002776851 0.0071545467 0.016245004 -0.03711121 -0.02949891 -0.036031798
"" -0.037770756 0.023713307 0.06965888 0.031706415 -0.06062133 -0.039501123 0.05395541 0.0054973755 -0.05370654 0.070045136 -0.014114915 0.0031688537 -0.028302118 -0.0034374988 -0.041153453 -0.009452679
제목 -0.028158687 -0.065617256 0.08509939 -0.039898522 0.12322028 3.1795076e-05 0.058005296 -0.030485129 -0.059031267 0.037387516 -0.12810452 -0.01698604 0.002073573 -0.043060254 -0.060602754 0.0797717
7 0.10772046 0.024260905 0.039444834 0.09937572 0.060229387 0.10853009 -0.06461147 -0.012486788 -0.027669914 -0.024007222 -0.03223162 -0.007243118 -0.10663293 -0.0037548628 -0.014546813 0.05282538
이랑 0.018280981 0.012892459 -0.08825377 -0.044271942 -0.06123953 0.025824336 0.0592032 -0.04796735 -0.06676587 -0.020723276 0.03044477 -0.07240464 0.06201123 0.073849395 0.013117562 -0.024791507
극장 -0.08420964 0.021940935 -0.088544264 -0.053795878 -0.0356477 -0.07803773 -0.089495376 0.010149318 0.029048366 0.019330535 0.020092037 -0.043629136 0.021493148 0.027812228 -0.03468915 -0.05661951
치 -0.029235682 0.01570148 -0.051783413 -0.09397637 -0.014471312 -0.07972424 -0.085669585 -0.0810945 -0.07735212 0.032679487 0.028608093 0.00860544 0.037273157 0.0208234 -0.066576354 -0.061145697
비 -0.024196506 0.06549122 0.05090008 -0.0551795 0.041893184 0.069439866 -0.021965228 -0.025145132 -0.1056522 0.015220947 -0.08859192 0.022714607 -0.06516428 -0.03821199 -0.04778791 -0.0694766
이걸 -0.053434893 0.0355644 0.11298838 -0.05517309 0.011361222 0.05717006 -0.02809992 -0.050441526 0.0761919 0.074017815 0.08800656 0.050288197 -0.01828765 -0.06186128 -0.040392872 -0.05251598
진 -0.017582437 0.03178512 -0.055821586 0.06287988 -0.024297606 0.015570045 -0.07231435 0.041797817 0.0036006887 0.07238735 -0.066699564 -0.047390774 -0.06228292 0.004115839 -0.028007638 0.03788417
바 -0.09024507 -0.05679607 0.09218098 -0.092727065 -0.06653921 -0.060064606 0.023613468 0.0759953 -0.11042307 0.08851295 -0.059032228 0.054309692 -0.050846808 0.050209656 -0.032300893 -0.027514216
대사 -0.009197869 -0.0787547 -0.051849734 -0.001676824 -0.028200507 -0.07208564 0.039793685 0.031610828 0.011917535 -0.0069731264 0.0404613 0.028368631 0.01525674 0.056068815 0.05453251 0.03497461
부분 -0.0009709696 0.013785348 0.016517337 -0.002938726 0.057656668 -0.03058407 0.03550011 0.024573129 0.08462367 0.0065218294 0.0796241 -0.09032838 -0.030638212 0.04783416 -0.011936618 -0.02354259
그렇 -0.036735523 0.018761849 0.04621665 -0.06370983 0.128613 -0.0509368 -0.018661125 0.0071704937 -0.039335605 0.06937026 -0.017145034 0.02489432 0.03844875 0.15300448 -0.014021013 -0.060195126
개봉 -0.043729603 0.011971892 -0.023143502 -0.028977295 -0.025756108 -0.026989782 0.021669071 -0.040682778 0.15589699 0.06353582 -0.033497933 0.032726012 0.012960879 -0.11299333 0.004934878 0.0017553846
0 -0.13164009 0.14895494 0.07833558 -0.11634776 -0.145829 -0.07395075 0.1044672 0.06179954 0.05357453 0.0765509 0.035200942 0.10054449 0.15304808 -0.10815969 -0.15503354 -0.09756974
OO -0.03904013 0.051471397 0.0008343061 -0.035687223 -0.09091385 0.025142549 -0.008381133 -0.089628115 -0.020476641 0.08255974 0.04040903 0.035212908 -0.033297922 0.045408368 -0.108007714 -0.0967022
대단 0.03915549 -0.0473033 -0.01117386 0.09459056 0.018336818 0.13825156 0.043879427 0.035271056 0.09443458 -0.07417837 -0.04799099 -0.07519081 -0.005583129 -0.0050084433 0.026670294 0.10513138
어디 0.002636401 -0.060852103 -0.002789769 -0.016774328 0.10017575 -0.0071599907 -0.055018257 0.029987654 -0.009449291 0.041573044 -0.06291349 0.013765761 -0.033653006 -0.06360364 -0.0993763 -0.050028928
작가 -0.054335468 0.046432916 0.10645306 -0.0865968 -0.0751274 -0.098132834 0.0023283903 -0.048799146 -0.0527068 0.08332866 0.04805682 0.0485468 0.10749786 0.1241159 -0.046957515 -0.03352082
된다 0.122974604 -0.05511014 -0.03868733 0.0076567666 -0.0120553225 0.0650747 0.044488642 0.13549882 -0.014079366 -0.07797268 -0.023805715 -0.17917088 -0.10259683 0.049036425 0.06529553 0.06465422
아쉽 0.024429293 -0.084982604 -0.09745185 0.08300318 0.04680128 0.028396545 0.080254175 -0.021226186 0.01669556 -0.045109503 0.036023315 -0.07423365 -0.029708007 -0.010508719 0.07608819 -0.021535799
기분 0.017799888 0.04248926 -0.08415077 -0.03736003 -0.08896562 -0.001960752 -0.023278467 0.043228537 0.03454917 0.020767326 -0.0062385458 0.067742474 0.0401297 0.06492976 -0.05428151 0.031368148
제 -0.024782838 -0.0015546953 0.009356836 0.031109994 -0.05034384 0.013737857 0.052608993 -0.12066035 -0.031286515 -0.017157512 0.016132427 -0.039803308 0.018943146 0.085749544 0.012590258 -0.03418011
진심 -0.024303555 -0.057457637 0.037104003 -0.011798053 -0.14867799 -0.063603185 0.048928864 -0.12044656 -0.065701514 -0.0034206486 -0.028405104 -0.07256398 -0.02523513 -0.053325653 -0.034565806 -0.04552039
타임 -0.031587627 0.052363884 -0.089293934 -0.03230386 0.0623881 0.055395946 0.024910891 -0.03613899 0.023162905 0.0059095924 0.04958313 -0.013113102 -0.0711848 -0.060816705 -0.01720033 0.0059815627
/ 0.017548135 -0.048207864 0.02113287 0.013245027 -0.011666915 -0.0022810355 -0.07668144 0.008262628 -0.101147845 0.049166743 -0.07238795 0.012984736 0.067464165 -0.04008213 0.0042026867 -0.005509902
웃기 0.025357908 -0.050592612 -0.02567256 0.113457106 -0.0050868783 -0.07512764 -0.02537178 0.021650288 0.109482504 -0.045904413 0.14929974 -0.03155825 0.021623172 0.15645745 0.041320786 0.024067946
보이 -0.0065862113 -0.046972036 -0.027750771 -0.0025659404 -0.05561197 -0.012530993 -0.1272432 -0.036766022 -0.04462188 -0.012000716 -0.0061754845 0.04779207 0.045549557 0.00017469388 -0.07122997 -0.089026585
놓 -0.0053218715 -0.02018119 -0.0667613 0.014041749 -0.034403026 -0.0026575308 -0.015069395 -0.026548848 -0.0082017165 0.06024383 -0.006421014 -0.010992185 -0.05541744 -0.03743742 0.008274153 -0.09232851
해도 -0.0033479817 -0.0096938955 0.033024218 -0.024976892 -0.09165517 -0.06296926 -0.034360323 -0.070717156 -0.000708141 -0.02821067 0.008276349 0.06603974 0.07460937 0.12863784 -0.05769681 -0.013410361
이제 0.0011251918 0.011638789 0.010476271 -0.027197061 -0.071866825 -0.026348663 -0.042213395 0.08647212 0.041631684 -0.0126045495 -0.04128683 0.037908066 0.027620519 -0.1357711 -0.013442671 -0.06221747
물 -0.04820169 0.0053889886 0.029085884 -0.0015141341 0.08180315 0.010291935 0.05195556 -0.11378519 -0.048471946 -0.0042123664 0.00036673545 0.07236958 0.041737504 0.048893586 -0.08774289 -0.044307
봐야 0.09275968 -0.087378755 0.07192545 0.12735681 0.06832525 -0.0053705308 0.0825678 0.061250214 0.068474576 -0.005162107 0.009407832 -0.08750632 -0.009518177 -0.012376378 0.10130055 0.08213947
막장 -0.12286895 0.015791416 0.11901077 -0.043536454 0.016906489 0.02293585 0.08515448 0.12716247 -0.09779545 0.045311183 -0.09642898 0.09746777 -0.09030958 -0.042762652 -0.11134309 -0.098634884
삶 0.17647287 -0.0017782468 -0.12167352 0.069944575 0.11184554 0.059667647 0.033208285 0.15445042 0.10673988 -0.1267088 0.0066178134 -0.09541865 -0.08864287 -0.051650938 0.073857084 0.122548796
친구 -0.020685595 -0.033989206 0.027105674 0.051373225 0.081205025 0.039352134 -0.082396135 0.002676358 -0.11725885 -0.018766528 0.06976187 0.01316972 -0.050974507 -0.04926315 0.06836673 0.015868485
잔잔 0.05747826 -0.0624204 -0.13734487 0.027554322 0.11891339 0.048293706 0.11469895 0.075857945 -0.0026403514 -0.013878255 0.072047025 -0.05313265 -0.13305548 -0.005100187 0.11429484 0.041261114
조금 0.069616765 -0.024111794 -0.003160213 0.024251893 0.015843982 0.12651174 -0.023521585 0.016140036 -0.013770826 -0.06706295 -0.2207197 0.040538102 0.048115473 -0.08328104 0.020511394 0.06434839
씬 -0.045076758 0.02271861 -0.02180575 0.02470113 0.03557407 0.014695187 -0.052338563 -0.024684008 0.02285894 -0.058073808 -0.014360538 -0.010114983 -0.009583225 -0.0060533527 0.036738805 -0.04927654
딱 -0.10372206 0.027199116 0.017025668 -0.103469476 0.015477899 -0.022032885 -0.05627082 -0.079464294 -0.025977423 0.09139252 0.021078918 0.064332545 0.03857862 0.061432004 -0.027057884 -0.07053351
영상 0.002195453 0.09697981 0.024166944 0.047884986 0.04168771 -0.06533208 -0.12891302 -0.06004815 -0.06204359 -0.047195252 -0.064929985 -0.03165933 -0.008219961 0.09484721 0.11267549 0.04045962
억지 -0.101271875 0.08642275 -0.043999422 -0.0359056 0.004704325 -0.009234944 0.07159268 -0.026476732 0.0327276 0.07558831 -0.19456014 0.10317766 0.0368536 0.002666039 -0.08049565 -0.1355645
찾 0.038143452 -0.04790521 0.059580125 -0.009759276 0.0750558 0.004006503 0.036243606 0.055205435 0.024373781 0.03279786 0.10403631 -0.015515402 0.039842874 -0.08674882 -0.033329174 0.040570423
요즘 0.074202426 -0.0785521 0.032291535 0.10826215 0.07359256 0.1321759 0.038632594 0.015422765 0.04007108 -0.089057714 -0.12052399 -0.09112677 -0.081948064 -0.11928076 0.09889824 0.055880535
같이 0.033311788 0.024057845 0.055672407 0.025592754 -0.09179116 -0.0016707284 -0.082581766 -0.10442885 0.008394349 -0.026739977 0.0030104727 -0.008056849 0.04425551 0.070324905 0.028213168 0.046893764
중간 -0.032469384 0.06524323 -0.037460778 0.0007099688 -6.586878e-05 -0.03009105 0.038452093 0.089097634 0.045626506 0.0229679 -0.07654699 0.040628556 -0.006280057 0.03290407 -0.09211615 0.009174575
" 0.007956297 0.009166725 -0.042862713 0.017535716 -0.09612725 -0.0017175593 -0.060271993 -0.06175435 -0.09111994 0.052259594 0.025821183 -0.011936454 0.06363131 0.07324996 0.021445898 -0.03687894
구 0.044767603 -0.016543124 0.07305272 0.03742311 0.008439776 0.045414004 0.0061661396 -0.03063653 -0.049800213 -0.050151695 0.054237694 0.014240202 0.012423857 -0.014713303 -0.0043351687 0.048130244
라도 -0.033990365 0.077778175 0.058660947 -0.10007228 -0.04145398 -0.04524078 -0.06568481 0.06915431 -0.05108463 0.09155905 0.005890794 0.026502237 0.02950394 0.04945517 -0.06800081 -0.03177337
스릴러 0.020974196 0.10678597 0.035010636 -0.0021748813 -0.03531763 -0.06869683 0.0010031599 -0.09846902 -0.036504447 -0.015017631 -0.027758522 -0.0010147747 0.016677136 0.08104037 0.044222727 -0.011148717
가지 -0.019815693 0.07506514 0.11857404 -0.035444982 -0.05951809 0.04602801 -0.08340568 0.02317621 -0.16941151 0.07352535 -0.19596209 0.029584317 -0.08639223 0.1019203 0.011301929 -0.04825039
8 0.080474615 -0.06403687 0.008983039 0.086894415 0.048668094 0.10874164 0.01490002 -0.0117650805 0.025463138 -0.04120818 -0.10407167 -0.068236955 -0.11178452 0.007813539 0.07810785 0.045090828
믿 -0.011172339 -0.097904645 -0.08757258 0.016595991 0.0142700365 -0.018934326 -0.04465024 0.11494205 -0.0372993 -0.08102202 -0.109196216 -0.021918748 0.020698695 0.0283586 -0.037443474 0.051448885
싫 -0.010319985 0.06808078 -0.043579098 -0.0761928 -0.016917726 -0.052378785 0.091510646 -0.030712131 0.08184636 0.09367687 -0.028902195 0.06328643 -0.03393284 -0.083433725 -0.03921964 -0.053269207
.... -0.031048438 0.03270759 0.05252416 -0.027450994 -0.05005259 0.008633656 -0.032542683 -0.15243545 -0.12325145 -0.019896692 0.04902828 0.036639195 0.097374775 0.050156612 -0.056769572 -0.028752487
나왔 -0.010615357 -0.08473462 0.04205558 -0.045089647 -0.029018847 0.076463655 -0.036727432 -0.073438 -0.11312043 0.045919493 -0.0006592287 0.049265917 0.012374442 -0.11550971 0.07400647 0.0459703
아까운 -0.08455289 0.076585844 0.09480933 -0.18028119 -0.11733768 -0.07608831 0.021013707 0.14066531 -0.0671461 0.053060945 0.04326225 0.05633986 0.07658658 0.017178278 -0.09810854 -0.038970735
긴장감 0.049250703 0.0951061 0.048979983 0.021973383 -0.10917035 0.020975824 0.06306102 0.025192168 -0.062209703 -0.082697906 -0.01374022 -0.05331752 0.0036568213 0.09093896 0.11093331 0.028388165
점수 -0.05925207 0.027559219 0.09428876 -0.0679942 -0.053847227 0.024902353 0.042202476 0.049912743 0.06470717 0.032206047 0.07468596 0.032576106 0.069153555 -0.012754937 -0.067537844 -0.015870653
개인 -0.024099397 0.100355916 -0.10139761 0.010319717 0.017306339 0.059691288 -0.0008197959 -0.02328049 0.020804405 -0.03302184 -0.13561599 -0.08430207 -0.02313431 0.11276716 0.0145031735 0.05178827
제대로 0.010359379 0.037745487 -0.035998248 0.040843144 -0.06404418 -0.010662078 -0.09167544 0.001692236 -0.001257344 -0.030156674 0.03803093 0.022060664 0.06548228 0.11454311 0.019182198 -0.013372825
부족 -0.04932177 0.022783851 0.016567472 -0.04958887 -0.007689157 -0.005988439 0.071309485 0.1285179 -0.037468784 0.085758485 -0.022971256 0.055896483 -0.014885184 -0.052022334 -0.08584634 -0.026617892
이유 -0.03348563 0.00697675 0.008175847 -0.050031 0.08908398 0.048685897 -0.0033438033 0.090885475 0.057485122 0.012183756 0.022519104 0.0010923101 0.06467127 -0.09907824 -0.057875387 0.028044887
노래 0.08262348 -0.0331477 -0.018818699 -0.012912031 -0.06257406 -0.009857076 0.009470085 0.0037899546 0.02703988 0.013495433 -0.12113095 -0.01427018 0.0140718715 -0.009067939 0.04315447 0.055547215
만큼 0.070411116 0.06569791 -0.051155556 0.014138459 -0.01731848 0.036670156 -0.0797984 -0.008260763 0.030188702 -0.046158113 -0.078738205 -0.11723849 -0.10955751 0.048011657 0.0625695 0.07526632
라면 -0.022389876 -0.052057143 0.04028811 0.05880698 -0.029358052 -0.03306249 -0.018271064 -0.07963078 -0.080295786 -0.038462956 -0.037076946 -0.06162987 -0.0034344401 -0.029682891 0.0028780776 0.013974355
시작 -0.08657892 -0.03524105 -0.03956099 -0.061244037 -0.029569443 0.021736287 0.097980745 -0.040906485 -0.13885473 -0.028195113 0.048463278 -0.0064603807 -0.010942085 -0.074411936 -0.013566598 -0.0054685553
구나 -0.023883829 -0.0067050033 -0.16827448 -0.046395596 0.001974803 -0.011188094 -0.037912484 -0.07302114 -0.031006685 -0.058126967 0.088365175 0.0659646 0.06228528 0.18215303 -0.025601309 -0.0641454
잇 0.1163341 0.057296332 0.06150617 0.0481123 -0.033897307 0.05405357 0.0106342165 0.032351293 0.011445915 -0.026135841 0.02491266 -0.011842628 -0.08784758 -0.0072796424 0.08537102 0.07630355
특히 0.030191896 -0.001390674 0.04092037 0.08629618 0.07450437 0.14140157 -0.04119214 0.020552691 0.022482023 -0.11996379 -0.08362903 -0.020642458 -0.01352734 -0.02628868 0.10758842 0.09131234
한테 0.016959352 -0.054651953 -0.00019383102 -0.06891486 -0.015584808 0.037048943 -0.027945144 -0.003424629 -0.083007656 0.0040932857 0.019560715 0.072461665 0.089955814 0.064483844 -0.006024213 0.012357475
날 0.03380288 0.020181205 -0.015347009 0.025185768 -0.06082223 0.0975765 -0.041659035 0.040009476 -0.011530844 0.02076697 -0.084370784 -0.004471617 -0.032694068 0.042434458 -0.041682635 0.00039706338
려고 -0.043304924 0.10807354 -0.10563655 -0.028295841 -0.01668322 0.028851766 -0.05099447 -0.054641854 0.07772006 0.016415387 0.17689842 0.05067785 0.022858331 -0.036377713 -0.046352427 -0.020488663
제일 0.0033787428 -0.020543663 -0.07025042 0.07379039 -0.09555589 -0.094814084 0.012094603 -0.056797534 0.050964437 -0.08885602 0.087974764 -0.05261103 -0.024599003 0.11677956 0.042383622 0.039138142
아름다운 0.09540054 -0.06600479 0.04548975 0.08236459 -0.047477905 0.016725408 0.10801757 0.0097114 -0.00024085614 -0.06281493 0.1571907 -0.09148147 -0.064718075 0.06992068 0.17143202 0.091771334
시대 -0.007821285 0.025132846 -0.08535293 0.0032565012 -0.02427054 0.0024274935 0.01289097 -0.017263897 0.085669205 -0.10737529 -0.042034417 -0.050104335 -0.024728129 0.012772908 0.026268555 0.07358574
ㅜㅜ -0.0009607246 0.0006227109 -0.07923123 -8.929758e-05 0.042610876 -0.026861066 0.038450878 0.10720275 -0.025646219 -0.09084371 0.09835063 -0.0877713 -0.044280056 0.00936651 0.06653107 -0.002408044
어떻게 0.02821717 -0.07313834 -0.019127475 -0.042019 0.061902594 0.067311116 -0.023950519 0.0058202944 -0.0362609 0.009314127 -0.086716495 0.0251602 0.051560946 -0.115757756 0.012751337 -0.06707262
엔딩 -0.02701023 -0.10332898 0.022606896 -0.007386716 0.05628215 -0.01150976 0.03221585 -0.0322552 0.04769099 -0.07859212 0.16465995 0.022222778 -0.039946888 -0.034007933 0.0077016433 0.07191914
당시 0.032082867 0.0007315064 -0.09317543 0.092346445 0.02775256 0.020573435 0.058745507 -0.006533831 -0.07651062 -0.05598079 0.07007445 -0.022061734 -0.019958526 0.06008784 0.0049529043 0.05343019
하지만 -0.03708271 -0.0023760453 -0.047862522 -0.05048334 -0.051245626 0.004271643 -0.052587766 0.06471582 -0.030828796 0.07701253 0.050938748 -0.011102481 0.053840347 -0.023233011 0.010752487 0.053533606
나름 0.044231273 -0.06732341 0.0059319483 0.0030959193 0.066668354 -0.085375294 -0.015467979 0.116667695 0.009588493 -0.024711479 0.044284523 0.06800544 -0.0072638164 0.0026784122 0.042522904 0.016076125
봐 -0.010603297 -0.058800727 0.04183286 0.010787538 -0.12297917 0.064103864 0.073727176 -0.056758147 -0.22869639 0.04600115 -0.03301846 0.0328769 0.05655621 0.0581653 0.010097089 -0.021562237
무섭 -0.037951373 -0.022701994 -0.06549573 -0.00019327307 0.06611831 -0.084889755 0.03946301 -0.039962184 0.017718537 0.016258767 0.008679694 -0.06969346 0.042813797 0.13731973 0.026640648 -0.07914348
나온 0.03411597 -0.032636564 0.024753004 -0.033472694 -0.01422593 -0.022081759 0.020758813 -0.01375772 -0.056601577 -0.0027331554 0.0605306 -0.023956595 0.003634999 -0.015765842 0.004157632 0.022076312
명 0.036996245 0.025448497 -0.008286401 -0.028440522 0.05451758 0.07219514 0.06175921 -0.0074509666 -0.11491337 0.031666774 0.041476157 0.06735924 -0.025579995 -0.08022869 -0.039699044 0.050407693
사 -0.0073308833 -0.03493035 0.029625067 0.043706823 -0.10422778 0.09221068 -0.007375964 -0.075070955 -0.04612759 -0.060588636 0.006478036 -0.03461646 -0.042810448 0.12474888 0.030067202 0.019688675
니까 0.029911252 0.016677152 -0.105070844 0.020404002 -0.009687257 0.040189445 0.061463874 -0.04856308 -0.042309128 -0.00686698 -0.03738936 -0.010634847 -0.067328334 0.04854527 0.00097446836 -0.030675728
오랜만 0.082146175 -0.046170756 -0.1126499 0.103849865 0.021231724 0.041517604 -0.035099268 0.14665182 0.071012266 -0.061893474 -0.07251569 -0.048302207 -0.061952498 0.04711004 0.04851831 0.039920423
이것 -0.055014126 0.046869528 -0.0009884369 0.022740303 -0.10357484 0.008862272 0.010900413 0.047802236 -0.05685397 0.058542587 -0.118181035 0.052407023 -0.07113892 0.13432518 -0.018253801 -0.04897062
해요 0.00496117 -0.055014357 0.03559163 0.05405558 -0.026197232 0.009583159 -0.05284424 0.11854971 -0.046214387 -0.11762162 0.19116366 -0.025686396 -0.007091056 0.06110408 0.06604377 0.061418053
9 0.07317328 -0.01666376 -0.055950854 0.057343673 0.050312284 0.09266345 0.0017933787 0.012713516 -0.0128527135 -0.11525578 -0.08439978 -0.06642869 -0.027136728 0.014096652 0.08943954 0.11471688
팬 -0.06782498 0.039862864 -0.065536685 -0.021723012 0.023787716 -0.1008958 -0.16919559 -0.0023543907 -0.14930597 -0.039083965 0.059067953 0.031213753 -0.021081723 -0.019525966 0.009114815 -0.00095061684
차라리 -0.16910243 0.089883864 0.053144276 -0.086473845 -0.039801527 -0.11838116 0.1302924 0.08883157 0.057728063 0.18907812 -0.11616364 0.10555823 0.05854219 -0.031678844 -0.14763711 -0.17125006
절대 -0.004690784 0.011469872 0.039804038 -0.03835085 -0.018638324 0.07024212 -0.1446361 0.06740373 -0.12987716 0.066834696 0.04679294 0.043037336 0.035485886 -0.082078055 -0.0902613 -0.04215061
세상 -0.010823564 0.063315645 0.06124473 0.05373508 -0.018084908 -0.041609205 -0.09677692 -0.016504515 0.032079354 -0.09689911 -0.03361976 -0.1207355 -0.04893645 -0.039685126 0.033406273 -0.005508693
세 -0.045532443 -0.00402545 -0.022839667 0.05157297 -0.11010936 -0.03182749 -0.055337418 -0.03784531 0.103737086 -0.043018688 0.07074725 0.038269475 0.03429019 0.10098896 0.07222416 -0.0013415153
못하 -0.03285485 0.02802148 0.12312244 0.0190352 -0.077739716 0.006421776 0.1579191 0.012655651 0.14688346 0.059424285 0.051230796 0.040924694 0.022897014 -0.0012757818 0.026325615 -0.018298939
의미 -0.030457381 0.112945296 -0.10874105 0.03879222 0.011273317 -0.009046421 -0.0738235 -0.090556115 -0.0008364632 -0.06312939 -0.037814505 -0.02956039 -0.0064315684 0.039478153 -0.033776015 0.0014911873
던데 0.0876927 0.05441618 0.010072146 0.03585569 -0.08934956 0.027449204 -0.004645668 0.08526116 -0.011857031 -0.09567 0.025045011 -0.12435637 -0.08979626 0.010772823 0.08822206 0.07626729
봄 0.08791255 0.012636736 -0.10562992 0.109365106 -0.016474172 -0.06329661 0.027200608 0.10171676 0.18098329 -0.09745558 -0.04473591 -0.090374306 -0.001851092 0.066853665 0.011466567 -0.0014531397
욕 -0.0883289 0.08682702 0.031685334 -0.095998056 0.025508538 0.008247079 0.12396479 0.038459923 0.087632395 0.073444776 0.023948353 0.11123821 0.00026873412 0.008220876 -0.026221752 -0.034128197
훌륭 0.08625733 -0.009300127 -0.009539653 0.13097565 0.009342007 0.064866774 0.046220977 0.013306006 0.029542387 -0.08520754 0.07485297 -0.09177186 -0.038226373 0.0027861053 0.1717377 0.0514628
너무나 -0.003747027 -0.024737475 0.004092742 0.025706505 -0.09487651 -0.08081931 0.012402698 -0.05898249 0.08579979 -0.07618658 0.024701405 -0.004613797 -0.05349411 0.09760331 0.031975344 0.05427404
강추 0.13220009 -0.04694863 0.078609094 0.18319209 -0.022227408 0.20153055 0.085848026 0.15045868 0.059020832 -0.13544914 0.025938245 -0.07169816 -0.120088555 -0.09275959 0.16483387 0.1512074
감 0.014311044 0.062215935 -0.12019675 -0.001520897 -0.03062297 0.084614515 -0.071503945 0.007812635 0.02050362 -0.085803755 -0.075551376 -0.008253134 -0.004296508 0.122371584 0.039968267 -0.0028583584
됨 0.037637137 0.07310176 0.013872754 0.0005534647 0.033450916 0.045695305 -0.06872051 -0.09620077 -0.09211361 -0.08224861 0.036898755 0.02198105 -0.0073715975 0.099809065 0.0059908847 0.058860984
ㅡ -0.02422102 -0.007693675 -0.008959533 -0.10547007 -0.10904665 -0.03894244 0.0922422 -0.16728456 0.04181629 0.039812308 -0.0884826 -0.0065444745 0.09888252 -0.053231563 -0.018265614 -0.012574865
따뜻 0.16843411 -0.0850726 -0.05447045 0.13665909 0.07315141 0.007362182 0.107673116 -0.007216971 0.09143615 -0.14987555 0.10947609 -0.101039276 -0.129627 0.12419091 0.11875591 0.101021536
빼 -0.041131537 0.12562236 0.052608997 -0.094192185 -0.011491775 0.05560185 0.084035225 0.05459932 -0.05285128 0.076758064 0.0068532713 0.05278183 -0.00879902 -0.010362247 -0.028727345 -0.10045469
느끼 0.0316498 0.06888066 0.0873852 0.05678748 -0.0640808 0.060300734 -0.020824663 0.00035839016 -0.004852771 -0.0292323 0.07278091 0.008411095 -0.036432505 -0.030999657 0.059233088 0.025772138
해야 0.0705013 0.0064116796 0.034374453 -0.019403946 -0.078263484 0.07306516 0.032986987 0.009254856 0.12682667 0.03821107 -0.07387934 -0.019676339 -0.006418522 -0.13656306 -0.038783383 0.05002306
드 -0.05598766 -0.026286598 0.010909231 -0.020955622 -0.03352288 -0.034422554 0.021951426 -0.099005744 0.007463155 -0.0068916837 -0.093419395 -0.024531318 -0.010152177 -0.021109005 0.045870017 0.017376434
도대체 -0.029437285 0.04671931 0.009562389 -0.119913496 -0.1131622 -0.06877072 -0.0022447794 -0.010494868 0.14215949 0.055538144 0.089869544 0.09444609 0.069020525 -0.08935525 -0.08837382 -0.036550663
어야 -0.05898771 0.05559846 -0.04886285 -0.11208258 -0.035636283 -0.05842971 0.0035227933 -0.100469925 -0.11899877 0.051313236 -0.09429995 0.058214866 0.033697516 0.06158346 -0.06884156 -0.0656571
답답 -0.020151645 0.03211341 0.03606519 -0.049788885 -0.01980727 -0.056923352 -0.016590826 -0.012535874 0.019537153 0.06683432 0.12930755 0.08930723 0.11127449 -0.037574187 -0.11653888 -0.07058254
마다 0.04862902 0.009685562 0.01232239 0.012004367 0.012686822 -0.044453632 0.01838073 -0.041881785 0.012996324 0.030368205 0.06707796 -0.009572927 -0.039757714 0.03644199 0.039713316 0.0009952069
준다 -0.007420297 -0.031647038 -0.021025002 -0.037244394 0.09990947 0.08227005 0.14547521 0.1325558 0.12491073 0.022422682 -0.11113496 0.0035636802 -0.1324566 -0.064046055 0.033268012 -0.05328106
글 -0.030462677 -0.08469463 -0.06032411 -0.0377736 0.04834619 0.04336616 0.052506782 -0.015094712 -0.01718399 0.03042077 -0.0662943 -0.058032546 -0.010644022 0.14867511 -0.016787974 -0.02003326
전쟁 0.02217335 0.078863166 0.029236376 0.03090654 0.04528935 -0.031928293 0.052815136 -0.005901312 0.061886918 -0.042101957 0.119371384 -0.050551888 -0.04931571 0.050304852 0.047090154 0.019226465
놈 -0.03448811 -0.029143944 0.06172063 0.027984342 -0.048954885 -0.0010006513 0.09771666 -0.021495085 0.13676749 0.026761934 0.09311614 0.0068672574 0.04832381 0.071074486 0.0360187 -0.05414706
설정 -0.0913229 0.03874444 0.054236908 -0.06950645 -0.0026147142 -0.12578416 0.008253057 -0.08899174 -0.16106771 0.13230994 0.013813779 0.053600185 -0.027758764 0.06881097 -0.11847967 -0.110443465
무엇 0.08498565 -0.07153849 -0.054539815 0.075665206 0.08629582 0.018072335 -0.013577542 -0.0077211875 -0.13633512 -0.011312761 -0.10784188 -0.049556263 0.048622675 -0.04386896 0.0024492615 0.026110563
수작 0.08949829 -0.10276685 -0.07207177 0.20950134 0.11038157 0.09418613 0.17087494 0.08694773 0.16008803 -0.22626966 0.14267394 -0.1922224 -0.10906599 -0.03555249 0.15627709 0.16851422
만화 -0.051506866 0.027256675 0.03015029 -0.06712333 -0.03535415 0.00026881453 0.06618972 0.08403571 -0.034405753 0.009084926 -0.0793432 0.063461564 -0.0017045276 0.0030947523 -0.04650747 -0.03745174
흥미 -0.011510294 -0.08759981 -0.027099937 0.001029714 -0.073108226 0.013402109 -0.124128655 -0.08136642 -0.041765317 -0.038204104 0.039261103 0.0011931271 0.024049964 0.14106323 0.023574825 -0.011948943
그저 -0.059377555 0.01968045 0.03823999 -0.069512516 0.026368596 -0.02798233 0.1213108 0.11753957 0.024257416 -0.035165515 0.0046939533 -0.017513812 0.032397233 -0.07722504 -0.013990046 -0.031180631
감정 -0.0099449605 -0.0005114851 -0.071449384 0.063772395 -0.06599571 -0.033773612 -0.06129957 -0.02201173 -0.07344039 -0.045410555 -0.0948239 -0.0070354515 0.027302017 0.1081694 0.10684714 0.06568658
미국 0.042043746 -0.036316495 0.07833444 0.04323699 -0.049004015 0.07475544 -0.043847054 0.04072256 -0.03959436 -0.041958798 -0.044203583 -0.020449944 -0.044502858 -0.143676 -0.044969063 0.015801819
신선 0.06296126 -0.0134515185 -0.1321351 0.016027937 -0.007579125 0.13574795 -0.1059726 0.12362178 -0.08217757 -0.0572502 -0.022347618 -0.02390008 -0.025315965 -0.08389934 0.05710433 0.07870115
행복 0.09293418 -0.06858345 -0.106671534 0.13857895 0.023241132 0.023702426 0.05153122 0.100055784 0.096043 -0.10955436 -0.011908496 -0.05886668 -0.072109 -0.039666485 0.057335548 0.08685529
뻔 -0.07526472 0.083210066 0.04152072 -0.0623179 -0.029908007 -0.09038073 -0.04125549 0.04716266 0.031624217 0.0604923 0.06565171 0.024365894 0.0225908 0.06828899 -0.038255364 -0.06603766
형 0.035024043 -0.042924672 0.024139034 -0.020075439 0.024511766 0.028805798 -0.008855139 0.024180172 -0.061473954 -0.08215136 -0.032719962 -0.00049517956 -0.0005918108 -0.025209311 0.022710588 0.06783993
앞 0.052617427 0.08559241 -0.18437934 0.034821797 -0.026377292 -0.009822941 -0.036570378 -0.06508897 -0.024359362 -0.0070378105 -0.07268675 -0.034957655 -0.03694035 0.13032553 0.006265522 0.050268058
허접 -0.092101604 0.12097886 0.16324261 -0.1323549 -0.112910375 -0.1276146 0.05647392 -0.0748362 -0.11061697 0.11776334 -0.0996384 0.14231838 0.16706458 -0.117282875 -0.12085567 -0.18573542
어도 -0.041346386 0.13339058 -0.05303633 0.0017047165 -0.05201993 -0.027090712 -0.04171684 -0.1252455 0.06527508 -0.06686291 0.07397213 -0.05384842 0.06289979 0.07240982 0.014395571 0.025242126
군 0.023743225 -0.025257682 0.059564017 -0.03438236 -0.026227638 0.019674212 -0.11958015 0.10488112 0.09795389 0.03316855 0.10797082 0.010004343 -0.02547253 0.054138318 -0.01740375 -0.024423115
시절 0.019512566 0.04201127 -0.013204473 0.041350335 0.043549765 0.050381005 0.03202962 -0.08949609 -0.03777751 -0.06114512 0.049567692 -0.058569133 -0.04786145 -0.0074371407 0.10853935 0.046517875
관객 -0.025890937 0.008295863 0.09254722 -0.096012846 0.032917153 -0.006696613 0.023809282 -0.052237313 -0.004562801 0.045223724 -0.023489367 0.07576388 -0.03350237 -0.05253343 -0.0880452 -0.08391322
배경 0.01565708 -0.006110799 -0.030759672 0.012961433 0.07378643 -0.06332097 -0.04790981 -0.0069226986 0.107882276 -0.032703914 -0.047956 0.020798482 0.009641404 0.00028875883 0.011709077 0.0075269598
6 0.058404367 -0.028042892 -0.041711252 0.035048842 -0.018792292 0.05332695 -0.052355614 0.01702953 -0.03300882 -0.005411388 0.042220414 -0.0424379 -0.008401444 0.09357674 0.048210148 0.072473034
초반 -0.014051861 -0.0055512553 0.086233154 -0.044919696 0.12340765 0.020474588 0.075065255 -0.12989938 0.0908988 0.052539583 -0.113380104 0.11029135 0.063404836 -0.089255214 -0.06422597 -0.050665684
사실 0.0034459217 -0.03624743 -0.10037452 0.050274525 0.006788232 0.02183052 0.052500736 0.042890497 0.050961964 -0.003140564 0.0075538275 -0.05871005 -0.07077587 0.015859464 0.056829784 0.03228342
웃음 0.0027663594 0.093410164 -0.0034766921 0.04203425 -0.03771231 0.006789765 0.0172795 -0.052627616 0.05031311 0.0012715352 -0.030667504 0.019961199 -0.030409498 0.093430474 0.0676133 0.0035258448
답 -0.06134417 -0.0027896315 0.038199354 -0.033451382 -0.10582365 -0.018148256 0.034989566 0.03308815 0.05461104 0.058025293 -0.11004983 0.0122557 -0.017517745 0.047218252 -0.076840386 -0.048681773
엄청 0.063860916 -0.041837092 -0.11600941 0.07276052 0.042257305 -0.027043805 0.0038789515 0.04615534 0.09751154 -0.016893666 0.11278234 -0.051677503 -0.06399434 0.040440258 0.094847985 0.100105815
더라 0.08999269 0.0134405885 -0.11610964 -0.017630743 0.037511475 -0.022013107 -0.025190972 -0.01006329 -0.07286987 -0.06788032 -0.13257521 -0.020514714 -0.031363353 0.10251693 0.042185985 0.027098188
라니 -0.011824624 -0.028589861 -0.06979801 0.0009081474 0.048139118 -0.051582552 0.06784138 0.022091025 0.11017206 -0.069979995 0.04007273 0.04475195 -0.04568709 0.05690307 0.09252683 0.03846508
질 -0.030126652 0.01935651 -0.0031231388 -0.09110149 -0.098746605 -0.036873177 0.056317423 0.06642425 -0.03903396 0.046502687 -0.023002956 0.026605578 0.006297892 -0.05582267 -0.07401871 -0.09246878
자신 0.042446945 0.059170812 0.048868377 -0.02964266 0.16241771 0.006283385 -0.021857206 -0.010697987 -0.040756285 0.021192305 -0.05353549 -0.032376032 0.02705868 0.033785712 -0.031198615 0.0081295995
추억 0.047053616 0.0064717354 -0.0121842725 0.012213581 0.05620214 -0.024551027 0.022009958 0.056368086 0.004557907 -0.066671476 -0.005044377 -0.013910421 -0.10531277 0.034041516 0.039307933 0.042328246
캐스팅 -0.011683083 0.11730761 0.042246092 -0.08528237 0.055828225 -0.011892666 0.031147279 0.0013095093 -0.051646236 0.09665453 -0.017348697 0.046764497 0.05728245 0.01696647 -0.03893579 -0.06807763
첨 -0.03775793 0.02471095 0.00010691767 0.0013774652 -0.018713323 -0.03293308 0.04576386 -0.13582699 0.09507346 0.014395459 0.017748972 0.013556753 0.10024883 -0.02778808 -0.049102448 -0.041000362
멋있 0.08879431 -0.0839932 -0.09758392 0.1519339 -0.036501773 -0.055355594 0.011442882 0.08771288 0.037487485 -0.11158148 0.12335551 -0.083197445 -0.021265408 -0.0065912195 0.08746926 0.06491385
류 -0.06825453 0.011698537 -0.083073735 0.012384359 0.00079306203 -0.09398238 0.06781516 0.19484723 0.042468622 0.02757151 0.073433615 0.011158811 -0.09328764 -0.07169773 -0.06965239 -0.012555059
어색 -0.124579936 -0.015320539 0.100770265 -0.12282464 -0.026909191 -0.12880333 -0.017431663 0.013647715 0.050560787 0.11235048 -0.08401119 0.05164487 0.063658826 -0.026630377 -0.149397 -0.06330127
시나리오 -0.016454663 0.07882731 -0.029141096 -0.03134678 -0.06691776 0.0018577356 0.054407623 -0.09443371 0.011752685 0.0312322 0.114249445 -0.03880562 0.085250326 0.116753004 -0.030341653 -0.029003654
머 -0.10930347 0.045603566 0.07730923 -0.060717277 0.017662264 -0.09853539 0.061489765 0.047183037 0.029023461 0.11084409 -0.015514363 -0.0002018655 0.077780634 0.014480916 -0.0560324 -0.042496838
밖에 0.029523043 -0.053295378 0.104868084 -0.012980003 0.026816132 -0.00797145 0.13557334 0.08524644 0.012550901 0.0643769 -0.0006112422 -0.020272302 0.014914153 -0.21023127 -0.011196428 0.032366518
OOO -0.029541604 0.04391394 -0.014787578 -0.095175296 -0.037260264 -0.011761482 -0.07011188 -0.0062587876 0.09353049 0.0404496 0.041381687 0.105278544 0.041169807 -0.017683228 -0.005405132 -0.0922606
슬프 0.04950211 -0.1337988 -0.019026158 0.17574744 0.055635773 0.04931497 0.03638903 0.08742861 0.09974022 -0.14339453 0.12138047 -0.09310806 -0.09114547 -0.025505148 0.117137164 0.12325643
정신 -0.13642207 0.053176228 -0.039353162 -0.03222822 0.03854835 -0.100318074 0.0068480186 -0.054059945 -0.0020034697 0.015431131 0.077685386 -0.014748649 0.09544731 0.15353866 -0.09465295 -0.09907651
분위기 0.023142999 -0.007015521 0.0069488613 0.041262295 0.028069505 -0.029884089 0.037961774 -0.04367676 -0.064402476 -0.008541331 0.0064812964 0.04742131 0.011055434 0.116076 -0.013530019 0.076855406
소름 0.05136252 -0.1344285 0.008022605 0.088187546 0.12085883 0.0011470778 0.11724884 0.10439523 -0.045294434 -0.07160901 -0.07810707 -0.08295039 -0.12720175 -0.04214484 0.11891542 0.111642644
멋진 0.066338584 -0.0006247221 -0.15515143 0.10523362 0.051870853 0.03557173 0.12654096 0.0085437065 0.12582411 -0.1552173 0.06548765 -0.14700592 -0.05308121 0.0050545563 0.08868359 0.08605933
힘들 -0.0018552718 -0.04795801 -0.049647477 0.0052599427 -0.04775034 -0.05566663 -0.0053911423 0.11306373 0.047314156 -0.04605056 -0.07133265 -0.020898955 0.06817749 -0.049084973 -0.008731524 -0.05002587
오늘 0.056284763 -0.04589631 0.0020989452 0.06224909 0.032997835 -0.011635659 0.035631903 0.027240017 -0.06387944 -0.025490675 0.06786523 0.03239336 -0.04526981 -0.121480174 0.06404896 0.046705708
어이없 -0.13013238 0.12355605 0.06924491 -0.12215192 -0.12887038 -0.113068715 -0.017450044 0.09331086 0.083671294 0.0937828 0.04150851 0.12904742 0.018307274 0.02191865 -0.09136368 -0.07050636
봐서 0.03161856 0.062170465 0.031539455 -0.020731835 0.011844576 0.090948366 -0.022798615 -0.015444759 0.030673422 -0.01678151 0.052279547 -0.011901404 0.020705268 -0.15598796 -0.04914374 0.05689573
잡 -0.045239255 -0.030242374 0.033324912 -0.06330923 0.05836206 -0.087463774 0.07108313 0.025743773 -0.023239898 0.031341836 -0.079948254 0.0120797055 0.003591484 0.025056792 0.013983539 0.011635741
구성 0.03609372 0.02528962 -0.042479828 0.002230031 0.0098426705 0.026400534 -0.016262464 -0.0035542443 -0.048743077 -0.06297413 -0.011764402 -0.05319768 -0.0049605467 0.028707275 -0.020106578 -0.002625163
엄마 0.008545536 -0.0983275 0.016783237 0.044211272 0.027083106 0.045212433 0.009920587 0.017669385 -0.035307832 -0.0020375226 0.020035861 0.021344109 -0.043516714 -0.033572562 -0.0039579542 0.0016042129
함께 0.0988249 0.024333742 -0.016487805 0.06977251 0.051684763 0.02288747 -0.031114649 0.036391087 -0.026295345 -0.104525775 -0.016141267 -0.01837229 0.010785271 0.034264088 0.032106757 0.077329025
문제 -0.1102762 0.042050384 0.023460068 -0.01711531 -0.033020064 -0.08020212 -0.08559757 0.026369002 0.022453386 0.052236233 0.013141162 0.063702896 -0.036349505 -0.05988187 -0.019616403 -0.082097106
위해 -0.044103943 0.07165263 0.07047649 -0.033443645 -0.023748405 -0.010212723 0.09421076 -0.072903536 -0.05251332 0.019580908 0.050234336 0.07997554 0.1241065 -0.058278237 -0.047685806 0.026836766
졸작 -0.15052383 0.1593406 0.053132642 -0.08606483 -0.20344639 -0.087004244 0.048568334 0.08024885 0.11821556 0.114114664 0.10841391 0.043240633 0.09318067 -0.10565967 -0.12797989 -0.14161251
잊 0.08157951 -0.11483664 -0.09626687 0.15073566 0.1233621 -0.0032956796 0.05892155 0.046421178 0.06514844 -0.04003118 0.06694725 -0.09744646 -0.082547724 0.04900615 0.09740333 0.1784074
이딴 -0.18916935 0.1885461 0.15246415 -0.15329483 -0.22806129 -0.16351129 0.09252648 0.14031646 0.029788598 0.117096 -0.09695765 0.17750017 -0.024544315 -0.088486455 -0.22560677 -0.207065
등 0.063160464 -0.0033967055 0.05384336 0.06298195 0.067959785 0.016810002 -0.08675542 0.035266705 0.04256369 0.023153614 0.0032581931 -0.008699034 -0.000108299486 -0.10997496 0.03320752 0.054295793
집 -0.037725974 -0.039579887 -0.07673309 0.0038414255 0.03864114 0.026116148 -0.05149808 -0.0137107195 -0.064090945 0.015399562 0.016738953 0.047716197 0.062848166 0.00044976425 -0.0074394564 0.04647472
유쾌 0.12238552 -0.14570026 -0.13064004 0.21889327 0.06221882 0.00459873 0.17056452 0.07864499 0.09024521 -0.13828696 0.09053723 -0.10229929 -0.19721904 -0.09312317 0.22577445 0.17566146
뻔한 -0.048424233 0.077534154 0.09687161 -0.03908312 0.0019986322 0.010481264 -0.008350324 -0.020564664 -0.040883236 0.04012604 -0.071724914 0.0076883263 -0.02380135 0.05408301 -0.0064662644 -0.057869937
킬링 0.023850977 0.0791685 0.02930489 -0.05994108 -0.078129984 -0.074073225 0.029883506 -0.055034537 -0.06251253 0.008919573 0.077077575 0.07011187 0.0677134 0.009709691 -0.02570458 -0.050322507
스러운 0.025118511 0.06608807 0.04616684 0.011063795 -0.07433649 -0.049538646 0.023849662 0.013504801 -0.020079775 -0.037915725 0.035695717 -0.002598721 -0.0022843746 0.13660376 0.07045501 0.047030374
결국 0.006974362 0.06403904 0.067929596 -0.020083725 -0.07537215 -0.047692686 0.09169715 0.009532821 -0.1279902 0.037500005 -0.0600665 -0.038474377 0.04334081 0.062263217 -0.04974031 -0.057803456
낫 0.0019472598 -0.022427568 0.05754819 -0.037731674 0.04491686 -0.015131212 -0.04038945 -0.015391532 -0.1644005 0.019259082 -0.014906367 0.010985192 0.018583031 0.09811543 0.024361335 -0.0013615696
한데 -0.012954656 -0.007174258 0.021421762 -0.103448704 -0.123332284 0.015380864 -0.0030802125 0.001300019 -0.04931934 0.037775926 -0.06649439 0.08308215 0.022652375 -0.025807597 -0.068585545 -0.028087774
나요 0.07096804 -0.005414485 -0.12563339 0.031483814 -0.008680777 0.042965744 0.05612166 0.02332075 0.055729833 -0.13348658 0.1559063 -0.051859237 -0.055625524 -0.019945083 0.06693086 0.026479611
