9996 16
. 0.039851006 -0.027678926 -0.04241441 -0.04639887 -0.0482579 -0.063211754 0.0647438 -0.08230853 0.09832328 -0.036996488 0.04032516 0.054284293 0.0118030235 -0.015370132 0.06659359 -0.07877499
영화 -0.047271665 -0.021872776 -0.13022012 -0.016176388 -0.045301303 0.01631318 0.08822335 -0.021052841 0.11261819 0.04128221 0.00017798223 -0.019715242 0.004118493 0.037884697 0.039917246 -0.014359667
다 0.023032561 0.05096582 -0.09014255 -0.062296342 0.012802806 -0.008598118 0.05739482 0.03288308 0.07071301 -0.0493397 0.016343415 0.06046747 -0.038162224 -0.065037325 0.037990384 0.017800072
고 -0.0077127973 0.032664083 -0.038177796 0.06495097 0.04246342 -0.061258174 0.0015792104 -0.027463418 0.039559137 0.013205701 -0.0014616038 0.0029880374 -0.047790453 -0.08755952 0.08239247 -0.029062463
하 0.012142733 -0.054398883 -0.010304565 -0.015199673 0.04700326 -0.064725086 0.0371071 -0.022735214 0.014042747 -0.039730944 0.0278648 -0.07948501 -0.0142008215 0.018403126 7.90605e-05 -0.07019445
을 -0.015244271 0.013001289 -0.0155462455 0.029737344 0.041490603 -0.016645717 0.017869331 0.022193145 -0.060072526 -0.03754597 0.011259607 -0.04251365 -0.01747705 0.076117344 0.003864264 -0.055222873
보 -0.014344219 -0.017054737 -0.09570788 0.022858601 -0.028261663 0.02604643 0.026593534 0.0071104984 -0.011569423 0.047763612 -0.008956376 0.0037570316 0.010165735 0.036714427 -0.041253548 -0.013121647
.. 0.045650337 -0.05422093 0.0034554172 0.011339397 0.06197935 -0.0600131 -0.018594697 5.3869997e-05 -0.014096532 -0.01331802 0.00062048226 -0.0110900635 0.054886334 -0.05460442 0.06887623 -0.040767148
게 -0.08650776 0.007147233 -0.046757713 -0.069204375 -0.007725219 -0.0342391 0.045235768 -0.011522981 -0.008318281 0.038662836 -0.064582616 -0.007768749 0.0058961036 0.061689187 0.0519542 -0.016527418
, 0.008944415 0.023297347 -0.015349928 0.006279701 -0.055564117 0.052109554 0.013228948 -0.03804803 0.017992832 0.02366575 -0.006982458 0.017130304 -0.015314135 -0.0027559646 0.008071313 -0.042610034
! 0.030707955 0.048040245 -0.07115416 0.037493974 0.030163318 -0.062627 -0.030154003 -0.03657816 0.096809104 0.022246271 -0.04502191 0.073511004 -0.04504144 0.017220343 0.09030354 -0.01885301
지 -0.0814506 0.073485486 -0.045989025 -0.09180046 0.049652837 -0.033663467 -0.023028087 -0.0060164225 -0.13097039 0.14065984 0.06048231 -0.13306677 0.077632055 0.04145019 -0.036508515 -0.05867347
있 -0.008132192 0.05850976 -0.0270323 -0.0942174 0.002717772 -0.046009455 0.015372541 -0.004044947 -0.024092687 0.011383713 -0.05283437 0.055553056 -0.07615329 0.07639009 -0.07882873 -0.00539856
없 0.04622653 0.0026236705 0.05504774 -0.04984932 -0.046607677 0.09043571 -0.08702958 0.12183759 0.06206691 -0.03332574 0.007979014 -0.14134614 -0.031926528 -0.12681644 0.06508106 0.09078555
? -0.0683829 -0.070848085 -0.018010702 0.0061255074 -0.11729117 -0.03706432 -0.061015066 -0.04738032 -0.052765254 0.0066289455 0.042870708 -0.009686054 0.0020024732 0.0075544817 -0.111437045 -0.03759656
좋 0.0018377599 0.100662306 -0.12396925 -0.039661665 0.042380404 -0.13012905 0.012129466 -0.049373526 0.01745661 0.028673353 -0.052302856 0.018020319 -0.00947282 0.10973606 -0.07654993 0.002316279
나 -0.031372264 -0.005170915 -0.004808284 -0.02401512 0.07484774 0.02848695 0.035575423 -0.010484345 -0.12305601 0.06242423 0.02137022 0.04450404 0.011120477 0.028056951 -0.07434044 -0.077583425
었 -0.03258334 0.04019223 -0.04753893 -0.060762204 -0.0041317283 0.022685066 -0.009979224 0.040809184 0.020082388 0.037334744 -0.05100434 -0.019383475 -0.036468618 -0.030809278 -0.0025449262 0.0009628397
만 -0.100951344 -0.0407854 -0.0026700213 0.054098167 0.028124569 0.07896581 0.039855324 -0.021204785 -0.0025761481 0.05746411 0.08512089 0.035216417 -0.10514047 -0.021174239 -0.117275774 -0.07693923
는데 -0.0020738612 0.02450963 -0.045283087 -0.11902215 -0.020733044 0.091499954 -0.014844211 0.031732928 -0.026531246 -0.035846546 -0.064774916 0.021237012 -0.053003345 -0.015535802 0.057535112 0.00238124
너무 0.18908481 0.080119625 -0.11621433 0.10740105 0.009236841 0.053313185 -0.073958285 0.08051988 -0.13853882 0.04764297 -0.027029581 0.034629997 0.15123558 -0.061624665 0.115828335 -0.05592445
봤 -0.006437121 0.06274809 -0.04677797 0.002330043 0.00016631332 -0.06614311 -0.001142105 -0.0077680335 0.021308107 -0.023679266 -0.06529522 0.019422116 -0.050416086 -0.031588282 0.02644982 -0.03803252
적 0.039234553 -0.012505538 -0.07619356 -0.10381563 0.004790986 -0.031246416 0.053872302 0.019597936 0.016884182 0.07304818 -0.065903425 -0.0014817144 -0.09614413 -0.051551413 0.0138155585 -0.081803136
안 -0.04254379 -0.08160943 0.09949124 -0.095248125 0.018867228 0.026244842 0.09574936 -0.09198358 -0.02216133 -0.11581006 0.0377762 -0.0609103 0.033961233 0.013839212 -0.016490132 -0.1055706
정말 0.12243891 0.033002578 -0.12042443 -0.042130698 0.05345025 -0.063571356 0.008322057 -0.02253434 -0.06732595 0.028452542 -0.05161195 0.07365907 0.017523292 0.026535613 0.12629536 -0.06300816
로 -0.038697958 0.028642911 0.001609187 0.025799152 0.04150116 0.009055608 0.005090949 0.011421294 -0.03874724 0.04588099 -0.0012276346 -0.031196605 0.08077224 0.003961949 0.045154877 -0.12091368
음 -0.031344 0.04852789 -0.14195567 0.071442224 0.014544417 0.027797213 0.043402184 -0.050626248 0.16227463 0.033785027 0.04835218 0.083588965 -0.022288183 -0.0570199 0.049200095 0.0028532876
것 -0.05378103 -0.039957035 -0.037614994 -0.15641594 -0.0078034224 -0.07924869 -0.046569422 0.015329046 -0.03024549 -0.029410176 -0.012406763 -0.060948424 -0.0034155697 0.06782859 0.012039937 -0.0404898
아 0.015790856 -0.016165493 -0.0021545917 -0.07460058 0.05163665 0.016214488 0.025615059 0.028442705 0.00066334277 0.07109622 0.034917258 -0.033776004 -0.0457588 -0.010329468 0.00053088495 -0.049120508
네요 0.023377992 0.028222682 -0.09949114 0.06518362 0.075774506 -0.01622746 -0.0042076 -0.004109361 0.07934565 -0.0067440625 -0.072502196 0.1114876 -0.062592834 -0.027920803 0.04463132 -0.0072113755
재밌 0.07497474 0.11521041 -0.17508042 0.010948133 0.12198918 -0.045376554 0.051148046 -0.096135125 0.026875565 0.05428957 -0.10725478 0.107037194 -0.050317686 0.075404905 -0.045602925 0.05600334
어 0.05682612 -0.0058939517 0.0073675956 0.11538578 0.035063963 0.030648137 0.033042036 -0.010107399 0.0053507662 -0.050148107 -0.041955676 -0.013701966 0.02924102 -0.025962353 0.06155078 -0.026047314
같 0.046778284 0.057538338 -0.036830373 0.01685457 -0.052057426 -0.015859075 -0.0490527 -0.01685523 0.041765645 -0.027916951 0.03657142 -0.005772638 -0.038928177 0.040089406 0.03491945 0.042430755
점 0.0060493955 0.027516387 -0.0663703 -0.06658231 -0.06567985 0.13764594 -0.03557156 0.05333996 0.13807525 -0.058413804 0.03991229 0.08469817 0.03349286 -0.039919857 -0.0346921 0.13403611
지만 0.10114095 0.11657591 -0.11542865 -0.13518591 0.056209885 -0.09618206 0.019570975 -0.027509365 -0.20118503 0.017346164 -0.055290427 0.0012294991 0.006253886 0.12542497 0.0034769764 -0.07339924
진짜 0.044744406 0.06017667 -0.0782761 -0.12099754 -0.0056127757 -0.019170057 0.0349965 -0.045489125 -0.07421747 0.09766957 -9.907922e-05 0.053971097 0.017725462 0.006389686 0.09728628 -0.029930824
했 0.010315678 0.027753947 0.0455654 -0.031124176 -0.016536074 -0.044593994 0.0675008 -0.014883445 0.08368603 -0.0073487153 -0.029368257 -0.08403667 9.3422794e-05 0.002860106 0.015430668 -0.05423306
에서 -0.049626395 -0.012547673 -0.010985975 -0.0070274286 0.037982643 -0.02718143 0.06367108 -0.026388774 -0.11252121 0.0057881773 0.005334606 -0.0027495432 -0.011483688 0.020849444 -0.0004981599 -0.023467895
기 -0.07354924 0.041714344 0.048213016 -0.10031061 -0.02722983 -0.023900878 -0.00086031837 0.020735426 -0.039353084 -0.010710948 -0.009370571 -0.08645996 0.045475796 -0.019616269 -0.0059101824 -0.009554028
네 0.007140314 -0.034967884 0.009641669 0.058221888 -0.010672718 0.0062675523 -0.009682439 -0.050640106 0.13394974 0.01354945 0.030456236 -0.010393452 -0.08621076 -0.09007951 0.035952598 0.017674515
않 -0.03345845 0.025552385 0.015866604 -0.03105328 0.10234422 -0.077465564 -0.0017465365 0.03444133 -0.11410135 0.07520304 -0.071180105 -0.0246448 -0.048603084 0.079854265 0.03366243 -0.060602117
거 0.0126771405 -0.0024538606 -0.022675766 -0.019974036 -0.06163806 0.017251937 0.0006737777 0.011340291 0.09202841 -0.06269741 -0.012331136 -0.012928105 0.00807029 -0.07809156 0.09078461 0.018524256
았 -0.08041857 -0.03223224 -0.0068601156 -0.12731373 0.04525594 -0.04252458 -0.024069887 -0.00013329269 -0.016207738 0.014723535 0.010985456 0.07639668 -0.023443762 0.06727158 0.05032184 -0.046895638
수 -0.023753436 0.037437137 -0.022873787 -0.036391705 0.10144184 -0.03426031 0.005719617 0.035269372 0.03464869 0.012398656 -0.090488754 0.025998622 -0.1076547 0.06098186 -0.045368083 0.018532552
되 0.015653541 0.041241564 -0.043480456 -0.01301199 0.04871179 -0.022101482 -0.043349124 0.059131514 0.075714275 0.0026508633 -0.004559563 0.047742818 -0.01844042 0.00037095905 0.01765188 -0.033704862
면 -0.0130187115 -0.018008964 -0.038928214 -0.093782425 -0.023124987 0.026938355 -0.04915604 -0.048797976 0.028031074 -0.012842857 0.020171696 0.04261706 0.0074543296 -0.0031396146 -0.033340655 0.048367485
ㅋㅋ 0.0741657 -0.021008283 -0.0328162 0.022152958 0.012115423 -0.04825718 -0.021042092 0.00011257836 0.049374588 -0.010774904 0.026430028 0.019488504 0.025571415 -0.010155596 -0.01265163 0.022790914
말 -0.015236991 0.042631842 0.00934651 0.10199197 0.04028841 -0.04544906 0.027269406 0.013943754 -0.0656974 0.05416511 0.02979802 -0.040649146 -0.022767713 -0.010112665 0.043464947 0.039110575
연기 -0.0067828563 0.091222025 -0.044376537 0.0134066455 0.09450902 -0.049900413 -0.009871307 -0.029264564 -0.081263386 0.07553243 -0.030928021 -0.008589724 -0.051255666 0.011270085 0.02086027 -0.021619312
인 -0.05111025 0.014823999 -0.05231015 -0.043718737 -0.00869395 0.03256964 -0.013243828 -0.01652866 0.019358693 0.022857739 -0.03817 0.0032579899 -0.049488984 -0.04535935 0.02487905 -0.0195144
주 -0.0019404804 -0.036468524 -0.0038190188 -0.10743401 -0.023596141 -0.018647598 -0.008879045 0.0026512046 -0.016751481 0.029222205 0.016866442 -0.017875122 -0.099763975 0.017128231 0.05767922 0.0309417
내 0.0016583949 0.024020748 0.008141486 -0.08325599 -0.023945844 -0.0076575656 0.018567584 0.02575318 -0.0652476 0.038682327 -0.02276196 -0.060951483 -0.0049716034 -0.029793313 0.023884838 0.0060492232
최고 0.075151905 0.1421925 -0.16664374 -0.011501141 0.13344383 -0.06421297 0.032600086 -0.088763274 -0.074081674 0.18058182 -0.18706226 0.12689474 -0.096243136 0.17647097 -0.0840485 0.17427717
~ -0.013724971 0.023087515 0.009671246 0.08984094 0.0056755627 -0.09920916 0.011072119 -0.0074203806 0.027608989 0.022343647 0.03656993 -0.0008342962 -0.05683917 -0.011038404 0.09347459 0.039751973
평점 0.018134456 -0.0117397765 0.031120008 0.10640313 0.020767419 0.07367242 0.020635743 0.04692797 0.03260724 -0.0723363 0.0070386208 0.14640363 -0.06273118 0.026486032 -0.08705971 -0.015982872
이런 0.09605492 -0.09011576 -0.009758686 -0.06590092 0.049143404 -0.07757209 -0.033103544 -0.044183902 -0.06420893 -0.05078822 0.087561436 0.01801409 0.05855867 0.059751034 0.06508009 -0.07265662
던 0.005771178 0.013914086 -0.032770317 -0.040527433 -0.0060257525 -0.00688534 -0.03869235 -0.034490455 0.0015949567 0.001214226 -0.05812067 -0.0064143827 -0.038401954 0.048749156 0.02726169 0.007881817
어요 0.024067743 0.077876434 -0.10164974 0.15687087 0.069963634 -0.043396123 0.14116926 -0.04461224 0.23884788 -0.009153254 -0.07335901 0.16027462 -0.06555282 0.019412037 0.060462 0.0876129
할 -0.033225223 -0.016017832 -0.057240725 -0.031259403 0.025165793 0.11394163 -0.022896172 -0.04042384 -0.0012756115 0.010043535 -0.031972494 -0.019751396 0.13631387 -0.013424317 0.054110665 0.017390208
왜 -0.022900976 -0.02888154 -0.045055527 0.06394283 0.096040525 0.09026473 0.21951763 -0.067544006 -0.031813387 -0.050902728 0.01781179 0.09314522 -0.00751043 -0.06246836 -0.0002698174 0.006115125
겠 -0.0068597733 -0.013980057 0.05972465 0.0058530583 -0.009488362 0.013009442 -0.031694103 0.019668555 0.024375679 -0.057890765 0.0992787 0.044479553 -0.08180524 -0.11700545 0.017708583 0.009459765
1 0.01903229 -0.11217745 0.05844856 0.032415222 -0.018331414 0.03774642 0.14685825 -0.066912785 -0.015175854 -0.061431542 0.028925026 0.03757682 0.051819604 -0.025216473 0.030903788 -0.050156303
스토리 -0.06626031 0.0164278 0.018651731 -0.18036734 -0.019287648 -0.09065607 -0.024130076 0.037724756 -0.06043229 0.104143225 0.007637857 0.04184161 0.0009757461 -0.027184395 0.034539647 -0.06760247
해 -0.0051780883 0.03220969 0.022183755 -0.013626702 0.031559058 -0.0383346 0.0003008546 0.031393763 -0.026732052 0.036542375 -0.04328172 -0.041556533 -0.0516821 -0.0071144546 -0.058033254 -0.05480207
습니다 0.0025272688 0.024469802 -0.07126425 -0.008255192 0.07999612 -0.058745235 0.027458156 -0.016576333 0.08543634 0.0073517472 -0.07701449 0.09343013 0.0056519043 0.030325683 0.046217334 0.08469625
ㅋㅋㅋ 0.034245607 -0.02537753 0.028745288 0.006857642 0.04470908 0.042428825 -0.028652325 0.03821365 -0.006006732 0.019482523 -0.014400854 -0.037398275 0.0022932815 -0.004739397 0.02656273 -0.023907261
... -0.04840454 -0.02361497 -0.011711516 -0.030836754 0.011899341 -0.027026523 0.005931527 -0.057176396 0.04412047 0.026716206 -0.020714508 -0.0973003 0.04098636 -0.06879593 0.040238768 -0.050906777
드라마 -0.047793467 0.0076176026 -0.030899985 -0.028136963 -0.0055459337 0.009548258 0.034692097 -0.079538934 0.08759185 0.034736536 -0.07138428 0.043743696 -0.024778128 0.030400367 0.029629482 0.032645766
생각 0.011628939 0.029991785 -0.052051995 0.019159717 0.092031784 -0.06358691 0.103884384 -0.031743046 -0.11083761 0.0900866 -0.05788501 0.033662144 -0.022309626 0.049256127 -0.004174102 -0.028126737
아니 0.0018287437 0.01699205 0.06724626 0.043784786 0.016117435 0.09197516 -0.008334325 0.090953216 -0.00066293054 -0.03226113 0.0044509056 -0.0060615824 -0.059639096 0.010635378 0.00094482454 -0.015418878
더 0.030430214 -8.789949e-05 0.01409032 -0.040722217 -0.03991461 0.0197665 -0.05577185 -0.038181756 -0.028099457 0.03626472 -0.017280616 -0.009173422 -0.016638119 0.05190583 0.023659928 0.0976533
그 -0.05315652 0.04705754 -0.009622948 -0.042697497 -0.0019806717 0.014004525 -0.01929958 -0.024994522 -0.06825536 0.020324683 -0.027637176 0.0151232015 -0.04353671 0.06428981 0.02655592 -0.0063763196
싶 -0.013303229 -0.06012579 -0.00096596737 -0.026581585 -0.017847138 -0.008873067 -0.041400056 -0.025480408 0.028389286 -0.03750163 -0.05212135 -0.020390483 -0.03878654 0.05212259 -0.020321386 0.048466496
사람 -0.024418477 -0.01711952 0.05195416 -0.061393466 0.041147526 0.0043081404 0.013086982 0.048218183 -0.0005824808 0.010872379 -0.042257436 -0.04920483 -0.041957274 0.03351529 -0.058963034 0.06603665
듯 -0.047410488 -0.014094295 0.007478151 0.02888086 -0.05583862 -0.03244893 -0.008061681 0.01865445 0.030870609 -0.047242723 -0.021252977 0.013415376 -0.0007264733 -0.016058212 -0.023251558 -0.018792283
때 -0.0031108586 0.04991267 0.012467715 0.042053718 0.01340602 0.024779802 0.001430744 -0.025636964 -0.046239357 0.028531479 -0.037683785 0.04128292 -0.057410084 0.066803075 0.019128198 0.047401056
감동 0.08117444 0.11493499 -0.09576586 -0.0129949115 0.05836706 -0.053901743 0.037468016 -0.023663558 -0.022319527 0.09722323 -0.04867732 0.13766477 0.030090675 0.1072747 0.027226532 -0.013321392
함 -0.0053983224 0.043868426 -0.063205436 -0.061979666 -0.047158938 -0.08768832 -0.0027552145 0.0148081435 0.034094553 0.03780254 -0.040827792 -0.0750425 0.040684137 -0.01466347 0.044315778 -0.05040987
배우 0.0006736685 -0.04673051 0.014981114 -0.0044086836 0.0019017358 0.024701146 0.0015398554 0.035799414 -0.0231576 0.05904059 0.03824787 0.023659393 -0.029911919 -0.016254868 0.02328269 -0.0801925
본 -0.044350043 3.2300362e-05 -0.0029426198 0.030170647 -0.015451778 -0.037279885 0.050180424 -0.040046982 0.07335501 -0.026132613 -0.03112906 -0.03518373 -0.039963957 0.009054801 -0.085740484 -0.00059039245
까지 -0.01245236 0.041810155 -0.03397162 -0.079424 -0.044150352 -0.083181895 -0.053875387 0.07447607 -0.010370643 -0.03815662 -0.042241752 0.059680957 -0.025754832 0.031185096 0.021115076 -0.06379008
뭐 -0.0052743647 0.006674467 0.0002085221 0.068529904 -0.027668674 0.043781035 0.04110926 0.101028256 0.09978186 -0.088387035 0.10491935 -0.07296322 -0.053792145 -0.06546102 0.012460549 0.15131944
알 0.0062207025 0.0053783623 0.0038347773 0.054088246 0.0059717316 -0.026677849 0.011860002 -0.0150861135 -0.07217558 0.068218365 0.06389826 -0.039563406 0.03628478 -0.01865353 0.03185091 -0.037258696
만들 -0.0833048 -0.036366686 0.0036988861 0.033018377 -0.020072907 -0.053286918 0.07781451 -0.018945612 0.019113027 -0.05884034 -0.026932402 0.067943975 -0.06270742 -0.06903991 -0.046437196 -0.062057093
내용 0.030893872 -0.014912945 0.03395998 -0.031882897 0.010717754 0.009740307 -0.031062933 -0.0051542814 -0.11167524 -0.027436282 0.057276994 -0.02824244 0.003596886 -0.009302027 0.059174243 -0.057577197
볼 0.050510187 -0.0018456035 0.048308063 -0.02211097 0.014303863 -0.019120347 0.023942467 -0.03289979 -0.114883915 0.004420993 -0.037425414 0.069012046 -0.03382802 0.08840329 -0.034530215 -0.04553695
감독 -0.011233045 -0.13237867 -0.035951685 0.09471214 -0.08998584 -0.0052032266 -0.04146125 0.1240132 0.028566886 -0.10319677 0.039333615 0.13414544 -0.021420596 -0.0220822 3.24407e-05 0.029835392
보다 0.02706819 0.006869489 0.036323935 0.035386726 -0.010107244 0.024890397 0.123100676 -0.00989194 -0.105675936 -0.05117776 -0.036983393 -0.006297359 0.023418346 0.025659623 0.021720488 -0.0629784
라 -0.027395783 -0.011786444 -0.08179629 -0.019320078 0.048586562 -0.046716064 0.048036605 0.015118958 -0.044923756 -0.029435357 -0.046269037 -0.024420852 -0.015881855 0.013411914 0.010647688 -0.0026114986
그냥 0.09926828 -0.09480822 -0.02536273 0.08541696 -0.01402713 0.092853725 -0.04445598 -0.11101552 -0.13002057 0.043584816 0.08565179 -0.08494592 0.04167497 -0.009678402 0.03621487 -0.13285299
재미 0.042761393 -0.017940667 -0.061845932 -0.1206438 0.0087583875 -0.027524834 -0.0065101366 -0.08082424 -0.08843905 -0.051609155 0.013690995 0.058243502 0.07493365 -0.023360312 0.029706929 -0.11818705
시간 0.014118631 0.037194982 -0.07352875 0.03382658 -0.022124993 0.09821852 -0.005279769 0.015873574 0.015085034 0.01706905 0.06399011 -0.050516844 0.04694796 -0.021007258 0.035602342 -0.053256337
지루 -0.13523197 -0.08167737 -0.036162823 0.047949556 -0.08121627 0.083276704 -0.028576171 0.046637278 0.040169474 -0.11223628 0.0662635 0.038395043 -0.05720381 -0.1351119 -0.107325494 -0.06064036
중 -0.0040200767 0.07617647 -0.05164021 -0.052246243 -0.0041969405 -0.10211656 0.027761877 -0.02386295 0.006668841 0.029755533 0.013574679 0.062636696 -0.010126512 -0.012417104 -0.06376735 0.027963141
재미있 0.052085046 0.12510051 -0.15082216 0.003239505 0.09090346 -0.12078088 0.06521613 -0.055603474 0.015282946 0.07839067 -0.11900901 0.14493673 -0.036928184 0.09511504 -0.026683085 0.016234137
년 0.058669824 0.041576505 -0.010778812 -0.020627985 0.05534722 -0.050672363 -0.0033271015 -0.03650507 -0.03036743 -0.03680521 0.020333283 -0.0068778032 -0.014178331 0.008895639 -0.0035085033 -0.010136337
10 0.008141042 0.08588947 -0.17851079 -0.0073549384 0.039293114 -0.07252533 -0.011038601 -0.06809907 0.12638842 0.07095903 -0.04554464 0.005313798 -0.046926595 0.09825831 -0.014624277 0.0452868
였 -0.05320952 0.0042295787 -0.02857965 0.031220721 0.03219014 0.011658389 0.015607939 -0.012356586 0.06466903 0.0531777 -0.02941184 -0.03901702 -0.023657896 0.08656658 0.004641886 -0.012816475
잼 0.10466727 0.04920752 -0.111314625 0.09003286 0.02967391 -0.046823792 0.14628153 -0.09338215 -0.06627691 0.047019288 -0.09308305 0.1133067 0.11527218 0.08954171 -0.047227222 -0.07515647
사랑 0.07081912 0.07513007 -0.061350968 -0.023501735 0.13920315 -0.11900744 0.050611276 -0.0504566 -0.049609624 0.14014587 -0.11727521 0.11349937 -0.086866125 0.0452204 -0.005160407 0.028945846
못 -0.07797113 -0.08983522 0.05365698 0.098051704 -0.042789616 0.045777183 0.033740353 0.064857945 -0.06765694 -0.04553673 0.050877396 0.04531497 0.045620658 0.015406467 0.08175348 0.017782822
냐 -0.09031926 -0.076002106 0.052395973 0.023257272 -0.07391421 -0.039974924 0.08214703 0.013444556 -0.052156955 -0.08207638 0.024126593 -0.04748636 0.096270874 -0.0510693 -0.018482422 0.036686912
재미없 -0.011322622 -0.12261403 0.12394383 -0.020288479 -0.14764194 0.13815162 -0.008510972 0.02599514 -0.10266991 -0.09266065 0.07611968 -0.093131125 0.13857321 -0.07482805 0.14085336 -0.169281
쓰레기 -0.08222869 -0.06574509 0.0779313 -0.009163533 -0.10606216 0.12428005 -0.023545057 0.13797311 -0.16624731 -0.10741594 0.14079729 -0.110137396 0.03851327 -0.1672723 0.093144074 -0.13923551
서 -0.039803967 -0.016959924 0.037721317 -0.010616042 -0.0152326645 0.07528147 -0.024382222 0.062188867 0.032504614 0.0062283003 0.039074305 0.090646714 -0.08695358 -0.011517248 0.03506869 0.038081013
2 -0.009381888 0.08278569 0.012633015 -0.066792324 -0.018317198 -0.05667793 0.01649406 -0.025707556 -0.07497212 0.05098665 -0.027492946 -0.016237637 0.06664613 0.005443534 0.01756897 -0.063647546
라고 0.047651827 -0.004516007 -0.023310564 0.06196379 -0.021340936 -0.016653424 0.058240373 0.03001048 -0.06633513 -0.065871514 -0.01041591 -0.13949984 0.06793737 -0.016103612 0.047632866 -0.062731355
야 -0.08572729 -0.03460202 -0.060082626 -0.0031178105 0.05716978 -0.10394231 0.0623424 -0.0008741083 0.019803291 0.001584032 -2.6682268e-05 0.029418563 -0.028098207 0.004994544 -0.014933321 -0.022764223
니 0.055865362 0.029911593 -0.015871475 -0.021096382 0.024472795 0.007273525 0.02354465 0.057742365 0.021719348 0.066966 0.064104214 -0.07320176 -0.041794956 0.0055660014 -0.024678923 0.018384412
면서 0.018142259 0.07038182 0.0063811345 -0.03727616 -0.0163754 -0.036260527 -0.043739032 -0.017886892 -0.096856676 0.033928502 -0.06737876 0.05772935 0.029783843 -0.010506616 -0.0029259068 0.02444312
번 0.02272053 -0.009412351 -0.028173469 0.03278002 0.050905146 -0.032481086 0.032346267 -0.00328927 0.0611216 0.0932695 -0.040725 0.05832261 -0.079234816 0.0941094 -0.04803273 0.006345215
다시 0.019521661 0.1209998 -0.09832001 0.01461932 0.08546424 -0.09918918 0.04625991 -0.055013914 -0.08472717 0.13480231 -0.08138762 0.06502912 -0.013074845 0.13246508 -0.015045839 0.026274616
나오 -0.026316004 -0.048957694 -0.00838942 -0.005117475 -0.0013057252 0.07989448 -0.017299008 -0.0033342815 0.074341916 -0.062840454 0.054962456 -0.02615905 -0.02555732 -0.008050136 -0.03198548 -0.05089518
작품 0.043684047 0.051271968 -0.02715515 -0.007331901 0.0756101 0.015841257 0.059350435 -0.0026025376 -0.060465023 0.0023097682 -0.014381464 0.01455309 -0.038462546 0.03340177 0.026339307 -0.005379668
이거 -0.062011812 0.024063459 0.033778235 -0.13327153 0.0012076814 0.006841771 0.028699799 0.035719525 -0.039456308 -0.014491757 0.025574975 -0.074395 -0.062205795 0.023957316 -0.008529526 -0.03852356
하나 -0.03746568 -0.058690224 0.04491822 -0.037769254 -0.0011667189 -0.04580306 -0.042840328 -0.027613064 -0.03241814 0.029818047 0.03252639 -0.040755272 0.033720434 0.0035846783 0.020921713 0.010209629
줄 -0.0015958094 0.07543296 -0.09277261 -0.10883699 0.04433076 0.029739179 -0.06932756 0.036814522 -0.032319926 -0.008167344 -0.04637636 -0.038737845 -0.043913387 0.04055859 -0.0675298 0.02356074
해서 -0.05833661 0.041242436 -0.005535538 -0.056656353 0.015508187 -0.04091435 0.03923313 -0.016370902 -0.0124574425 -0.0047811368 0.05064373 0.02184935 -0.017541882 -0.08483454 0.033797953 -0.017744044
개 0.015837103 0.0040122876 -0.04301372 -0.0042567304 -0.06600226 -0.07101344 -0.016686538 -0.025410937 -0.08391737 -0.06551647 0.01592781 0.0031840773 0.05167337 -0.08204792 0.02552443 -0.07529553
남 0.014088881 -0.030931488 -0.032339435 -0.07533864 -0.022914449 -0.010901606 0.030866625 0.03289073 0.09101956 0.015558265 0.017388143 -0.010451385 0.032400638 -0.0549479 0.052870877 -0.01388383
정도 0.029367542 0.06922022 -0.07403335 -0.00429631 0.062481478 0.026925348 0.018626869 -0.044470027 -0.034766387 0.05380948 0.024661116 0.016012354 -0.033117067 -0.016635403 0.04010121 -0.012569084
마지막 0.010721206 0.059608553 -0.036844727 0.022143334 0.07968327 -0.06779133 0.06517754 -0.014766438 0.068817586 0.0012641294 -0.07743147 0.008158426 -0.033866864 0.04067418 -0.07042258 0.047922432
끝 -0.07405434 -0.022091646 0.06773007 -0.13249508 -0.031317797 -0.0070549664 0.024442248 0.020491632 -0.060840614 0.04727791 0.033163164 -0.07764004 -0.066301845 -0.01118657 -0.070700884 -0.023854008
이건 0.05292544 -0.010551668 0.05293853 -0.034139108 -0.019869907 0.07312989 0.005852518 -0.006434155 -0.122883 -0.063226126 0.0770824 0.022838505 0.039961893 -0.065645166 0.083887376 -0.121031284
액션 0.053816326 0.042496324 0.010125162 -0.067063175 -0.010564223 -0.027011694 -0.0056332317 0.044001833 -0.05177589 0.01773691 -0.016901894 0.059875503 -0.0042499495 0.0675453 -0.03606239 -2.8084367e-05
임 0.026170284 -0.014330546 -0.022932323 -0.0684458 0.041199565 0.071497805 -0.03669846 -0.051997606 0.06580103 0.008103578 0.00969677 0.03563632 -0.054283798 0.031505797 0.013885118 0.001128
ㅋ 0.018299233 -0.016241599 0.030205766 -0.013135035 0.016936004 0.021522913 0.025744705 -0.028540306 -0.019801345 0.056570575 -0.04112106 -0.014046388 -0.112394154 -0.03997174 0.056507632 0.023562435
3 0.002511364 -0.045851942 0.06707936 -0.023274321 -0.03545347 0.051317025 0.028677925 -0.029589172 0.08442992 -0.0003177878 0.030547457 0.08912912 -0.0005201916 0.0026428844 0.022137245 -0.077058576
기대 -0.09322714 -0.05946876 0.065612875 -0.11196968 0.021800986 0.03161652 0.029852523 -0.00093217345 -0.014505404 0.01859302 -0.01129056 -0.08905406 -0.07241544 0.034280527 0.060394425 -0.08609445
입니다 0.022383334 0.048079506 -0.04793013 -0.039913528 0.040444378 0.0005773017 -0.024310501 -0.029310832 0.033030245 0.030152855 -0.082933165 0.08861439 -0.05253256 0.001195508 -0.0011686791 0.047470175
건 -0.093241826 -0.04878791 0.030166129 0.055452056 -0.081929885 0.088179775 -0.03445434 0.004655071 -0.06686874 0.026356641 -0.00981217 -0.010704689 -0.14860971 -0.024964172 0.017722517 -0.0039025198
라는 0.0063655386 -0.0023028771 -0.04766567 0.012715337 0.008476969 0.009794914 0.020355824 -0.0005501043 -0.036760356 0.028466625 0.022954084 -0.02986563 -0.033389598 0.054619577 -0.06175362 -0.030684514
분 -0.033975057 -0.09397637 0.014978873 0.061393205 -0.05803877 -0.049488373 0.071197115 0.090335324 -0.055554837 -0.02131033 0.01207149 -0.050792385 -0.010726454 -0.08782077 -0.05699027 -0.0072600506
완전 0.063443236 0.11354283 -0.12738058 -0.026680524 0.042134997 -0.0566254 -0.088518165 0.004342927 -0.05493293 0.036824726 -0.050574 0.030293819 0.008476606 0.050619 0.08641008 -0.058459297
다는 -0.0030738963 0.009006635 0.038478207 -0.0461474 -0.02254873 -0.020240497 -0.011500888 0.0219305 -0.11053284 0.061853405 -0.045659505 -0.035289973 0.025915014 0.029054418 -0.051867384 -0.014519171
참 0.02709841 0.045313213 0.002374364 -0.023830323 -0.04325281 -0.055540115 -0.11817954 -0.041902065 -0.032044314 -0.034865197 0.03817207 -0.038725413 0.052150343 0.027588585 0.07376707 -0.07403197
많 0.07250329 0.062483527 0.006230631 0.10282222 0.06369326 0.0057599964 0.025311064 -0.050682887 0.029298851 0.05962583 -0.025930833 -0.0052579385 -0.022199033 0.10931702 0.013879775 0.039844573
처음 -0.017916631 0.014936636 0.049020015 0.114823334 0.022201978 -0.044357236 -0.029792264 -0.026583152 -0.0010438111 -0.031929985 0.0030380634 -0.012252971 0.024907079 0.032820266 -0.044213966 0.024740905
장면 0.0031725597 -0.008683748 0.0056105996 -0.047741834 0.009851478 0.02365326 0.022090146 -0.012287396 -0.04547683 -0.0014324011 -0.0034316194 -0.029923977 -0.0068686553 -0.021268735 0.023167329 0.011295314
대 -0.034522112 -0.039363146 0.070826076 -0.026480451 -0.034569293 0.014007988 0.03994955 0.014525732 0.035884503 0.036018234 -0.01474637 0.06922644 -0.008178244 -0.052248966 0.027931238 0.008045472
아깝 -0.0023182782 -0.13365161 0.10512119 -0.11859107 -0.09551355 -0.0031652318 -0.026423912 0.09131109 -0.23145534 0.03306429 0.07875879 -0.124684565 -0.08209782 -0.09896264 0.114428826 -0.1418524
다가 0.011709501 0.036111336 0.033132587 0.018808736 -0.009523668 -0.018298594 -0.0566011 0.019538553 -0.06588114 -0.113382965 0.013845311 -0.07060327 0.038110845 -0.076665215 0.027058555 -0.08171366
으면 -0.058666337 -0.01635776 0.051010296 0.04799217 -0.012079566 -0.01602705 0.0440291 0.024048468 0.023475958 -0.012421642 -0.021230945 -0.018636541 0.05979606 -0.023171809 0.008951854 0.005017401
지금 0.0042918525 0.08791835 -0.053717826 0.0061391033 0.02025256 0.023858264 0.057180766 0.019001648 0.045449033 0.017666534 -0.09786796 -0.023228131 -0.0491114 0.03649522 0.04689459 -0.013161653
모르 0.059843265 0.06008325 -0.10127561 -0.0481947 -0.0046266667 0.04473032 -0.054185543 0.025715085 0.033440832 0.077074975 -0.061232384 0.032740753 0.029724233 0.037898913 -0.020847695 0.036483407
이렇게 0.10575974 -0.028286558 -0.066028655 -0.0011760327 0.0041977614 0.05013713 -0.0032734494 0.004530563 -0.16890551 0.017982734 -0.02811889 -0.020954523 0.040524215 0.0019920755 0.16746771 -0.087318815
' -0.044513777 -0.0074795443 -0.019914426 -0.02507298 -0.010600417 0.023598025 -0.08290855 0.06383389 -0.07332565 0.013314419 -0.037244957 -0.045601577 -0.015341282 -0.0361076 -0.03231464 0.042951778
편 -0.07596267 0.028128387 -0.090167515 -0.013909805 -0.016392933 -0.048723407 0.019944929 -0.01703921 0.019873247 -0.007231259 0.0289449 -0.06670312 -0.023674233 0.043386728 -0.016166277 -0.020993296
일 0.0002963952 0.03505063 0.027596116 -0.09774296 0.024654817 0.015548296 0.0018152064 -0.028109679 -0.06754838 0.020520663 -0.032732423 -0.056632888 0.04382711 -0.0070311455 0.047955498 0.029194308
돈 -0.13237062 -0.12920593 0.043670043 0.03506863 -0.1065652 0.1284717 -0.054584622 0.123370826 0.054843467 -0.0636224 0.12225708 0.0705579 0.0889434 -0.012481489 -0.07220651 -0.09521549
이게 -0.038730484 -0.034096587 0.10511667 -0.029289598 -0.0045753345 0.024946233 0.041650694 0.017326457 0.12525417 -0.0406325 -0.009466271 -0.052567326 0.0049826517 -0.06185902 -0.017644238 -0.04051593
성 0.09826527 0.014394218 0.037288938 -0.002219715 -0.005636393 -0.005934861 -0.04158936 0.0032491554 -0.06728649 -0.022231404 0.06365081 -0.029801521 -0.00033472967 -0.025995415 0.04905093 -0.05368293
느낌 -0.008610364 0.04708331 0.03311576 0.029813424 0.03719795 -0.06208125 -0.010629776 -0.042390406 -0.11234625 -0.007479248 0.015047888 -0.025952796 -0.05540094 -0.009683583 -0.037334885 -0.038090717
시 0.03748185 0.063167915 0.069510266 0.0075943805 0.017687663 0.0011611129 -0.04406535 -0.0651994 0.052523125 -0.04048486 0.005249398 -0.067963146 0.05566343 0.072628945 -0.06758104 -0.0048091165
이야기 0.016536098 -0.039358698 -0.08849369 0.12058684 0.046201646 -0.07390647 -0.008977681 0.05924154 -0.04103369 0.0029165694 -0.03443054 0.00053833314 0.01070494 -0.0022813412 0.028337577 -0.012247821
최악 -0.11774964 -0.22612438 0.18978451 0.03539648 -0.17582132 0.0910617 -0.2185922 0.21460164 -0.20764178 -0.14503232 0.14919767 -0.14166704 0.14402834 -0.2117056 0.23746945 -0.22888269
된 -0.022002334 0.046745237 -0.013360539 -0.08116726 0.06608744 -0.038588226 -0.002426633 -0.019607173 -0.02746 0.031010536 -0.061069902 -0.018359018 -0.060148295 0.081974946 -0.058927815 -0.022047458
봐도 0.078989655 0.09781466 -0.10982752 0.07243782 0.036842495 -0.055238754 0.039979413 -0.0592898 0.029666021 0.0674183 -0.120056555 0.12115364 -0.13480635 -0.01725568 0.048318826 0.09547039
님 -0.035558265 0.032885898 -0.04110867 0.0044181505 0.07726807 -0.0685956 -0.0050188 -0.031574927 -0.011232858 0.04495949 -0.007834545 0.10113646 -0.06349903 0.0752114 -0.019786188 -0.0026945858
어서 0.05437464 -0.052222442 -0.0637552 -0.015385122 -0.013923475 0.04889255 0.06193683 -0.017020978 0.10227655 -0.0037302615 -0.021071352 0.042384926 -0.0003133621 -0.0073365862 0.06369015 -0.0020985184
애 0.031016618 -0.044656444 -0.049918987 -0.048052814 -0.065896936 0.039960828 0.0845798 -0.008502633 0.092637084 -0.0043945904 0.032917056 0.008930273 -0.030646443 -0.06784903 -0.053300012 0.083731666
전 -0.06905376 0.011105604 -0.059527133 -0.024815992 -0.0071242866 -0.043933533 0.011035204 0.012577601 -0.0503117 0.015073203 0.02792611 -0.042146135 0.019445771 0.046711154 -0.057263605 0.0030049114
넘 0.0697491 0.09354407 -0.124912634 0.04546611 -0.035389982 -0.061506473 -0.039611295 -0.009624875 -0.07486044 0.04279191 -0.043426193 0.06154227 0.029732337 -0.00082952424 0.079797216 -0.016645517
ㅠㅠ -0.023720153 0.075812526 -0.051353272 0.023446394 -0.009991747 -0.01864251 0.002433782 0.01451291 0.00062275655 0.037705507 -0.07318055 0.05873257 -0.017561076 0.056321546 0.047403812 0.08478962
인데 0.007795042 -0.033747595 -0.041148476 -0.07682995 0.027060864 0.031325456 0.0031053927 0.024892196 0.058223747 -0.01612385 0.016340306 0.03191063 -0.013650947 -0.045020316 -0.0039377147 0.05937599
다고 -0.034968976 -0.04865658 0.09145854 0.043856744 0.029061534 -0.05831494 -0.015564882 0.09570363 -0.23813799 0.061878774 0.038334046 -0.08477843 0.104423665 0.028013714 -0.03523395 0.04562919
이해 -0.008513926 0.00998483 -0.016123628 0.1398285 -0.042113096 0.091877244 0.10688814 -0.039513774 0.13705534 -0.023717243 -0.037938453 -0.004357229 0.04116333 -0.08020648 -0.02195941 0.061168768
별로 -0.1487717 -0.12476183 0.07649138 0.06603873 -0.025127355 0.053220857 0.015606902 0.090019755 -0.012107792 -0.15841864 0.05537676 -0.06829138 -0.07875297 -0.0577539 0.028396914 -0.11527264
그리고 -0.00077930256 0.07479606 -0.016860621 0.011201907 0.0674457 -0.04797352 -0.035008308 -0.0041240887 0.06793497 0.030562403 0.009309691 0.08290091 -0.09357189 -0.0029691858 0.009742296 0.015005572
명작 0.057956778 0.105794884 -0.11095405 -0.02058354 0.076170914 -0.06783963 0.06416331 -0.08615666 -0.059770267 0.17776859 -0.1592672 0.10614916 0.03580436 0.088671364 -0.09896509 0.06313002
여자 0.029381672 -0.08515664 0.063109 0.0200127 -0.023186501 -0.020371625 -0.044747263 0.0046556196 -0.031060228 -0.0005794517 0.020789716 -0.0586416 0.0019282107 -0.046242442 0.060689792 -0.010687266
^^ 0.070661195 0.04950093 -0.10498934 -0.0026753522 0.10824058 -0.038661964 0.063299015 -0.0982256 0.0046485835 0.049033754 -0.07422774 0.110796735 -0.08497334 0.058470406 -0.057883542 0.023913825
역시 0.06931411 0.06906872 -0.037113406 0.020920536 0.033311237 -0.109845996 0.044015415 0.027448742 0.03869522 0.025217969 -0.07298223 0.030910924 -0.053427905 0.059160106 -0.05406162 0.016395986
난 0.010203105 0.035093784 -0.10268482 -0.06138123 0.09424688 -0.016870914 0.030309787 -0.048360184 -0.03739114 0.0814968 -0.037213143 0.05803639 -0.036832575 -0.011495725 0.024760755 -0.03979041
이상 0.0156427 -0.012666809 0.034912292 -0.02572523 0.0057374146 0.01226198 -0.046959683 0.023571512 -0.026274279 -0.035257764 0.009747076 0.020689031 0.041243143 0.023136431 -0.025094368 0.011260773
또 0.05946708 0.034698904 -0.023397487 -0.026997356 0.041958246 -0.13053653 0.0777445 -0.072353646 0.008650014 -0.0032700587 -0.08724835 0.05187788 -0.018579194 0.051265087 -0.014709268 0.058881324
걸 0.040835693 -0.025503917 -0.049963087 -0.06770005 -0.057644963 0.03325017 -0.04941802 0.028181084 0.046372395 -0.00012982627 -0.019905204 0.021429334 0.009981113 -0.11236376 0.03309015 -0.014184368
한국 0.011200925 0.04700055 0.014334806 0.0021932425 0.008892914 0.021295188 -0.04101034 -0.011045688 0.015279751 0.0053358716 -0.017452953 -0.0034751643 0.021627478 0.060285106 -0.030519744 0.027608437
는지 -0.09998151 -0.069526866 0.009140423 0.050308578 -0.03755169 0.0137290275 0.06801437 0.08628586 0.081666335 -0.03171946 0.005538738 -0.08541616 0.03446779 -0.057667986 0.026350176 0.019861463
많이 -0.015999287 -0.011676658 0.06485445 0.05323738 0.0084025515 1.7440638e-05 0.026771145 -0.018626718 0.028431244 -0.06734215 -0.018968716 0.027499752 0.03335867 0.02827598 0.03399113 -0.0023857867
에게 -0.02111882 0.069622375 -0.03553358 0.014631385 0.029333856 0.06561128 0.019664988 -0.016205905 -0.018357528 0.06373927 -0.0662467 -0.036406733 -0.05761473 0.04498122 -0.014383049 -0.008744561
부터 0.009778654 -0.050057378 -0.011771802 -0.078979574 -0.08298303 0.060308076 0.0023595137 -0.05493145 -0.10265744 0.03816192 -0.017573038 -0.047156394 0.10677559 -0.073781304 -0.0047028475 0.03380857
만든 -0.03978429 -0.040730227 -0.088833764 -0.102463774 0.0018350596 -0.026019394 0.0363855 -0.06156779 0.005078044 0.042724885 0.030801307 0.008648488 -0.0121515365 0.0026052124 -0.029845499 -0.015564833
주인공 0.027295547 -0.04828507 0.0003925757 0.03333896 0.011619887 0.048483584 -0.054356482 -0.05654755 0.039717134 0.0148168625 0.06894519 -0.023498535 0.00025602969 -0.035062153 0.05321278 -0.053346734
받 -0.008054905 -0.024923325 -0.018620891 0.0035042728 -0.010991663 -0.060764365 0.01474121 -0.0047964347 0.001862819 0.1034607 0.04283865 0.014768239 0.10374924 0.038886096 0.024970246 -0.038347833
합니다 -0.025363706 0.0019753238 -0.022949671 -0.006912885 0.04784472 0.01975137 -0.0052895946 -0.052825835 0.0067873118 -0.017169382 -0.039132398 0.07980627 0.027356593 0.007983447 -0.007519181 0.007965001
우리 -0.033821736 0.04363338 -0.064423956 -0.06674551 0.016227195 -0.004535534 0.13715507 -0.03600678 0.015254796 0.04924445 -0.098168895 -0.010398316 -0.051482618 0.034256287 -0.031816285 0.014386852
두 0.025090445 -0.03589743 -0.016186541 -0.04633402 -0.0001130178 -0.09708635 -0.048390247 0.030063039 0.05569491 0.022576021 -0.06713306 -0.043819822 -0.07303024 -0.033799637 0.0058199875 0.030701175
살 0.003246111 0.065451264 0.013568571 -0.16624449 -0.021991836 -0.017431015 0.021940496 -0.04801645 -0.020943007 0.014327197 0.016338898 -0.018491682 -0.038763754 -0.008440236 0.019019855 -0.082254596
!! 0.060764086 0.010448256 0.044031434 0.0815398 -0.02679348 0.12561479 -0.05912131 0.0390662 0.01729718 -0.0038587824 -0.0030239818 0.029957604 0.059659448 -0.025378477 0.016442748 0.055304114
길 -0.021969238 -0.037663903 0.015991753 -0.075187355 0.028534278 0.052030668 -0.004729499 0.0149649335 -0.030777967 -0.009080002 0.0481369 0.049772803 0.0457825 0.009493898 0.0044482527 -0.022727186
엔 -0.12022014 -0.012172167 0.047552656 0.018755648 0.03257695 0.010094987 0.08003637 -0.064178176 0.034044843 -0.047018472 -0.034532852 0.04515198 0.008129908 0.0029181738 -0.09022747 0.036514305
괜찮 0.052292537 0.06427769 -0.031536207 0.058456447 0.042314835 -0.060393047 0.011493157 -0.03193108 0.033097636 0.090330176 -0.05972171 0.1615626 -0.023887454 0.095084205 0.03271083 0.009301253
기억 -0.029025683 0.006255416 -0.088265866 -0.023534661 0.03820871 -0.007905241 0.027475677 -0.05086454 0.0718606 -0.023169605 -0.076516464 -0.018095588 0.008261933 0.027949525 -0.016935833 -0.013572026
연출 -0.074738145 0.011770404 0.033631194 -0.056285094 0.022072306 0.07219975 0.08922426 0.04171031 -0.02171092 -0.058814812 0.016775114 0.026455922 -0.0044723116 -0.01860686 -6.5128435e-05 -0.068823256
한다 -0.013197043 -0.042697422 -0.036614865 0.006106967 -0.045160946 -0.039680723 -0.0320382 -0.0319632 0.016339863 -0.011880123 -0.04852824 0.0315932 0.05150077 0.04633394 -0.024818026 0.04733978
때문 -0.017983153 -0.02381095 0.047882922 -0.11900782 -0.052335024 0.07531429 0.052618098 0.026221285 -0.016580371 -0.012694543 -0.018496087 -0.010124856 0.05634827 -0.025793837 -0.0073666554 -0.0032218855
이나 -0.025844555 -0.051514786 0.07851823 0.036682367 -0.056838624 0.04269828 -0.047508582 -0.042483076 -0.055132005 0.044202164 0.07362159 -0.065503486 0.07318009 -0.01797747 0.008205375 -0.009248401
ㅎㅎ 0.040402927 0.09479344 -0.044343006 0.033830754 0.098922834 -0.06728206 -0.03811357 -0.040161043 0.056513757 0.028145619 -0.08157184 0.046317365 0.035632063 0.062593356 -0.07086751 0.11644357
요 -0.0010383087 0.0066154874 0.040384978 0.05595727 -0.0145223085 -0.024916941 -0.008919687 0.0011520617 0.0149084525 0.011461046 -0.06069164 0.015638936 0.0654455 0.036335718 0.06915404 0.047734857
저 0.027054852 0.028816089 -0.076309554 -0.05387417 -0.021333264 -0.020789208 0.0574458 -0.02536149 -0.037927885 -0.02444136 -0.037460677 -0.010839752 0.005956059 0.07775729 0.02116094 -0.049674522
재 0.051308077 0.10179032 -0.045737356 0.033724274 0.111555286 -0.10199662 0.058210555 -0.073242776 0.02993563 0.05510004 -0.057777733 0.03741444 -0.03498019 0.07568792 -0.04084831 -0.029316068
꼭 0.10985539 0.13594586 -0.15023907 0.03804545 0.08984836 -0.13157326 0.050748233 -0.090992495 -0.0044541536 0.017871918 -0.11740434 0.18825167 0.023248332 0.09527453 0.013563078 0.0054912833
랑 -0.035151202 -0.08455726 -0.0054899594 -0.03793264 -0.010033154 0.02335265 -0.0773002 0.015903728 -0.043867 -0.015966544 -0.02238148 -0.0021516979 0.101844676 0.035002876 0.014451702 -0.060099278
며 0.02098943 0.01510247 -0.06527465 -0.06500539 -0.017425803 0.026305731 0.01312726 -0.008498338 0.008874279 0.019013504 -0.022304831 0.03275799 -0.008761631 -0.010177673 0.002072331 0.00516882
현실 0.049802702 0.039595813 -0.043166056 0.04373713 0.08768812 -0.065895475 0.075185105 -0.049928743 -0.03693005 0.04886851 -0.009616855 0.051577486 -0.040450674 0.065778635 -0.018904429 0.046435185
긴 0.035360076 0.12196809 0.033096585 -0.08701481 0.07825851 0.043554075 -0.032348502 -0.03964663 -0.16188943 0.073864646 -0.026704255 -0.06057272 -0.014347977 -0.005726004 -0.020770654 -0.064286046
ㅡㅡ -0.10739777 -0.12472686 0.08482051 0.0009473785 -0.05014032 0.06695543 0.04450797 0.08056107 -0.008641462 0.0008857946 0.084363855 -0.023992224 -0.07049488 -0.05030095 0.05658524 -0.082846515
무슨 -0.03892418 -0.059602648 -0.09111362 -0.06877432 -0.08182731 0.065217435 0.052646577 0.06820048 0.100375906 -0.08678275 0.06371037 0.16826035 -0.12363305 -0.096162505 0.10535368 0.07463167
내내 0.14715457 0.056606855 -0.09159481 0.0023202742 -0.06286315 0.049336813 -0.04571039 -0.0025725833 -0.055112217 -0.022787532 0.029011859 0.05110898 -0.01239057 -0.00017600812 0.07195698 -0.06428406
결말 -0.05113203 -0.076255225 0.020738564 -0.012537019 0.010924242 -0.021348042 0.09465687 0.008984824 0.03518327 -0.005431115 0.014866015 -0.0050629117 0.04693098 0.023740672 0.04017889 -0.006455947
죽 -0.033209696 -0.015186822 0.051763278 -0.08535915 0.010361813 0.082796596 0.0062940624 0.0031731715 -0.06143341 0.019015184 -0.029435346 -0.0687635 -0.09100646 -0.020577556 0.052593064 -0.035494756
남자 0.053016637 0.050227042 -0.053131428 0.03773588 -0.018011823 -0.020409813 -0.047919657 0.028961156 0.035512008 0.01668442 0.032600828 0.03411088 -0.0628789 0.021508783 0.007556403 -0.013680464
세요 0.053188313 0.04671857 0.02415114 0.015581658 -0.030721419 -0.051117152 -0.09103214 0.0056254114 -0.043428376 0.017558996 0.011830026 0.049311288 -0.018210547 0.068998896 -0.011263727 -0.117446296
전개 -0.037795085 0.038649514 0.047931116 0.0024015403 -0.033510003 0.024669236 0.02039111 0.050232716 -0.044485625 -0.052056745 0.063896544 0.015997086 -0.015658496 -0.045998216 -0.010892917 0.021350235
마음 0.027383905 0.1278849 -0.14567731 0.02610243 0.063600555 -0.0959828 0.03505626 -0.079824515 0.04706678 0.11739161 -0.0607654 0.04543011 0.05095682 0.10717803 -0.027455295 0.08174196
소재 -0.04168562 -0.0010219555 0.1046538 0.0039460743 0.00498679 0.004467738 -0.024639377 0.06503509 -0.03580051 -0.008552037 0.099294186 -0.12598683 -0.0036676785 -0.00918027 0.079596944 -0.032205332
속 0.0031478563 -0.009915592 -0.07934674 -0.019378653 0.022021957 0.0032829936 -0.0013746859 0.031290866 -0.030354343 -0.028757028 -0.028815446 -0.006109396 -0.0098060705 -0.037004247 0.037138656 0.03289662
공포 -0.022627415 -0.027793134 -0.030833267 0.061754417 -0.065674186 0.025124224 0.04692176 0.009586082 0.00017439033 -0.024383884 0.043291666 -0.065384865 0.04724018 -0.020794261 0.044545922 -0.09196747
아서 -0.016857818 -0.034511898 -0.003618818 -0.04604068 0.017646456 0.004347376 -0.044972867 -0.00150679 -0.033291977 -0.010946055 -0.012668941 0.06634665 -0.09217615 -0.013418398 0.016772792 -0.022476606
다른 0.028871423 0.0092642335 0.006606117 0.08586407 -0.008492541 0.045919597 -0.047632042 0.023868386 -0.015147117 0.06996219 0.0030766889 0.027647335 0.007314616 0.060426984 0.037917487 0.09996998
씨 0.056769315 -0.005191646 0.032773066 0.00086009165 0.04202607 -0.05630158 -0.061205354 -0.012733543 -0.016961344 0.018426819 0.032935727 -0.028531715 -0.04148265 0.044037383 -0.037566803 -0.010735941
인생 0.07377192 0.0385684 -0.028463405 -0.007975136 0.094065025 -0.051064663 0.07893972 -0.023773687 -0.059915952 0.10282198 -0.07114428 0.031483673 0.035301864 0.07300074 -0.06790236 0.039874095
~~ 0.02497693 -0.025568528 -0.056627825 -0.029820299 0.046497434 0.008281994 0.011961524 -0.0062175775 0.015575852 0.045213968 -0.053664148 0.07734102 0.077670515 -0.026971465 0.018256983 -0.01852819
짜증 -0.055077914 -0.15880437 0.012147875 -0.00067823916 -0.12866376 0.0746969 -0.07481908 0.1849266 0.11351678 -0.120417014 0.1281256 -0.1421506 0.026760388 -0.17701237 0.1555306 0.11524878
짱 0.08446307 0.09366591 -0.124865875 -0.013830868 0.0690776 -0.07566973 0.058765613 -0.06613486 -0.022406055 0.10249388 -0.089560784 0.1041909 -0.023878071 0.09452552 -0.0653847 0.022344667
뿐 -0.060938798 -0.061064996 0.03648165 -0.047628503 -0.025831424 0.005704843 0.031426497 0.033852383 -0.07462418 -0.0393877 0.020355577 -0.058937106 0.030860156 -0.043363176 0.06735934 -0.044216648
은데 -0.04812848 -0.09656263 0.0053888382 0.0064617083 -0.011354129 -0.013174898 0.10105347 0.026010891 0.038656183 -0.02926515 0.020668866 -0.089964114 -0.0698568 0.030271217 0.00655694 -0.086455494
별 -0.09957514 -0.0529485 -0.049666476 0.07960319 -0.009151496 0.09375427 -0.022170715 -0.051078472 0.06360953 -0.017011363 -0.020509696 0.00048803797 0.0008671022 -0.07161525 0.09039692 -0.062746115
아요 0.15479332 0.03468377 -0.020746557 0.06563795 0.061477996 -0.089218654 0.0145959 -0.07695354 0.07173244 0.055473953 -0.05134389 0.15187341 0.011619325 0.039922584 0.04816312 0.08406842
유치 -0.079072654 -0.05876134 0.12712876 -0.08773038 -0.044018842 0.019363808 -0.022607088 0.06770288 0.047925852 -0.06530498 0.067631036 -0.08044175 -0.028014237 -0.07047677 0.07644678 -0.07780448
가장 0.06366101 0.037421893 -0.08749992 -0.01332975 0.045323867 -0.030356912 -0.05694506 0.023571953 -0.06241579 -0.0061209314 -0.0030123226 0.069938794 0.016209753 0.057830375 0.04489441 -0.040154856
필요 0.04085409 0.108983316 -0.0471925 0.055920396 0.08529969 -0.06745141 0.056445464 -0.09374487 0.055948876 0.0807376 -0.07644719 0.019279309 -0.07801643 0.069306865 -0.15082455 0.14243206
음악 0.086334355 0.046525694 -0.057104718 -0.004855713 0.105651766 -0.041967887 0.05772061 -0.053125665 0.008340897 0.12371908 -0.094672054 0.03593335 -0.10100071 0.021736518 -0.0016534774 0.01599271
) -0.016398925 0.07335027 -0.03649803 -0.06448928 0.050122365 -0.024823446 0.05847795 -0.004304118 -0.07183882 -0.019983903 -0.014060631 -0.022668194 0.048843123 0.029817674 -0.009945918 -0.052956264
일본 -0.004938438 -0.07381392 -0.05926953 0.008862966 -0.0069908104 -0.056382015 0.016563132 -0.006007669 0.08100598 -0.021534009 0.049486488 -0.060477875 0.07753903 -0.0489419 0.030324291 -0.057988923
낮 0.03803996 0.17341277 -0.20475787 -0.009324318 0.12076332 -0.054714732 0.096481055 -0.073957525 0.008375576 0.15210207 -0.14085111 0.045336373 0.04435738 0.20671125 -0.06481486 0.104461744
아이 0.06731303 0.008968451 0.022993945 0.02360749 0.0125643145 -0.04395411 -0.041442636 0.036034957 -0.016074315 0.042977948 -0.024684217 0.009430884 -0.063943505 0.0434344 -0.056494143 0.0070492094
;; -0.034658886 -0.03878422 -0.017324394 0.020501688 -0.039519906 0.07499191 0.085932955 0.006563827 0.0708077 -0.07087198 0.04373252 -0.036537968 0.08629688 -0.012547873 0.08444664 0.033979718
오 -0.027214061 -0.03232497 -0.0273638 -0.052216228 -0.0022103728 -0.047038015 0.04146015 -0.07455509 0.0024129066 -0.03464466 -0.014973499 0.064513445 0.07449633 0.0903075 0.007573446 0.04090533
반전 -0.03724084 0.057033855 -0.019676067 -0.011846632 0.012231065 -0.05910423 -0.034588397 -0.08366935 -0.1259711 0.034167632 -0.026255745 0.05768799 -0.0064456724 0.019747527 0.00783914 0.026076745
수준 -0.11723366 -0.104038864 0.0045661763 0.10763089 0.0099007245 0.029148882 0.056950063 0.013947923 0.011093271 -0.07027316 0.10669898 -0.030684412 -0.0005895068 -0.0960833 -0.015553434 -0.02551614
다니 0.024929132 0.06906059 0.0032685203 0.03579769 0.041082647 0.033027366 0.14723875 0.023291016 0.027531136 0.077009715 0.02123045 -0.0062974556 -0.046047825 -0.031528864 0.055859722 -0.07557877
웃 0.0069991336 0.054137833 -0.021951513 -0.053155396 0.03127329 -0.046632804 0.013100505 0.001962652 0.009531169 0.04847606 -0.08678906 0.023764268 -0.062478382 0.008385967 -0.035306882 0.010870512
매력 0.05678605 0.06138893 -0.046669386 0.013112192 0.0134521285 -0.079665996 0.01631274 -0.052602664 -0.059275534 0.03092368 -0.04849513 0.011825761 -0.013191699 0.07990713 -0.015772564 -0.012530692
맞 -0.010993888 -0.019009983 -0.0009119647 0.031067776 -0.06887896 0.030410824 -0.0004959906 0.065829486 -0.043743886 -0.089453965 -0.028475096 0.06859654 -0.06777107 -0.05184851 0.03366991 -0.03860761
인지 -0.04710775 -0.043130554 0.012589658 0.08393951 -0.007042003 0.07772598 -0.019208828 0.016550506 0.063694574 -0.06390662 0.01202459 0.02459621 0.06900748 -0.013509798 0.06498293 0.04098873
가슴 0.094070725 0.069522284 -0.16937034 0.04751683 0.062900744 -0.12248833 0.08267764 -0.062220406 0.01654654 0.08099184 -0.11150585 0.09701886 -0.046088584 0.081950866 0.005790333 0.10852371
없이 0.011327382 0.06280623 -0.08228814 0.073132336 0.04193518 -0.039881267 -0.08202174 -0.014789238 -0.113815546 0.025667373 -0.014615558 0.0127727715 0.02737261 0.050851747 0.070337944 0.032178957
원작 -0.04674607 -0.06555061 -0.0600559 0.020978771 -0.019940663 -0.0027141129 0.039210707 0.10277714 0.08803501 -0.034314528 -0.0024126314 -0.062211417 -0.15602078 -0.10562676 0.006760098 0.07024743
ㄷ -0.0008519597 0.036969684 -0.05517804 -0.06960702 0.02342779 -0.059919618 -0.0059641646 -0.081984304 0.0043498715 0.06042126 -0.009725952 0.073879406 0.0027441254 0.0387304 -0.015292045 0.017899137
인간 0.03078631 0.045138747 -0.076092124 0.02161976 0.079121314 -0.02986977 0.064922065 -0.052810676 -0.053545367 0.030553283 -0.10818131 0.034299977 0.043640107 0.074279614 -0.06876419 0.027027696
데 0.045437545 -0.0039997534 0.034427643 0.033158056 -0.0423035 0.059392545 -0.09127546 -0.014539095 0.016300311 -0.041713115 -0.040677514 -0.006419506 -0.017592994 0.02455776 0.018029662 -0.016833678
굿 0.12282689 0.0975942 -0.19172442 0.08155039 0.14474963 -0.10470644 0.053629905 -0.11934691 0.0051870467 0.07785757 -0.1378387 0.10052407 0.030336086 0.16492414 -0.04979074 0.0940999
ㅠ 0.0049849367 0.024895463 0.036995154 -0.004880218 0.03768516 -0.04190491 -0.027363475 0.015664473 -0.021524224 0.11978709 0.03129783 0.016850047 -0.0923082 0.02754445 -0.013803944 0.013109934
높 -0.091437235 -0.05113437 0.12224015 0.041280057 -0.09634046 -0.07462223 -0.019064475 0.054388784 0.01678601 -0.102334924 0.06322947 0.007806504 -0.023126462 -0.049766418 0.06549242 -0.11847501
밋 0.049916722 0.08093543 -0.07918457 -0.06637278 0.03948941 -0.044081032 0.039068338 -0.06838537 0.044563327 -0.005329611 -0.07196212 0.12095019 -0.061964553 0.031846967 0.0051043574 0.051573627
( -0.0069054775 -0.016270133 0.039450523 0.0010382674 0.015243015 -0.009178329 0.06947038 -0.05029819 0.022184689 -0.016121482 0.040708363 0.008106468 0.034626003 0.040343802 -0.003607018 -0.057623435
만드 0.012598886 -0.02431313 0.069291666 -0.06391143 -0.07493786 0.033476435 -0.023094518 -0.08961316 -0.08760484 0.02033603 -0.013676161 -0.0050246967 -0.0034752525 0.03363107 0.0069855168 -0.00032986642
급 -0.007748223 -0.028977081 -0.06999033 -0.028446067 -0.04271265 -0.0001670311 -0.025516529 -0.021428136 0.07526156 0.015964992 0.023828438 0.08768378 0.058331028 -0.065679245 -0.0059522456 -0.09531968
눈물 0.033821795 0.127385 -0.13520905 -0.01677036 0.10311369 -0.048684455 0.0681727 -0.08435179 -0.0017797895 0.044075146 -0.13721143 0.058882676 -0.051100407 0.14863853 -0.053052664 0.124737985
보여 0.017702991 0.0024708812 -0.009807447 -0.07713334 -0.004768728 -0.007727335 0.060864996 0.062136076 0.0115434425 -0.02660319 0.03964333 0.023682257 -0.056718867 -0.02809753 0.05972192 -0.02149626
준 -0.05855587 -0.03940976 0.041346285 -0.05663159 -0.02998879 -0.0667418 0.06653665 0.033780985 -0.09188371 0.044834096 -0.050143525 -0.013434802 0.04302437 -0.026468905 -0.13793989 0.022737175
찍 0.058823645 -0.0013333984 -0.06094251 -0.00073018327 -0.06713394 0.124882475 -0.044023603 0.05607947 0.108611904 -0.056497376 0.004464866 0.03814896 0.038177013 -0.12259984 0.10882669 0.11387526
인가 0.051041722 0.019087998 0.007884514 -0.02912938 -0.039280526 -0.0104783075 0.021871237 0.060999878 0.029058307 -0.04238963 0.0019150942 -0.10414493 0.02767469 -0.09187097 0.037646703 -0.05193436
노 -0.020168317 -0.12439762 0.17474441 -0.0086408425 -0.12745821 0.13849883 -0.099714346 0.13683718 0.09494166 -0.11369757 0.10094037 -0.15221325 0.09175318 -0.079890616 0.1457001 -0.04974263
을까 0.017561266 -0.07103589 0.083317235 -0.03023034 -3.930679e-05 0.02009162 -0.018941775 0.014860097 -0.023665525 0.04748434 -0.012601541 -0.06629801 0.084885255 0.038428675 0.04990996 -0.025386304
용 -0.09339309 0.029511299 0.054589465 -0.026516067 -0.017012116 -0.05890835 0.049199764 0.008421703 -0.05406699 0.017929066 0.049135525 -0.091141395 0.014897641 -0.0938843 -0.08003853 -0.04681421
코미디 -0.010213302 -0.0049155382 0.029304579 -0.042704295 -0.033467397 -0.026790656 0.008599276 -0.06884575 -0.11393188 -0.037173476 -0.004065713 -0.029366743 0.006299206 0.01157612 0.06742996 -0.08887994
마 -0.08326984 0.014107293 0.07379701 0.09630431 -0.099172056 -0.0723526 0.107353635 0.06677585 -0.05726897 -0.106689125 -0.0075112153 0.073013514 -0.055714846 0.030803397 -0.1163873 -0.030472755
화 -0.026809398 -0.116944835 -0.03948641 -0.0060767424 0.005035328 -0.016614111 -0.00078087766 -0.024378039 0.009849881 -0.0010888455 0.040974464 0.031017257 -0.020777956 -0.07512051 -0.070603326 -0.10880196
신 0.030429699 -0.014877691 -0.036675427 -0.009259633 0.03346891 -0.02339311 0.009140572 -0.029932085 0.018706957 -0.030597711 -0.05315471 0.07424506 -0.0254966 0.029970642 -0.062682495 0.10129924
모든 0.014542063 0.015084703 -0.015265093 -0.016229277 0.08238199 -0.0015940717 0.03560194 -0.03997761 -0.031956177 0.09223143 -0.04705646 0.0031473895 0.00864982 0.06270872 0.013680849 0.031846967
쓰 0.053084977 -0.07797555 0.0136215985 0.034380376 -0.045231905 0.057406265 0.0051583378 -0.040994253 -0.011707466 -0.07295659 -0.004666214 -0.0247041 0.025163427 -0.07906365 0.031934146 0.07254284
여 0.03173776 -0.023824088 0.033950042 0.039774477 -0.03866725 0.02226268 -0.0050162165 0.022263134 -0.03421768 -0.04706464 -0.0041240896 0.032121077 0.004293857 0.05098066 -0.010312517 -0.0010762338
5 0.07288483 0.029275153 -0.042694613 0.07073937 -0.04060815 0.04638294 0.035195448 -0.04071543 0.039373588 0.036325257 0.01125684 -0.08623333 0.09263955 -0.03123571 0.020561978 0.047306664
아직 0.024865687 0.026387054 -0.018288635 0.052137483 0.050673578 -0.00417383 -0.02089023 -0.075553685 -0.07328129 0.027820664 0.0067018582 0.03960493 0.05716993 0.020992285 -0.020941243 0.0052799624
추천 0.0066435607 0.013094248 -0.05821431 -0.031611327 0.046196867 0.0037756786 0.006736101 -0.07748248 -0.03868342 0.060297832 -0.06579726 0.09131898 0.0059102946 0.028792387 0.016335502 0.010507052
처럼 0.021720532 0.054978833 -0.08014909 -0.11467415 -0.0520119 0.00036649825 -0.013189774 -0.031887658 -0.08508145 0.045236774 0.009936716 0.020925406 0.028950838 -0.033315405 0.029951908 0.041510396
눈 0.0152956 0.06363298 -0.06040431 -0.01855509 0.05519556 0.042175733 -0.09214523 0.0140489 0.05534288 -0.059826322 0.018318245 0.015532241 -0.05623801 0.0039707487 0.030713273 0.03930155
아닌 -0.014554699 0.043751728 0.031467617 0.054465722 0.048854258 0.07206973 -0.05303485 0.0012241611 -0.037730135 -0.019646307 0.011947376 -0.06716098 0.091455735 -0.069678 0.008474107 0.045707364
자체 -0.0514122 -0.024858909 0.024054792 -0.044139996 -0.03615643 -0.023431756 0.010621865 0.027057145 -0.032234427 -0.03171598 -0.035261355 -0.016949218 -0.057490747 0.005902288 -0.004469293 -0.012881603
울 0.031091252 0.026556833 -0.044499196 0.080930926 0.05351505 -0.10680603 0.042876694 -0.025804067 0.13951547 0.07040103 -0.10065541 0.07176226 -0.06991646 0.11382477 -0.045780003 0.0393459
몰입 0.058588214 0.035674956 -0.12058168 -0.066864274 0.118414536 -0.0658793 0.082074866 -0.041487727 -0.07000695 0.13173178 -0.09424974 0.11416828 -0.098877095 0.0052329334 0.017709762 -0.026237065
4 0.010941255 0.029893026 -0.0031748253 -0.007798951 -0.03122337 0.0063476404 -0.08381163 0.07175811 -0.069208935 0.011844038 0.053334218 -0.0551108 0.002545832 -0.06723505 0.045852114 -0.045156203
대박 0.08420679 0.10005122 -0.12066528 -0.012672657 0.12310247 -0.056955397 0.041599587 -0.09087113 -0.018036595 0.13869132 -0.11765855 0.043217465 -0.0033178222 0.12719555 -0.080833055 0.042222116
몇 0.06454298 0.0121818865 -0.05646621 -0.041808102 -0.0080097625 -0.05562116 -0.07235593 -0.0039059084 -0.0060475594 0.05966254 -0.05861511 -0.010172489 -0.016943539 0.030173793 0.0053363433 0.033195682
스럽 -0.022377966 0.037655633 -0.034860644 -0.03221324 -0.018130884 0.01447904 -0.004092266 -0.05349867 0.17030947 -0.015533101 -0.025729557 0.018858567 -0.048115395 -0.043604515 -0.0053910944 0.032092422
실망 -0.11704646 -0.030467948 0.11515932 -0.057942335 -0.07610355 -0.008045863 -0.16073331 0.11578908 -0.10938399 -0.14300399 0.12868237 -0.07466969 -0.05159218 -0.07398315 0.07924564 -0.13018624
는다 0.032862358 0.00847517 0.023652239 -0.039241698 -0.0353988 -0.1186981 0.007433985 -0.075772986 -0.05573082 0.080071025 0.003251506 -0.0046149036 -0.006998038 0.036287077 -0.017334342 -0.03628229
대한 0.03795052 -0.0054325964 -0.04832198 0.10502332 0.0018666676 0.021627856 -0.07349749 0.03485284 0.008433894 0.04071739 -0.033952244 0.03538704 0.0111256195 0.07618611 0.011404355 0.037294842
죠 0.011850784 -0.018311575 0.0001793097 0.052351512 -0.0010899622 -0.05672827 0.0035080097 0.010985972 -0.051288076 0.096075706 -0.042256225 0.07057675 -0.09025597 0.015757848 -0.02337042 0.030806374
란 -0.0043614213 -0.003672953 0.025017917 0.010940883 0.010315429 0.028101807 0.042012315 -0.0073536923 0.08104732 0.023201138 0.0024484745 -0.06392148 0.01979044 -0.014574499 -0.07325768 0.07039542
그런 -0.025210364 0.07227327 0.009484039 -0.00911123 0.023317978 -0.012347401 0.10411798 0.03794901 0.030996308 0.049942028 -0.05326799 -0.020402117 -0.028512668 0.00837887 -0.049096238 0.081535235
솔직히 -0.003753576 0.02340243 -0.019337423 0.024197023 -0.06526644 -0.0034483378 -0.020269189 0.077550635 0.044252735 0.016076853 0.02143172 -0.026639035 0.0022786083 -0.071488194 0.021453973 0.067900755
캐릭터 -0.019509738 0.02420532 0.047352966 -0.13260062 -0.019314785 -0.028755102 -0.048373062 0.04318467 -0.077199586 0.03174595 0.036500067 -0.009139738 -0.08514318 0.03497186 -0.01848423 -0.10345689
ㅎ -0.008143197 0.06676177 -0.024130931 -0.031918243 0.013669708 0.026032163 0.0029209876 -0.022359509 0.0024409778 -0.0018950364 0.013691536 0.015215673 0.034610853 0.0424694 0.020618299 0.025207173
모두 -0.013660432 0.057654772 -0.108638026 -0.032292884 0.04521723 -0.033931967 0.035413347 -0.11850919 -0.023110192 0.06414771 -0.02845402 0.053520545 -0.028697703 0.045950916 -0.017380608 0.032982342
아주 0.042600956 0.032961603 0.02914243 -0.008508613 0.0011598031 -0.084756546 -0.01740836 -0.00049716677 -0.041783508 0.052524272 -0.032063276 0.05918168 0.032034844 0.0042933114 0.021972436 -0.06755454
- -0.0061626774 0.014416779 0.06588118 -0.048121348 -0.065429755 0.019730363 -0.049087282 0.02819913 0.12259727 -0.033620782 -0.04204686 -0.00056200335 -0.0955595 0.012765422 -0.012504399 -0.02799166
가족 0.043928213 0.049079705 -0.039976694 -0.005434705 -0.01586798 -0.06691113 -0.028881876 0.03097667 0.031481925 0.034882296 -0.03495961 0.0417217 -0.06414921 0.05941023 0.020770457 0.028090458
여운 0.1715229 0.19730532 -0.14852665 0.119438335 0.13852628 -0.1027491 0.15186994 -0.14398393 0.011179557 0.14580058 -0.18738674 0.18533583 0.005769639 0.1428437 -0.0641063 0.08308096
건지 -0.07936036 -0.065690115 -0.06212909 0.09822606 -0.07337842 -0.010700793 -0.07780598 0.09794926 0.047794603 -0.09620068 0.020747025 0.075194545 0.040135052 -0.06753772 0.018786104 -0.015707817
전혀 -0.15407343 -0.055879414 0.015496664 0.069188274 -0.061800763 0.006101491 0.097307175 0.0569458 0.07888239 -0.042282626 0.05459536 0.069527574 -0.1616113 -0.036921933 -0.08740839 0.03195322
연기력 0.04553236 0.029740004 -0.0036021152 0.051482446 0.015431683 -0.048588417 -0.057296317 0.02737906 -0.039386787 0.04570328 -0.07309731 0.014859925 -0.0021312332 -0.016707784 0.023681534 -0.052899215
나라 -0.065202475 -0.048094187 0.011428849 -0.034264375 0.0075460984 0.0042989696 -0.016693326 0.051890735 -0.005531048 -0.025502814 0.007270306 -0.026037155 0.092772014 0.015597443 -0.028989077 -0.03317348
후 -0.07238802 0.009275932 -0.022286668 0.020396957 -0.014103897 -0.0010320146 -0.083689384 0.061733056 0.120634355 -0.01643759 0.01627993 -0.0431427 0.007435003 -0.0014481145 -0.022791704 0.05905791
될 -0.04157785 -0.028203167 0.02187187 -0.052163746 -0.00017880535 0.042781565 0.006485459 0.025211472 0.046600103 -0.02127339 -0.029018173 -0.09551517 0.046974495 0.06061881 -0.08426493 -0.052521735
다면 -0.007453939 0.003950597 0.018709771 -0.018927805 -0.0045356373 0.07280645 0.01855921 -0.0552119 -0.0020899812 -0.055057067 -0.003214367 -0.11235012 -0.0006184813 0.02958958 -0.05451759 0.03290219
뭔가 -0.025478888 -0.016946392 0.05758617 -0.03808296 -0.020827858 -0.04709142 0.037953828 0.009960126 -0.0050938893 -0.0322177 0.03717363 0.008257782 -0.030145591 -0.024518441 0.027559517 -0.02052959
그래도 0.15211041 -0.004533078 -0.049330693 0.032018367 0.0518589 -0.019396497 -0.07932795 -0.021254303 0.07708511 0.022700047 -0.07713794 0.06940428 -0.0668747 0.05640891 0.073132455 -0.01920129
; 0.018585967 -0.01790005 0.024765057 0.04511463 -0.056060813 0.009050888 -0.030093625 -0.026782244 0.08283148 -0.07036334 -0.019169167 -0.010803957 0.103715695 -0.08471834 0.035792224 0.065966725
시리즈 9.618888e-05 0.022088269 -0.053126484 -0.033716656 0.056896605 -0.016428022 0.05060536 0.029707365 0.07976225 0.044214793 -0.05817837 0.00032020255 -0.09871652 0.052194152 -0.002985158 0.06899234
근데 0.006987419 0.040997583 -0.06250793 0.045406226 0.058516923 -0.011583401 0.01319475 -0.032149468 0.023711905 0.013328456 -0.078940846 -0.012984496 -0.00044694357 0.019691078 -0.004073733 0.023013385
작 -0.041765027 0.056861512 0.041640397 -0.007290979 -0.018953668 0.053332705 0.03708199 -0.051879168 0.060853098 0.009083056 -0.005330603 0.02336352 -0.017409023 -0.009990385 -0.008325103 0.014402187
표현 -0.05450478 0.038131185 0.036541495 -0.046787973 0.036906537 -0.03205411 0.058756176 0.039500773 0.034919836 0.05815304 -0.061214622 -0.015117356 0.0065266825 0.07212187 -0.034529157 0.05812449
모습 0.028549936 0.08586046 -0.083890796 0.005099953 0.09544316 0.023337426 -0.004709387 -0.030315056 -0.10593899 0.021789031 -0.06514552 -0.013973133 0.002680271 0.010202458 0.013762031 -0.014307585
공감 0.048776686 0.03730543 0.023239067 -0.06594726 -0.025747798 -0.030755365 -0.059484396 0.01906226 0.056758143 0.003926973 -0.05776688 -0.02679928 0.04976731 0.007000981 -0.02348741 0.036818083
계속 0.12674253 0.061268393 -0.0059186216 -0.05802276 0.031047612 -0.030047737 0.0041968124 -0.07727812 -0.04251592 0.059444375 -0.070822835 0.1211734 -0.057508223 0.013167217 0.055371076 -0.022352055
먹 -0.025563203 0.021129005 0.024110027 0.06191149 -0.04514979 -0.054035738 0.032853916 0.024306351 0.042955067 -0.081276275 -0.044631824 -0.022894949 -0.07017621 -0.0024741623 -0.0036932193 -0.015513789
"" -0.064631075 -0.007882562 -0.0062412606 -0.0060724034 0.005940948 -0.0025488918 -0.079163395 0.041773427 -0.019755926 0.0037560496 0.017517107 0.020946994 0.09562991 -0.008515318 0.034314558 -0.07615572
제목 -0.059744906 -0.024979394 -0.02701151 0.0047123306 -0.050242726 0.045408156 0.016895767 0.03779496 0.038811505 0.060294706 0.032320555 -0.029786317 -0.0050978553 -0.027404875 0.04050541 -0.01625394
7 -0.05587836 0.047910713 -0.01615134 0.048769046 0.048908178 0.031708334 -0.049714703 0.017010003 0.07257874 0.060148798 -0.06526473 0.04310563 -0.059264757 0.073919415 -0.0913058 0.034828667
이랑 0.021319559 -0.02783813 0.031695925 -0.0719196 -0.028101416 0.017629782 0.034355894 -0.021006973 -0.080379054 0.038459085 -0.026884086 -0.0675173 0.010688352 -0.020380678 0.035693176 0.0016322318
극장 -0.04740753 -0.004162946 0.013496329 -0.04292896 -0.057831068 0.005051089 0.033179548 0.046870597 0.024680022 -0.025512163 0.10589691 0.007949957 0.1410741 -0.027090041 -0.018215172 -0.08620618
치 0.0032530339 -0.03178942 -0.023447623 -0.04270042 0.006520096 0.0015614193 -0.032341495 0.068513624 -0.101003006 -0.056365084 0.015769396 0.024082653 0.07010938 0.002393256 0.008611115 -0.08474049
비 0.026789235 -0.037481632 -0.039708525 -0.061384387 -0.0030557124 0.011541338 0.039762404 0.056813743 -0.103014745 -0.025625817 -0.0008706083 0.0035893226 -0.06969865 -0.07486307 0.015031613 0.015704961
이걸 -0.062619105 -0.0077780224 0.062786125 0.062107008 0.034468096 0.07976911 0.06836069 0.0052985814 -0.035471752 -0.06856192 0.14224297 -0.034796186 -0.053484444 -0.05422567 0.045862995 -0.040589575
진 -0.00435108 0.06381221 -0.009545806 -0.017475605 0.062518306 -0.13000771 0.035282083 0.050500747 -0.057803888 0.007967004 0.045402486 0.058890097 -0.121376455 0.020014098 0.0063684755 0.049068097
바 -0.008873476 -0.10300308 0.028079 -0.07149583 -0.06832932 0.06151116 0.081975766 0.10700228 0.025902992 -0.11113402 0.08038058 0.03753654 0.02090183 -0.06962986 0.06639924 -0.011679315
대사 -0.03369493 0.029827923 0.004957197 0.03178034 -0.074985825 -0.10617373 -0.0030509531 0.0589531 0.010486858 0.03815745 -0.037246194 0.054804515 0.003570884 -0.034972772 0.040842358 -0.0067363195
부분 -0.0290149 0.0702153 0.0040437994 0.008354255 0.0010668251 -0.05903029 0.012589048 0.044096835 -0.01802567 0.042084385 -0.026696954 -0.025068153 0.073668405 0.02450087 -0.05353486 -0.0021232455
그렇 0.0021966244 -0.017171847 0.04954151 -0.044248026 -0.01740027 -0.044986196 -0.06077638 0.035933383 0.07640312 -0.043553974 0.0048958934 -0.008396557 0.11675668 -0.07841693 -0.0017920502 -0.06416781
개봉 0.025175702 -0.01646259 0.016835004 0.040022172 -0.032683898 0.03973115 -0.061298516 0.002721167 0.04393475 0.008509498 0.029504105 -0.08120228 -0.04079696 -0.02523568 0.024572264 -0.036513086
0 -0.09930541 -0.09698212 0.024210269 0.16778018 -0.093562804 0.123742454 0.075975165 0.033710375 -0.109560445 -0.086130396 0.093551055 -0.084900044 0.18104121 -0.11156003 0.07785445 -0.13832757
OO -0.05490687 -0.08274364 0.03501257 -0.10492265 -0.10853566 -0.0025033932 -0.029056337 0.063590564 -0.038552266 -0.06695777 -0.014204563 0.04296277 0.057759546 -0.01367437 0.06529459 -0.08556355
대단 0.031426415 0.09623048 -0.07197822 0.028696582 0.063296705 -0.015591936 0.0501805 -0.087837905 -0.027096193 0.07499464 -0.10461166 0.04156882 -0.09825716 0.08885376 -0.015140452 0.07278569
어디 -0.070268594 -0.014196322 0.11121613 -0.043335386 -0.061512094 -0.04351893 0.07829632 -0.0051509715 0.13225557 -0.038284235 0.036848918 0.0105894795 -0.07093678 -0.040102463 -0.042923883 0.031152893
작가 0.06670788 0.007802959 0.121549346 -0.08331564 -0.13396987 0.07852697 -0.033291675 0.048858877 0.06889295 -0.066775024 -0.0014080952 -0.062448125 -0.050341595 -0.07571744 0.10231666 0.0042131348
된다 0.07599043 0.064459555 -0.075898066 0.043039028 0.033116505 0.016217355 0.09572965 -0.035999257 0.13405082 0.04996148 -0.06314182 0.053156093 0.0673378 -0.032371815 -0.0041010566 0.027681705
아쉽 0.11247304 0.0201292 -0.013417723 0.04641458 0.050578345 -0.12467848 0.01928994 0.0036038803 0.12150938 0.1322081 -0.025621392 0.025364699 -0.0009481132 0.054260466 0.008155197 0.01200027
기분 0.084906586 0.0144087635 -0.041227695 0.0031139106 0.037228916 0.04226834 0.0070560263 -0.029266512 0.042560447 -0.015177307 0.043977235 -0.008965999 0.08789283 -0.022978615 0.008520863 -0.056337774
제 -0.029172534 -0.007422397 -0.055573996 -0.082895994 0.0003038908 0.018628024 0.0047776084 -0.01024423 -0.09191606 0.056340005 -0.027449675 -0.034125816 0.049702376 -0.018230416 -0.016580548 -0.0020988588
진심 0.07519686 0.037760533 0.020931406 -0.10961555 0.0075250645 0.05182461 -0.03392916 0.03102065 -0.030668609 -0.020331448 0.06830659 0.06433753 -0.04924567 -0.007265407 0.09581919 -0.0100703025
타임 0.025084704 0.0201693 -0.0049564126 0.07072686 -0.0018260722 -0.04334825 0.066007465 -0.019354422 0.0061084763 -0.01223812 0.0009105829 -0.042970467 -0.03940484 -0.06601117 -0.036566015 0.017388374
/ -0.017504413 0.0076008644 -0.044854276 -0.05061384 0.0049454053 -0.04778375 -0.04651665 0.021617595 -0.060183648 0.033973113 -0.033219736 0.004685919 -0.14423633 0.0118028475 0.03578941 0.008433458
웃기 0.02912837 -0.010630017 -0.035702795 0.10110425 -0.016735163 0.024439747 -0.053311102 0.033740878 -0.011604455 -0.008447179 0.0066570626 0.11006325 -0.03475229 0.0072856303 -0.020695886 0.040771898
보이 0.06940286 -0.0015060654 0.014023315 0.017654587 0.010638577 -0.020668596 -0.02462798 0.09285582 -0.07211105 0.08269645 0.06870089 -0.06677225 -0.02384472 -0.11415431 0.072961226 0.032697003
놓 -0.046971984 0.0043226094 0.02067778 -0.039134677 0.036127783 0.04429769 -0.008549959 0.024800546 -0.011049047 -0.048880327 0.013716843 0.054306805 -0.047240153 -0.06152907 0.017733201 0.03591182
해도 0.056573905 0.043477375 0.0054766443 -0.04959073 -0.058627587 -0.0420537 -0.064560145 0.055641085 -0.10244845 -0.04079509 0.0043621045 0.098343626 0.07783907 -0.0691696 0.0818588 0.011727285
이제 -0.08702018 -0.035933886 0.025772292 0.016243441 0.015262994 0.06093003 0.05906118 -0.002673049 0.0034515841 -0.01565244 0.021479825 0.07570064 -0.18374158 -0.10071987 -0.005299211 0.027428199
물 -0.043912955 -0.07044231 0.01222849 0.009819178 -0.036821038 -0.015258206 0.08599015 0.029542759 0.03491109 0.009839208 0.01869296 -0.01744135 -0.0011776907 -0.022507602 0.026981913 -0.020431815
봐야 0.045216963 0.06793412 -0.11668688 -0.0037135598 0.07835151 -0.08913392 0.0742633 -0.05307895 0.10940905 0.14934474 -0.065815724 0.09920617 -0.11656057 0.07730962 -0.12487527 0.06660251
막장 -0.035107385 -0.1376116 0.12108729 -0.041154835 0.0011437362 0.03647411 0.026909556 0.062915325 0.1633899 -0.06282857 0.04330115 -0.10244755 0.015596046 -0.030983463 0.09678834 -0.056721043
삶 0.05704432 0.12834653 -0.096881986 0.024326397 0.050789677 -0.097504295 0.07012185 -0.07935999 0.033629276 0.042012 -0.12072141 0.11521228 -0.08652702 0.056218393 -0.026970703 0.040996116
친구 0.07104602 0.07873804 0.0045701116 -0.01647252 0.020402366 -0.013474734 -0.03201508 0.003705425 0.030336116 0.02271077 0.037508722 0.006670746 0.038936537 -0.03090325 -0.05710253 0.009297909
잔잔 0.035747778 0.07004128 -0.0963369 -0.08978325 0.10702778 -0.12161781 0.102393575 -0.047290754 0.026777511 0.060016923 -0.13742988 0.09248566 -0.113290414 0.08972458 0.02357602 0.034609955
조금 -0.019464787 0.045483142 0.013876742 -0.0514323 0.06515441 0.0059900386 0.024674388 -0.06544782 0.057737745 0.004489739 -0.09587117 -0.045745913 -0.0008242683 0.022397319 -0.08810342 0.046075262
씬 0.041616824 0.0034022592 -0.0393603 -0.07548542 0.034377284 0.027456334 -0.007935701 0.0447275 -0.046169557 -0.04543661 -0.037649848 -0.028942896 0.008324317 -0.0016397148 0.078954026 0.07852713
딱 -0.062160805 0.00907475 -0.010950913 -0.136932 -0.042568017 0.048480213 -0.035081286 0.016126662 0.007045067 -0.02441001 0.12366432 -0.09982609 0.00013073385 -0.10096 0.04415618 -0.12422893
영상 0.021342468 -0.021983782 -0.02251085 -0.009173244 -0.012459184 -0.068861455 -0.04517935 -0.005199697 -0.077823825 0.022707667 -0.03385413 -0.021287605 -0.10195921 -0.011173385 0.038782604 -0.046197295
억지 -0.009864048 -0.13139252 -0.019857712 0.006236298 -0.101188526 0.058562025 0.027950818 0.101758204 0.093842275 -0.12105962 0.047823075 -0.06399592 -0.055589516 -0.082478546 0.028176567 0.03793008
찾 -0.018449798 0.014639701 0.007062967 -0.0048183966 0.021165444 0.06723896 -0.024348246 -0.033789936 0.07608135 -0.009297779 -0.06263618 0.0005974317 -0.008543076 -0.0016961811 -0.011253438 0.047451086
요즘 0.008050999 0.042022344 -0.030729124 -0.034561813 0.062911294 -0.033067845 0.10045906 -0.087559685 0.061432604 0.054447558 -0.055564575 -0.025763595 0.036105905 0.13299851 -0.12856208 0.098945834
같이 0.05822831 0.03316276 -0.072443664 -0.029408503 0.014494771 -0.022391584 -0.0562127 0.011950969 -0.121032044 0.054479722 0.025261192 0.029748807 -0.06651283 0.043391388 0.0517165 0.036075167
중간 0.008877657 -0.015274554 0.056642354 0.03661104 0.026043016 -0.007935671 0.032168727 0.047402367 0.0065178894 -0.016944516 0.018372048 -0.013583664 0.033152882 -0.009260525 0.009629404 0.049869373
" 0.008932216 0.020850437 0.03777518 -0.01064335 -0.019425374 -0.090892866 -0.013441199 0.006432034 0.0005894811 -0.042003777 -0.00982619 -0.029237293 0.032927748 0.045429327 -0.022977449 0.0011488143
구 -0.05480123 0.0087517155 -0.0693685 0.019870007 0.00015001096 0.03331661 -0.0024532212 -0.01051762 -0.044585694 0.03753101 -0.004139018 -0.03239066 -0.034598626 0.033817843 -0.035687458 0.039324816
라도 -0.09683591 -0.0020687021 0.04659617 -0.115086436 -0.051104628 0.032810125 -0.014046012 0.08167727 -0.07933451 -0.061922546 0.07095949 0.061311133 -0.07131467 0.0036257422 -0.05579051 -0.07342929
스릴러 0.0061478224 0.03268112 -0.018687764 -0.03659166 -0.02914837 0.063048966 -0.022381756 0.006161003 0.1158094 7.9846155e-05 0.027777907 0.019254439 0.021552645 -0.00059160386 0.008618739 -0.017205952
가지 0.02753401 -0.0049797227 0.047159743 -0.09774718 -0.06703292 0.019367471 -0.07828914 -0.03088911 0.08294454 -0.056933906 0.005921547 0.044388693 -0.018744746 -0.006178891 0.033952933 -0.080211915
8 0.008929433 0.01918187 -0.07428097 0.03471149 0.016290683 0.0153460475 0.017547844 -0.0046968227 0.07801586 0.058643956 -0.079961605 0.006696117 -0.05616434 0.06164998 -0.06663423 0.11049131
믿 -0.024021775 -0.024683861 -0.029790187 0.020468203 0.05056113 -0.041843716 0.012260831 -0.027634125 -0.08724008 0.04264758 0.015565479 -0.0057196287 -0.021811865 0.059912045 -0.15231188 -0.024324099
싫 -0.1054403 -0.012436641 0.023800392 0.1175374 -0.059243098 0.11236458 -0.0085607935 -0.013550014 0.00201555 -0.0010276323 0.00063661044 -0.0471616 -0.028250346 -0.09402884 0.083166495 0.05072052
.... 0.008747649 -0.061405595 0.030227358 -0.047487207 -0.03240776 0.005482284 -0.00843807 0.008816911 -0.0073239133 -0.059962526 0.015231013 0.046494413 0.0245489 -0.017623378 0.016964503 -0.07593139
나왔 0.0051540053 0.057514466 0.0604924 -0.04789562 -0.017332008 -0.013555941 0.007246403 -0.008206318 -0.0349268 -0.008994168 0.06876878 -0.018838841 -0.07334734 -0.012978167 -0.028805096 -0.05438615
아까운 -0.034143906 -0.13553071 0.0144799715 0.05039829 -0.10919583 0.01685254 -0.057192903 0.03676925 0.051085398 -0.08779637 0.06284749 0.061846115 -0.038830467 -0.08895075 0.06316565 -0.1089745
긴장감 0.016001232 0.042202797 -0.116877005 -0.110537015 0.004297693 0.007921043 0.085353695 -0.05214266 -0.012093707 0.018199006 0.027136706 0.03197827 0.07245895 0.014538153 0.0034641675 -0.049037974
점수 0.011678302 -0.0886966 0.03187986 0.14175332 -0.046916865 0.07404219 0.14235306 -0.010675907 0.020162432 -0.000746756 -0.044420842 -0.04562566 -0.012618044 -0.09156436 -0.00046079283 0.017625052
개인 -0.059450105 -0.010024195 -0.05230576 -0.07727922 -0.00047044008 -0.015178333 0.03874128 -0.060985766 0.009185626 -0.009370746 -0.027661562 -0.0121542765 -0.016092941 0.056333475 -0.0370764 -0.004775403
제대로 0.061682995 -0.020912828 -0.033055536 -0.13211443 -0.004411558 -0.04464529 -0.06520337 -0.020983396 0.0069838474 0.04491877 -0.030969063 0.035256602 -0.018647674 -0.01909098 0.028555712 0.04063725
부족 -0.09304082 -0.0767504 -0.035382684 0.07073497 -0.07858457 0.016600689 0.14837581 0.10357559 0.021091102 -0.07599758 0.022193655 -0.059191525 -0.043010373 -0.098402806 -0.032804288 0.040158205
이유 -0.061397344 -0.05635301 0.040597536 0.010431246 -0.048744697 -0.02144965 0.06987143 0.037696984 0.0021155241 -0.054852303 -0.042083964 -0.0668835 0.012465329 0.018458897 -0.03502409 0.009369272
노래 0.05774329 -0.0022944466 -0.005650482 0.015687833 0.030670686 -0.04150693 0.0011676757 -0.028917035 0.035866693 0.10692913 -0.019348208 -9.994476e-05 0.009652094 0.062032666 -0.018379815 0.06265015
만큼 0.04306147 0.060120184 -0.04815534 -0.116206504 0.068270676 0.01823198 0.012267418 -0.04917373 -0.04057247 0.06933699 -0.06213985 0.01829282 -0.034839235 0.047919188 0.02562247 -0.029192742
라면 0.09235395 0.014878275 -0.05090949 -0.0010098242 0.022048004 -0.027490666 -0.041614983 -0.021287259 0.03864608 -0.013014616 -0.025095059 0.03246441 0.028349377 0.0034652168 -0.025960894 -0.0147702405
시작 -0.01795992 0.0042435625 0.021166306 0.045400947 0.027754357 0.023216387 0.057143155 -0.035889607 0.1186263 -0.027297705 0.014516016 -0.064498015 0.011458218 0.013236174 0.047246244 -0.0022906845
구나 0.07269793 0.029520577 0.04815092 0.019777855 -0.02827563 0.019694459 -0.0703075 -0.06764035 -0.01012413 0.036239754 0.012624303 -0.050125953 0.069472484 -0.012095293 0.0043380535 0.014246744
잇 -0.018287534 0.042022612 -0.05308509 -0.09578267 -0.0055747973 -0.004072007 0.07156845 -0.07213095 -0.022487305 0.108715236 -0.08716092 0.09387594 -0.07470188 0.040581822 -0.04626747 0.01882811
특히 0.08172442 0.035101805 -0.025113337 0.102709815 0.08164286 -0.014066538 -0.014889895 -0.12008241 0.02032214 0.097807415 -0.03568717 0.11537606 -0.054175504 0.025165394 -0.038659804 0.018351479
한테 0.026250849 -0.010126987 0.045411512 -0.053213235 -0.022525668 -0.07193313 0.004545297 -0.021067383 0.051322535 -0.017069977 0.044748954 0.023821598 -0.048728697 -0.036835823 0.015945438 -0.015518785
날 -0.07670739 -0.06545649 -0.040943354 -0.027112175 -0.009292915 -0.034497805 0.039854027 -0.08974885 -0.009679778 0.0154119115 -0.057193052 -0.0050911186 -0.06519568 0.04634703 -0.040051613 -0.04823497
려고 -0.09581405 -0.10267423 0.06498735 7.890312e-05 0.012875731 -0.05032624 0.07037401 0.025121512 -0.033826593 -0.05245274 0.031794425 0.028446555 -0.00058336783 -0.091327414 -0.0043983483 -0.072684415
제일 0.13503297 0.016522212 -0.07231722 0.0067877555 0.015575128 0.032168202 -0.04871823 0.0140318675 -0.1369159 0.05114061 -0.0841311 0.0074756625 0.065500185 0.01575942 0.078269824 -0.049550656
아름다운 0.05459556 0.058376923 -0.10898008 -0.0118971085 0.06672951 -0.09080659 0.06449107 -0.13267665 -0.009301869 0.11014597 -0.102258995 0.0971396 -0.05863466 0.07384433 -0.051405467 0.054877274
시대 0.1021807 0.045324955 -0.069584526 -0.08915935 -0.013309836 0.022779807 0.09463556 -0.06419444 0.04776886 0.008060634 -0.053021807 0.034232322 -0.052829087 0.061708786 0.03372985 0.0014691752
ㅜㅜ 0.058202893 0.039828137 0.01494701 -0.015201133 0.040804245 0.015512847 -0.017010275 -0.012030533 -0.013905671 -0.010109211 -0.018412335 -0.0018872588 -0.0018058965 0.041214693 0.06261857 -0.005837404
어떻게 -0.041088592 -0.03973592 0.06341944 0.021572115 -0.0033386962 0.05007791 -0.015526705 -0.08641414 -0.010467766 0.009778425 0.017442591 0.058275487 0.00685253 -0.018471895 -0.008864676 0.039230008
엔딩 0.0046132244 0.032035902 0.047388833 0.11749957 0.033099446 -0.006007387 0.0044007385 -0.02140945 0.07044437 0.021290015 0.01415006 -0.002313562 -0.008070995 0.06674148 -0.03661604 0.0048208735
당시 0.07081672 0.04871059 -0.06887006 0.02171281 -0.04326219 -0.0504169 0.06288876 -0.024854189 -0.10460331 0.010008192 0.027197445 0.033655934 0.04900698 0.03537312 -0.01385411 -0.007819612
하지만 -0.13176611 -0.023323523 0.059779353 -0.09283234 -0.019092714 -0.025048822 -0.02927664 0.086831786 0.018846452 -0.025158515 -0.015405901 0.021663656 -0.046218198 0.024492897 -0.010909147 0.012411158
나름 0.045546837 0.01405767 0.006375641 0.030167593 0.06110006 -0.07456186 -0.0690927 0.053478047 0.010957402 0.046721168 -0.009959509 0.10298355 -0.021538764 0.05457958 -0.05306111 0.037170134
봐 -0.040360946 0.03343861 0.03823802 -0.056325838 0.0076283175 -0.021848632 -0.03947778 -0.09328271 -0.118610874 -0.029511847 0.038511127 -0.062126923 0.04445326 -0.004062335 0.020730063 0.012141296
무섭 -0.08860715 0.016608007 -0.04628694 0.08859983 -0.012536021 -0.050921854 -0.03267025 0.05078089 0.041743904 -0.04859074 -0.017556543 0.08970449 -0.13993919 -0.10853383 -0.02756835 -0.014218155
나온 0.08708318 -0.005484431 0.017698204 -0.017766928 -0.03603934 0.008833871 0.073176295 -0.019705618 0.10303128 -0.0009820047 -0.05237085 -0.010617903 0.042642873 -0.0020586732 0.023117092 -0.010220584
명 -0.060865037 -0.02955216 0.015359097 -0.01824377 0.019449411 -0.046416394 -0.06296308 0.06409774 -0.052697193 0.051903345 0.03065795 -0.02163991 -0.06150886 0.026918659 -0.016908854 -0.05501807
사 -0.028138611 -0.019803986 -0.026935678 0.06906823 0.014453327 -0.02940472 0.01258429 -0.027058734 -0.046305392 0.05921108 -0.019471364 -0.03283015 0.05835545 0.07073849 0.028323252 -0.048251398
니까 0.043496072 0.069939755 -0.014443712 -0.11895875 -0.007742421 0.03646997 0.05421982 0.037367903 0.059846062 0.011335724 -0.045403082 -0.030501764 0.07214868 -0.015363194 0.082059264 0.0130328005
오랜만 0.046597607 0.040238958 -0.111581884 0.034340844 0.04073246 -0.0398896 0.105725445 -0.12195993 0.02034363 0.07978521 -0.04813051 0.04785069 -0.07177687 0.03634429 0.03480805 0.01699413
이것 0.086464785 0.023159385 0.04872841 -0.069295935 -0.093431436 0.0009095414 -0.096757896 -0.008289741 0.022090053 0.0024293985 0.048980035 -0.056990396 -0.07264092 -0.07521327 0.004354374 -0.046310853
해요 -0.026828416 0.02488628 0.012102121 0.09240647 0.014657037 -0.08273814 0.014416159 -0.0450379 0.033473283 0.0037251215 -0.038110875 0.07407421 0.03936693 0.012014173 0.0038737133 0.029737808
9 0.0008095732 0.047251415 -0.0884365 0.011380014 0.056775004 -0.018892668 -0.02135041 0.001299063 0.08669422 0.05323795 -0.023277229 0.07241549 -0.09398963 0.057237 -0.08044475 0.07202344
팬 -0.008224546 -0.019814197 0.030884037 -0.08738201 -0.05769782 0.01698132 -0.0052356357 0.008170108 -0.02812575 -0.0068229227 -0.022084352 0.0420391 -0.037094396 -0.042223718 0.011304361 -0.025500381
차라리 -0.08762177 -0.121286094 0.14781688 -0.106158435 -0.1844019 0.16197531 -0.12145737 -0.0009940419 -0.15448835 -0.105657175 0.15787664 -0.14231783 0.058987495 -0.07392114 0.045825068 -0.1872932
절대 -0.024052687 -0.028952552 -0.026566438 0.033236757 -0.010237679 0.038599245 0.01700286 0.003324514 0.03755315 -0.08362612 0.004021165 -0.048919197 -0.1209849 -0.061929047 0.03742476 -0.014687817
세상 0.026755488 0.048887804 -0.07288636 -0.011578991 0.006384745 0.012130198 -0.023487406 -0.024662899 0.064673044 0.0733362 -0.017707447 -0.055966645 0.02307139 0.06441569 -0.051849317 0.02900834
세 0.0064342087 0.0049359296 0.002549999 0.021161968 -0.046540894 -0.04001705 0.062055692 0.021653611 -0.10556939 -0.02700276 -0.024281025 -0.015804015 0.09088145 0.017481588 0.06397623 -0.032877393
못하 0.06643664 0.0187276 -0.032416977 0.020262666 -0.05021819 0.039450925 -0.05180579 0.0083835805 0.0050437017 -0.01761695 -0.014112342 -0.039064653 0.1076227 -0.019454675 0.033161 0.03257671
의미 -0.011487279 -0.005922283 -0.046600524 -0.08589388 -0.054504476 -0.06825359 0.05504097 0.010231598 -0.04746329 0.04992436 -0.045841087 -0.059617985 -0.016978357 0.029923331 0.026506638 -0.047219165
던데 0.075548805 0.08682316 -0.011670063 0.026933627 0.053118795 0.07102325 0.03652765 -0.0432673 0.11099279 0.050056018 -0.0155989 -0.0059679304 0.09165429 0.050298985 0.032072272 0.10871956
봄 0.13236524 0.036818407 -0.022921225 0.01018737 0.03711655 -0.066895075 0.008765055 -0.06354066 -0.03988327 0.031767637 -0.08402625 0.0061883456 0.10041716 0.03117188 -0.01679658 -0.021985965
욕 -0.00034878953 -0.016221095 -0.012227278 -0.022734279 -0.12774283 0.04416082 -0.042781107 0.042189058 0.012508831 -0.026022283 0.10299334 -0.07778787 0.046237472 -0.12557958 0.10753252 0.10026297
훌륭 0.06947446 0.06307866 -0.121121526 -0.014439858 0.07156584 -0.034000568 0.088790245 -0.09542716 0.079206735 0.060338967 -0.08607662 0.08095866 -0.043321867 0.11220324 0.018168095 0.08437113
너무나 0.11235134 0.0578393 -0.09014378 0.031650897 0.033785548 -0.05542888 -0.03950803 -0.009009936 0.042502787 0.060214162 -0.019819183 0.017188884 0.115230195 0.00030940276 0.056860223 -0.049146112
강추 0.16602486 0.08445803 -0.08224434 0.04039066 0.11823729 -0.0013310193 0.11504229 -0.12858841 -0.04602044 0.0851217 -0.13941042 0.07573653 0.03638053 0.102600425 -0.07260777 0.083700314
감 0.035257053 0.0069467975 -0.10482405 -0.025041481 -0.0076636896 -0.034723215 -0.06871287 -0.0039166347 0.0032099336 -0.00041047225 0.0011742206 0.019148897 0.029739933 0.06405883 0.086154416 0.016540976
됨 0.075594544 0.06569445 0.018816585 0.080616504 0.03300474 0.033959616 0.039311737 -0.013196492 -0.0661232 0.09097766 -0.05033202 -0.024158193 -0.02031285 -0.06117913 0.067896955 0.0032803402
ㅡ -0.07489643 0.023838418 0.012369044 -0.0076322756 -0.040883616 0.009584373 -0.010313248 0.035656568 -0.07610512 0.003872247 0.07367481 -0.07469186 0.08727293 -0.07583084 0.020097606 -0.002965632
따뜻 0.079960585 0.081296474 -0.065770015 0.06182258 0.10858249 -0.08814449 0.03175042 -0.07643953 0.029503023 0.08897889 -0.14774814 0.1560255 -0.12762456 0.06533744 -0.04003911 0.072258525
빼 0.052622147 -0.049405884 0.048043218 0.032322306 -0.08227935 0.11269942 0.03586051 -0.0039716363 0.019046618 -0.09041374 0.053392567 -0.08235166 -0.044153076 -0.09185181 0.085060544 -0.047088627
느끼 0.030509453 -0.0038470412 -0.05402416 -0.024836563 0.01737115 0.035945695 -0.002189128 -0.06287272 -0.025176946 0.013245412 -0.00042532067 0.035870723 -0.10011889 0.050327204 -0.07025383 -0.007242184
해야 -0.036171786 0.012183489 0.061905663 0.017750595 0.03693627 0.014234523 0.0724691 -0.001183294 0.0077675907 0.033985347 -0.051534936 -0.030722668 0.06507551 -0.0009236207 -0.028820973 -0.0045762593
드 -0.0018880002 0.0043368884 0.07920509 -0.030012073 0.05085382 -0.0059536225 0.021639753 -0.017454324 -0.036092144 0.024503563 0.06059469 0.028799405 0.00952383 0.022042722 -0.01578169 -0.024605285
도대체 0.030253157 -0.064212255 -0.012613246 0.06854893 -0.045427676 0.07503402 -0.06100762 0.05835061 0.047668226 -0.03184199 0.11947662 -0.056022838 0.023754975 -0.1111253 0.061041925 -0.04650908
어야 0.060013004 -0.064813584 0.013888406 0.005604145 -0.08224588 0.046124745 -0.108196765 0.045574326 -0.07749561 0.039489333 0.013446265 -0.09314237 0.013781664 0.0035218424 0.08884775 -0.053028677
답답 -0.12286467 -0.010151965 0.07327909 0.017340565 -0.12539332 -0.082359985 0.05415998 0.07582222 -0.0748669 -0.075003795 0.084522076 -0.05229241 0.018249191 -0.14767522 0.027424287 -0.045563046
마다 0.07089608 -0.0035155145 -0.057603586 0.0052884715 0.031587407 -0.023691965 -0.07865649 0.012695759 -0.047439333 0.03890938 0.02898948 0.030293437 0.08217015 -0.03261671 0.011617358 0.0043228446
준다 -0.00048560373 0.0043479907 0.026369333 0.062102046 -0.055262942 0.040021054 0.035057824 0.020556666 0.12278738 -0.044998143 -0.02479525 0.04285956 -0.0056551658 -0.020306733 0.016306406 0.06686015
글 0.06847931 -0.032155853 -0.0067498693 0.08717693 -0.07192707 -0.04303098 -0.06286969 0.038686525 0.030751629 0.014147798 0.002303975 -0.0030944115 0.052035064 -0.03914918 -0.036248468 0.006383509
전쟁 -0.013947083 0.0021763607 -0.07571307 0.0027966318 0.00065790577 -0.076582246 0.010243606 -0.020154737 -0.0059350496 0.056597598 -0.031714775 -0.05680613 -0.024341753 0.04766186 0.008580947 -0.032117918
놈 0.010932285 -0.042675782 -0.03686404 0.0006062563 -0.036741216 0.09614403 -0.07346316 0.019807398 -0.035524227 -0.017136412 -0.043295383 -0.025837347 0.093823925 -0.03243776 0.06150445 0.054960657
설정 -0.05571004 -0.026341047 0.13450088 0.009824667 -0.056526404 -0.00088922016 -0.10167336 0.111332044 -0.11206771 -0.09581594 0.028832924 -0.078078434 0.0677213 -0.087983094 0.14451273 -0.042650644
무엇 -0.007131243 -0.029267458 0.019870657 0.031533975 0.03779281 -0.009926647 0.09434395 -0.0021020873 0.11460281 0.0032813803 -0.066386014 -0.009917034 -0.12932411 0.053715777 -0.082476966 0.10041963
수작 0.108065814 0.17982714 -0.17977937 0.07775028 0.11445525 -0.07484691 0.08675108 -0.15011549 0.0686061 0.15838505 -0.16637215 0.13862346 0.00316587 0.15765488 -0.12751722 0.13147807
만화 -0.06825548 -0.0006084939 0.009532305 -0.036184102 -0.011810325 -0.012076615 -0.026873136 0.039279692 0.03230021 -0.03411519 0.010367676 0.0024281077 0.01013827 -0.039722726 0.030963756 0.007420855
흥미 0.025894832 -0.03579432 -0.0312743 0.045242693 -0.025558865 -0.030085087 0.001433489 0.028536228 0.07881464 0.030264882 0.0504053 0.01533084 -0.006040675 -0.06408412 0.039437838 -0.052469447
그저 -0.061196614 -3.1799646e-05 0.034008715 0.05843601 -0.07822429 0.03966105 0.119500965 -0.021582011 0.09739238 -0.080935 0.01501031 0.030174086 -0.07391855 -0.07492308 -0.073473796 -0.008198724
감정 -0.025412709 -0.031897016 -0.023725538 -0.033118196 0.005647665 -0.026712941 0.002589574 -0.049444854 -0.04599448 0.03387095 -0.028222797 -0.040044192 0.01282148 0.0737464 -0.02200149 0.009247001
미국 -0.029502453 -0.0364644 0.042181652 0.03188845 0.009942743 0.045586493 0.05535946 -0.08323062 -0.034562007 0.074015945 -0.04192969 -0.106878474 -0.04195493 0.020338604 -0.036922205 0.021155639
신선 0.004042284 0.0874813 -0.0187978 -0.023593597 0.091662996 -0.074684605 0.039698437 -0.07931503 0.050574537 0.06320924 -0.008583072 0.053460345 -0.14764646 0.03818377 -0.061259754 0.021491982
행복 0.14683582 0.08555057 -0.09627023 0.018431807 0.12885717 -0.11172366 0.09615319 -0.09679562 0.033213187 0.1448687 -0.108009316 0.0698386 -0.09317049 0.10821534 -0.12468109 0.062805325
뻔 0.008005671 -0.020432785 -0.03247111 -0.0006679371 0.003697743 -0.0026587287 -0.013093687 0.08476917 0.11510862 -0.009998044 -0.025885442 -0.05665543 -0.054357547 -0.08033778 0.09567914 -0.025791835
형 0.013775257 -0.012969336 -0.041367777 -0.031237714 -0.02815672 -0.14278615 0.05193032 -0.005812981 0.0002190947 -0.027132034 -0.037658986 0.033776935 -0.013098593 0.028569281 -0.038907047 0.007348664
앞 0.04038428 0.00029808815 -0.0050823484 -0.040106118 0.05488747 0.01616581 -0.039596345 0.040272288 -0.1353019 0.0037387228 -0.019890515 -0.019532269 -0.02583908 0.08422968 -0.038045265 -0.060977247
허접 -0.108687066 -0.15608934 0.13295905 0.12753767 -0.114193946 0.028046027 0.012043657 0.07471192 -0.03232857 -0.15062508 0.13126458 -0.04093505 0.0125462655 -0.09627437 0.047270875 -0.11870415
어도 -0.013494239 0.038249616 -0.10585552 0.030644001 -0.024889393 -0.0032441816 -0.0019227422 -0.01838684 2.7422371e-05 0.06302389 -0.0036865366 -0.06553345 -0.0001404265 0.027339993 -0.05987804 -0.020961473
군 0.04230574 -0.011681146 0.016421529 -0.06548081 -0.012855236 0.078555144 -0.06357123 0.032675512 0.05395055 -0.013492674 -0.042913627 0.043950047 -0.10261094 -0.06768479 0.025074307 -0.0037690266
시절 -0.01441804 0.036604628 -0.012173412 0.00870503 0.015903592 -0.06570546 0.04351075 -0.03491353 -0.006143998 0.11817393 -0.09853481 -0.032268208 -0.044400595 0.11292185 0.035591114 0.053984214
관객 -0.02862702 -0.074714385 0.09677286 0.086082876 -0.11465003 0.039070405 0.059380442 0.007753627 0.030979272 -0.03306079 0.11439476 -0.045670044 -0.021395193 -0.019988803 -0.0084344065 -0.07340315
배경 -0.013333011 0.04446444 -0.027514495 0.048813723 0.030837923 0.023795187 -0.0493374 -0.02700216 0.0620338 -0.004963614 -0.014730738 0.013707393 -0.03560756 -0.0032227589 0.0038878294 -0.0008785982
6 -0.04125395 0.03456622 -0.023259984 0.08315658 0.03908221 -0.056885548 -0.02706875 0.03501074 0.051208034 -0.0017443917 -0.037927154 0.0048197126 -0.054733004 0.011236289 -0.05608795 0.022587718
초반 -0.15509543 -0.038171895 0.025153903 0.0402373 -0.022165895 0.03736763 0.06910954 0.077311926 0.0631839 -0.112976156 0.025299879 -0.037050597 -0.00955352 -0.019722663 0.021718504 0.097289436
사실 0.08554533 0.035723746 0.0038781432 -0.04719429 0.04010342 0.012621335 0.037813462 -0.065966904 0.03975708 0.116002016 -0.11394725 -0.021043126 0.07629893 0.05514018 0.03427216 0.040324766
웃음 -0.00046045045 0.009147045 -0.009306721 -0.03960707 -0.031093702 0.02338122 0.030782957 -0.023882827 0.009079713 0.019712472 0.033007853 -0.012349152 -0.037305117 0.025076693 0.08113591 -0.052264675
답 -0.059189983 -0.007038755 -0.012766703 -0.01348171 0.0067979237 0.026658896 0.058574516 0.06341907 0.015150807 -0.070644334 0.031682625 -0.012212149 0.019377794 -0.11177269 0.0322946 -0.020877412
엄청 0.10418093 0.097665474 -0.10013441 0.055992603 -0.016248284 -0.13342208 -0.017798938 -0.021786422 0.004952357 0.025237279 -0.060617015 0.12949707 0.0061820066 0.034842316 0.06867657 -0.03252193
더라 -0.017347615 0.032585964 -0.012709918 -0.03854307 0.020713134 -0.014729931 0.028154284 -0.04311051 0.03346151 -0.029388782 -0.06455333 -0.01248263 0.06162752 0.029944465 0.059606902 0.039960276
라니 0.07616373 0.027103242 -0.08293155 -0.055653095 -0.0147387 -0.03549952 -0.013179058 -0.047118496 0.097746834 -0.0051790318 -0.044340536 -0.013272479 0.038217377 -0.015670385 0.0076930253 0.029320626
질 -0.05829858 -0.027765205 0.002356075 0.00785614 -0.030645192 0.08911352 -0.016169613 -0.030591844 0.08806242 -0.06150548 0.10196098 0.07696309 -0.006570733 -0.07477194 0.055036157 -0.06281665
자신 0.0035192734 -0.006118096 0.02789273 0.016800152 -0.008161552 -0.120626375 0.0069850786 0.05273961 -0.046030104 0.020323372 0.00058032194 -0.01901181 -0.011688585 0.046509724 -0.101411894 0.029791534
추억 0.074167304 0.018937966 0.026766796 0.040231463 0.00071985356 -0.00096025155 0.045945484 -0.033438172 -0.051417377 0.111696176 -0.09528834 0.02733354 -0.09125588 0.04406083 -0.012281844 -0.015859444
캐스팅 -0.07607748 -0.0033640482 0.040944014 0.03535423 -0.066870354 0.031798746 -0.007851695 0.03907419 0.06946441 -0.07213035 0.016390944 -0.1210034 0.034358572 -0.04180609 -0.01595144 0.002802055
첨 0.014146223 -0.03491274 0.017283265 0.07326768 0.031403143 -0.047286864 -0.008359082 -0.040256985 0.0780546 -0.08371303 0.059679307 -0.059961498 0.10051018 -0.032815002 -0.06167356 0.020378105
멋있 0.099578656 0.08731356 -0.058414686 0.09889257 0.14574397 -0.0715311 0.016273405 -0.09478661 0.06352511 0.09572725 -0.029662393 0.16110915 -0.010408594 0.062042378 0.013038048 -0.008759308
류 0.057796676 0.02264694 0.03835041 0.0642095 0.022454992 -0.06959155 -0.03615679 -0.055100463 -0.15439571 -0.03780448 -0.008641951 -0.086201645 -0.123919465 -0.03692367 0.059014164 -0.14998366
어색 -0.10396294 -0.070730664 0.04956369 0.008422371 -0.12870893 0.019091917 -0.04536546 0.15624896 0.05182103 -0.10555275 0.088104434 -0.035771992 0.052629996 -0.13327025 0.09064342 -0.027751837
시나리오 0.0063882875 -0.03531742 -0.074010864 0.07342121 -0.046778847 0.073053055 -0.07234877 -0.0070155044 0.07187093 -0.08166395 0.017881127 0.055414073 0.04624219 -0.050686747 0.072057806 0.010950972
머 -0.0964803 0.0031107366 0.0060878578 0.018432517 -0.030399838 0.03971383 0.0009639648 0.08803035 0.10760384 -0.04694297 -0.004396487 -0.005209978 -0.019387398 -0.087897204 0.082901366 -0.007803375
밖에 -0.013242717 0.039883766 -0.030008715 0.01578116 -0.016651561 0.07657518 -0.041387923 -0.09635986 0.10018443 0.02633011 -0.04653419 0.03582793 0.028592736 0.02797538 0.034133147 0.036733698
OOO 0.0672064 -0.10260373 -0.004355915 0.083573796 -0.024285749 0.09882236 -0.02455168 0.021657145 0.006393569 -0.01617352 0.081600286 0.034548905 0.005673361 -0.09337969 0.061246023 -0.019532584
슬프 0.13362402 0.12923838 -0.0894796 0.023975162 0.1561892 -0.12642339 0.050476998 -0.033827886 0.008947733 0.10769651 -0.050431356 0.0977338 0.015116266 0.13501291 -0.121108875 0.059625305
정신 -0.03426274 -0.060190752 0.04266203 0.02084415 -0.06767356 0.028318645 -0.028520383 0.018538358 -0.08156415 -0.04690901 0.04474138 -0.013079216 0.07520677 -0.0259907 0.0053841043 0.010067805
분위기 -0.03444157 0.03026774 -0.020654483 -0.05532815 0.031173531 0.0007693552 -2.5594283e-05 0.03673008 -0.031457145 0.024290891 -0.048376635 0.0050437534 -0.07102031 0.037457373 -0.020996748 -0.03302677
소름 0.0116894115 0.10089592 -0.11933307 -0.021570591 0.03333581 -0.18437144 0.16893542 -0.07566581 0.0006031741 0.06408208 -0.053173326 0.11849461 -0.19432211 0.0705207 -0.066582344 0.03590124
멋진 0.0043667466 0.0639833 -0.06596613 -0.019627437 0.030155743 -0.093356915 0.07312747 -0.070843406 0.08058265 0.11680758 -0.059986163 0.0048398376 -0.0108043095 0.12465227 -0.07009534 0.08689245
힘들 -0.017259214 -0.019430246 -0.051175047 0.042457156 -0.010137004 0.009280449 0.0322554 0.039828606 -0.034700595 -0.013195845 0.011033674 -0.045054976 0.03389998 -0.0073303306 0.099220976 -0.03759625
오늘 0.061726667 0.06627893 -0.059790295 0.0054364433 -0.006393034 -0.04158259 0.04363656 -0.062518775 -0.06737411 0.03893874 -0.047947556 0.048299372 -0.12446282 0.053224728 0.0025666736 0.06389173
어이없 -0.16256404 -0.026753215 0.15099715 -0.040396966 -0.15800361 -0.0018972553 0.054605745 0.09797622 -0.13492829 -0.024378696 0.14505418 -0.10891666 -0.0015971714 -0.10370983 0.047341824 -0.12388905
봐서 -0.06825539 -0.04856102 0.057189137 -0.05655664 0.06272786 -0.01589231 0.07172988 -0.0075343023 -0.056674745 0.0730561 -0.06620147 -0.0122948345 -0.040562425 0.06740612 0.00020331016 -0.020143727
잡 0.021452239 -0.07595563 0.054842737 -0.069050156 -0.0036026465 0.043831863 -0.040666215 -0.014919217 -0.007800631 -0.027506435 0.02480031 -0.043709774 -0.041679148 -0.017576255 0.08318299 0.03579149
구성 0.034269076 0.02209758 -0.015129208 -0.121789575 0.027676174 -0.029823216 -0.0075987703 -0.04785114 -0.0155572565 0.01809924 -0.029779699 0.020300532 0.009940091 0.010480238 0.0035364276 -0.019331988
엄마 0.040370796 0.047142036 -0.03963339 0.03438944 -0.015467387 -0.08405092 -0.0047032833 -0.0031569956 0.014307618 0.037471015 -0.008956961 0.03698414 0.052968647 0.004753676 -0.054182522 -0.010446524
함께 -0.016603492 0.052518565 -0.08948942 0.014260104 0.054815385 -0.028811445 0.04745931 -0.07897938 0.106847554 0.05627299 -0.043331366 0.09836333 -0.082713105 0.0041357623 0.071654014 0.059096124
문제 -0.03909396 -0.06582612 0.031199245 -0.022098223 -0.10396938 0.03659619 -0.051641732 0.10959241 -0.04766325 -0.037753277 0.03307429 -0.013977384 -0.031510647 -0.11637423 0.022572802 0.02304769
위해 0.020804044 0.00010494112 -0.051632743 0.019773314 -0.072817445 0.07744222 0.008526275 0.07363736 0.0014709146 -0.080022454 0.004277552 0.032499764 -0.009882842 -0.116306074 0.008451045 0.04925502
졸작 -0.08445195 -0.14720964 0.10839909 -0.012196201 -0.08297785 0.07996512 -0.0034864915 0.05479337 -0.04015751 -0.11066931 0.059320237 -0.10253102 0.10999922 -0.10665547 0.12745342 -0.08415648
잊 0.05956682 0.09972301 -0.05178989 0.0865971 0.11251631 -0.049092103 0.06708192 -0.09500954 0.081422105 0.1087513 -0.13634236 0.06988655 -0.017464435 0.06525083 0.021789761 0.009441217
이딴 -0.10052171 -0.15245458 0.05821082 0.10847732 -0.052466054 0.16533738 0.05308784 0.1543485 0.17823209 -0.14792341 0.1647462 -0.03285409 0.01052814 -0.14458002 0.06391883 -0.06211938
등 0.065327145 0.05287295 0.033784755 0.022622349 -0.003959458 -0.056808345 0.033541355 -0.070758924 -0.022950836 -0.027851459 0.01116629 0.044145223 0.016453162 0.0072702984 0.009798337 0.021379208
집 0.0072586993 -0.049734212 -0.06604454 -0.103004664 0.010961629 0.0009546299 0.023310516 0.018044 -0.02349853 0.03403337 -0.045201425 -0.068527885 -0.027158678 0.03140917 0.051040106 -0.0031452794
유쾌 0.07561186 0.18870187 -0.18839657 0.008643089 0.16678359 -0.108991124 0.121857524 -0.13171886 -0.00822164 0.12950239 -0.16453417 0.12840554 -0.0008129595 0.126721 -0.11121907 0.10331313
뻔한 0.015670093 -0.05266145 0.05972791 -0.030937074 -0.04609804 0.079212494 0.033236586 0.02251148 -0.05999983 -0.041752454 0.0073887394 -0.007890243 -0.046967227 -0.01820122 0.10377406 -0.043999456
킬링 0.016711613 -0.003728853 -0.08282081 -0.035925567 -0.05800452 -0.041179836 0.087459184 0.03647704 0.0016173869 0.023821674 0.032883562 -0.084750496 0.053370364 -0.07152695 0.01134273 0.03652806
스러운 -0.09880884 0.031777088 0.005924126 -0.051574804 0.025196882 -0.07789679 0.04127981 0.033938028 0.03302693 0.06635251 -0.01184925 0.024166195 -0.028540444 -0.040959906 -0.021081403 -0.051479165
결국 -0.0726102 -0.059329957 0.04522631 0.031311817 -0.008404822 0.095685124 0.0855036 -0.006652467 0.052737832 0.017588625 0.02259497 0.07344324 -0.056897786 -0.017978402 -0.05050163 -0.0062870104
낫 0.0027649917 -0.0009561379 0.06401715 0.06327067 0.0055669076 -0.11798314 0.046248928 0.06939214 -0.021958694 0.012276509 0.0055338815 0.049386013 -0.10156091 -0.0402002 -0.019360512 -0.06719034
