9996 16
. 0.012600437 -0.05586283 -0.009345706 -0.054977704 0.002736059 0.105145305 0.056235168 0.020678427 0.12753662 -0.12438034 0.022272602 0.014692978 0.09653628 -0.15125988 0.15662098 0.04921119
영화 -0.045035046 -0.09689326 -0.035423044 -0.0019395017 -0.024343252 0.06731397 0.078454055 -0.078492306 0.18525153 -0.14765397 0.028801186 0.009172148 0.101625144 -0.17931063 0.17139399 0.09178608
다 -0.025276817 -0.013349787 0.016057236 -0.056286417 0.032619067 0.043367535 0.08836425 -0.03804996 0.14821084 -0.124500036 0.025363967 0.03384421 0.1311809 -0.119809 0.09376846 0.07663254
고 0.04394967 -0.012753828 -0.0627503 -0.033023335 0.03054888 0.08735015 -0.023553511 0.034511175 0.08032386 -0.07239775 0.008516204 0.049903683 0.07671744 -0.1335858 0.12761548 0.069919206
하 0.009718104 -0.016777627 0.016606245 -0.0044894847 0.0034505944 0.038919486 -0.01427325 0.028196761 0.047990378 0.061429914 0.041690603 0.04291883 0.07501379 -0.054094885 0.034237865 0.057853546
을 0.024037285 0.0521581 -0.0123523185 0.032126408 -0.005902665 0.0066027637 0.033147212 -0.02502595 0.03012624 0.056202903 0.011715456 0.023027223 0.104704075 -0.008948017 0.04679428 0.01716271
보 0.031925853 -0.04375098 -0.04636648 -0.030215265 -0.021997875 0.048377655 0.044003043 -0.0060444344 0.07908177 -0.020874413 0.011015135 0.056235585 0.03867047 -0.035633896 -0.010698552 0.02609082
.. 0.06440505 -0.051519122 0.0069144457 -0.060596216 -0.044816285 0.009531992 0.07949718 0.05752256 0.107372016 -0.099756666 -0.037502725 0.034940306 0.031516653 -0.0073709576 0.0524349 0.080672316
게 0.03006695 -0.039536722 -0.022645585 -0.002230946 0.053869803 0.08757739 0.029325306 0.0016885994 0.1315044 -0.08767818 0.023212684 0.082982644 0.055117473 -0.16608374 0.082302146 0.06401253
, 0.008812818 -0.02489585 0.038663186 -0.014073606 -0.012688566 0.071737714 0.06317637 0.03083236 0.09630967 0.010973108 -0.0073322724 0.009953733 0.013018076 -0.06843799 0.051206525 0.01011848
! -0.14858624 -0.065092616 -0.07507416 -0.06557893 0.0022490462 0.15951689 0.07311232 0.086265944 0.15640067 -0.14542155 -0.13301018 0.08228907 0.059865102 -0.25681573 0.14584646 0.07394454
지 0.07369701 -0.03269735 0.045074936 0.0044364235 -0.018074369 -0.03499302 -0.015106991 0.014314204 -0.06949774 0.15579173 -0.020332033 -0.01570133 -0.031020982 0.12924734 -0.12351969 -0.02344675
있 -0.0041671717 0.008353591 0.003118115 0.020455712 0.053382874 -0.027813425 -0.021546856 -0.0433642 0.11059647 -0.005153379 -0.006217066 0.049572192 0.0032150652 -0.06236621 0.0675519 -0.01094148
없 -0.026239663 -0.09832647 -0.10063828 -0.04954444 -0.053833295 0.09531909 0.12891525 0.11164268 -0.0906933 0.07817984 0.112569384 -0.030261852 0.117548175 0.050910275 -0.029176164 0.037580375
? 0.040941015 -0.042164404 -0.07063531 -0.004842155 -0.08474375 0.069913894 0.010556627 0.0016295692 0.022600545 -0.007120983 -0.012511236 -0.031830788 0.0848483 0.025375422 -0.06541073 0.07230954
좋 0.06629708 -0.023241293 -0.0035031552 0.10286918 0.080040835 0.054073583 -0.14037266 -0.09777625 0.15257734 -0.235241 -0.10466387 0.09643199 -0.06535271 -0.31039056 0.16193086 -0.11797928
나 0.010951066 -0.0313063 -0.02447594 -0.016886685 -0.044218022 -0.009235446 0.023158487 -0.034468137 0.018985875 0.008835124 0.07464744 0.004958948 0.02351974 0.01623026 0.022794224 0.08435202
었 -0.014543463 -0.0049177012 0.04026445 0.014157222 0.041807957 0.09655504 -0.007991969 -0.04284475 0.0654948 -0.05113434 -0.04025417 -0.0002592646 0.045685045 -0.12628648 0.05729001 -0.018404957
만 -0.14429805 -0.06624286 -0.049308367 -0.007913856 -0.013654922 0.03230176 0.055022888 -0.013914025 -0.014688208 -0.02465631 0.055417314 -0.024042008 0.09554484 0.014662937 0.005227089 0.042431932
는데 0.1085525 -0.007753921 0.090231486 0.04083482 -0.014422793 -0.059483577 -0.057900064 0.022795018 -0.06294068 0.1350364 0.017300047 0.06475178 -0.0631087 0.19363105 -0.052061386 0.025147788
너무 0.1596223 -0.13958125 -0.0036189295 -0.14305966 0.025952347 0.21992797 0.027291229 0.056926314 0.06324659 -0.0032771742 0.10442124 0.12934944 0.020295307 -0.17932542 0.15575702 0.060306724
봤 0.0061779926 -0.028547585 0.05679771 0.018832464 0.008701705 0.056849137 -0.01757366 0.0037979141 0.073969804 -0.051894657 -0.0023959246 0.09188797 0.03020097 -0.14169191 0.10828727 0.008857531
적 0.05697234 -0.015857631 0.03994797 -0.03155725 0.01122542 0.030420264 0.046634723 -0.03394149 0.03557248 -0.047123276 -0.0439717 0.073474415 0.0477327 -0.0453852 0.05296847 -0.008858873
안 -0.0794312 -0.015954958 -0.035622407 -0.055205286 -0.078866854 0.042516813 0.12758353 -0.017584989 -0.025343053 0.116397746 0.039358947 -0.14294834 0.1351965 0.15085965 -0.16855031 0.022120595
정말 0.14112322 -0.03991753 0.10862391 -0.05307903 0.08922348 0.118284985 0.010257791 -0.027613455 0.07175727 -0.0139252925 0.06955049 0.105550565 -0.0029316149 -0.1601351 0.21911934 0.033457745
로 -0.0106938165 -0.031552806 -0.024448827 -0.034451544 -0.06814806 0.022682892 0.03276123 0.024638662 0.042431947 -0.013681571 -7.872611e-05 0.012697378 0.0794812 0.01634396 0.012806224 0.037665933
음 -0.032141276 -0.087762825 -0.04289976 -0.039633915 0.049885187 0.15125124 0.04366235 0.0114771165 0.15231866 -0.16167282 -0.00474004 0.035871238 0.05729209 -0.19837101 0.16737248 0.09966057
것 -0.01671338 0.0063733156 0.039201986 0.006929009 0.007816815 0.05670946 -0.058660977 0.018800601 -0.008863406 0.044876523 -0.042160716 -0.0009628465 -0.004658445 -0.08871471 0.02337571 0.037682954
아 0.031632088 -0.025839284 0.06159926 -0.0039970786 0.011076077 -0.0012787133 -0.010559397 -0.0019887942 0.0290895 -0.039562285 0.023156313 0.046678197 0.065039076 -0.035400253 0.023842502 0.037498042
네요 -0.11721912 -0.106845066 -0.077708244 -0.04524803 0.059815202 0.14900912 0.07708421 -0.037427973 0.16801529 -0.21450649 -0.04084043 0.04931305 0.024122981 -0.34793943 0.16750401 0.042305015
재밌 0.08690445 0.084315225 0.14018103 0.18017659 0.16753618 -0.036322374 -0.20120455 -0.22563595 0.25983214 -0.24941584 -0.051310778 0.17265487 -0.033342965 -0.34286967 0.27643344 -0.0912171
어 0.0863706 -0.004508673 -0.026481612 -0.0014150363 0.04749962 0.031183273 0.057138268 -0.008199152 0.06674151 0.021666817 -0.008338082 0.056979924 0.084693946 -0.07859728 0.089153394 0.059922013
같 0.019636882 -0.069888815 0.012553553 0.052338667 0.028650042 0.011558693 0.027135367 0.047896143 0.047776405 -0.04244886 -0.050437707 0.02102503 0.015624394 -0.08362983 0.03423047 0.05176594
점 -0.07802514 -0.007974157 -0.084014066 -0.0070629753 -0.00021619935 0.0136633925 0.017978834 0.024882648 0.10899719 -0.13516001 0.03218578 -0.045381926 0.108281925 -0.047489796 0.06533674 0.015644267
지만 0.22807786 0.030972684 0.23636018 0.06336037 -0.08220733 -0.20181698 -0.04266202 0.024500852 -0.07463136 0.27265584 0.026392268 0.08900576 -0.16215362 0.39571285 -0.15920871 -0.064346604
진짜 0.18938959 -0.037564177 0.023845116 -0.031631354 0.06380098 0.0288394 0.006325167 -0.01390404 0.09558549 -0.059726346 0.064298436 0.097814836 -0.010911477 -0.05824225 0.17169362 0.047313772
했 0.02958931 -0.05596253 -0.055585913 -0.04106738 0.02767703 0.020756079 -0.011068899 -0.0062053637 0.08434128 -0.029647753 0.06731163 -0.016514413 0.056076474 -0.0199907 0.073713176 0.016378371
에서 0.045931086 -0.03690985 0.04673083 0.049547043 0.03889954 0.055287525 0.03626855 -0.04883205 0.018342746 0.006719272 0.056943893 0.05832765 0.06272747 -0.06486693 0.015125602 0.03690299
기 -0.06490743 -0.057288706 0.018697878 -0.011986544 -0.012604688 0.004216562 0.027762901 0.015959378 0.04618419 -0.010859401 0.06423343 0.0042069186 0.08583148 -0.061878182 -0.0058992826 0.06933534
네 -0.009039841 -0.013937896 -0.02773103 -0.07797094 -0.013776537 0.07104259 0.0922686 -0.031729396 0.09829167 -0.044573143 -0.004134654 -0.0036076985 0.044513106 -0.11385039 0.022291364 0.07504311
않 0.14248776 0.076156594 0.05963568 0.057638276 -0.04899396 -0.07320112 0.006576124 -0.00901494 -0.14425743 0.2117409 -0.003152051 0.023959039 -0.008934047 0.24639656 -0.17002203 -0.009826405
거 -0.06432172 0.0005034555 -0.044735983 0.009547064 -0.026769055 0.028061854 -0.05892645 0.071320176 0.002413626 0.028755706 -0.045656808 -0.036302574 -0.03936025 -0.029261459 0.019649263 0.029141787
았 -0.006778595 0.0023987107 -0.006553236 -0.012488493 0.024307376 0.02158451 -0.013559754 0.0019133153 -0.024353202 0.0031902175 -0.024137618 0.0058176736 -0.024148209 0.028967129 0.035090372 -0.012378297
수 -0.029312694 0.11261005 -0.029552188 0.05607102 0.06024787 -0.0077562435 -0.02456202 -0.042604282 0.07308869 -0.10464571 -0.06813179 0.025303341 0.05242236 -0.071047686 -0.020970846 -0.07012753
되 -0.016875912 0.012133889 -0.026025157 0.04473105 0.015909534 0.05974077 -0.018266998 0.005923611 0.04619909 -0.08197951 -0.035419963 0.07063353 0.023583625 -0.14878279 0.071814716 0.028408613
면 -0.0038976925 0.09786044 -0.0078289015 0.052005284 -0.040632874 -0.07601092 0.053820502 0.010854004 0.047803856 -0.0065552536 -0.021346083 -0.008951265 0.017429555 0.03234258 -0.033997595 0.015698548
ㅋㅋ -0.106504254 -0.05743919 -0.08038465 0.006963967 0.060661934 0.048698016 0.0142504005 -0.03479709 0.07419496 -0.11372798 -0.06119203 0.034834456 -0.0077351616 -0.12746505 0.06041048 -0.010703141
말 0.045438897 0.009286906 0.026365578 -0.034630418 0.047188435 -0.039241992 -0.01040995 0.008698739 -0.006811755 0.01903675 0.015546938 0.037008367 -0.0020010862 0.041554354 0.060176734 0.036625624
연기 0.03397342 -0.027721113 -0.01924457 0.024594422 0.013765329 0.07836103 0.016947405 -0.02970554 0.071171805 -0.037346948 -0.0110737085 0.10929086 -0.02190463 -0.22451083 0.16344689 -0.004359004
인 0.004928706 -0.02182795 0.0056824414 0.019525832 -0.031389683 0.070029415 -0.0063690664 0.0076492624 0.011445229 -0.047039904 -0.02544633 0.033980288 0.066545 -0.111561574 0.039422847 -0.007902106
주 -0.06334902 0.0056351977 -0.06395812 0.0026721817 0.041587334 -0.011787057 -0.044358183 0.049436126 0.040052865 -0.06780687 -0.09872489 0.061956476 0.008029684 -0.14361075 0.04913652 0.0050790412
내 0.035767283 -0.039975945 -0.024482545 -0.011794814 -0.001964414 0.00032224564 -0.011083111 0.005614071 0.08177444 0.017807083 0.049868118 0.0077354778 0.09129394 -0.103973314 0.059427 0.02269812
최고 0.2018402 0.13653322 0.23949085 0.21465506 0.2527924 -0.10232764 -0.28064233 -0.20486517 0.31569472 -0.28631026 -0.18176663 0.24689963 -0.1652402 -0.42233506 0.3391638 -0.17827347
~ -0.14065784 -0.051137496 -0.13109268 -0.027781291 0.015280759 0.116167344 0.032545954 0.005385367 0.13094454 -0.1918991 -0.077876635 0.03732457 -0.03577299 -0.24632297 0.10705208 -0.031175742
평점 -0.0071183485 -0.005291911 -0.05024439 -0.02456484 -0.03518131 0.0010282083 -0.05067801 0.0011923466 -0.037286155 -0.012577428 0.0076673017 0.021395052 0.031765647 -0.07236038 0.03746284 -0.042711746
이런 0.09746334 -0.062562495 -0.049268696 0.0014107259 0.0015551497 0.09951196 0.0017520844 -0.0037273727 0.054570347 0.0027504282 0.00053852587 0.0045834994 0.09172564 -0.05782905 0.06017137 0.0076417923
던 0.07407414 0.004860614 -0.002086043 -0.0023318543 0.041749723 0.039561816 -0.0036283082 -0.058254257 0.07493846 0.004422376 0.06467754 0.048793957 -0.0052689696 -0.026928935 -0.019416006 -0.016951686
어요 -0.043445475 -0.13933846 -0.09297266 -0.06164013 0.12029536 0.1509339 0.02246037 -0.063030295 0.21220258 -0.2504836 -0.074180566 0.062200367 0.10421287 -0.42571002 0.25373742 0.046204764
할 0.085024156 0.016533524 0.028278835 0.021686392 -0.01771576 -0.023471735 0.025762258 0.014188146 0.040428165 0.019060671 0.05771235 0.007215536 0.011812144 -0.016413942 0.018589197 -0.030015761
왜 -0.034573928 0.007014152 -0.0141983265 -0.011003229 -0.026033875 0.042414665 -0.040483683 -0.04208036 0.0726715 -0.013989035 0.006163733 -0.05609634 0.07641974 -0.103878245 0.040272493 0.01963318
겠 -0.011362691 -0.044532217 -0.09146624 -0.00454719 -0.023042468 0.031071845 0.04883397 0.07212898 -0.020635718 0.095422424 0.020043911 -0.02269749 0.05088593 0.069698654 -0.09964793 0.06972575
1 -0.026265558 -0.020168073 -0.037291374 0.020017102 -0.092755444 0.048474655 0.074362114 0.07062471 -0.050104696 0.0630034 0.09512436 -0.11875231 0.12362159 0.21130502 -0.20888439 0.092953354
스토리 0.033090845 -0.10906923 -0.04117239 -0.06412956 -0.05626725 0.06252747 0.1196898 0.045869984 0.042607743 0.012131644 0.0835243 0.017721627 0.1076413 -0.007851086 0.04246284 0.029964743
해 0.0015116495 -0.047426973 -0.0065348134 0.054599956 -0.020448139 -0.008304746 0.050939813 -0.019459536 0.046046596 -0.0061977915 -0.042115573 0.02490233 0.061572902 -0.090087585 0.10396748 -0.030963896
습니다 -0.07210779 -0.022739265 0.012635639 -0.04841228 0.0807286 0.10859961 0.043998264 -0.034420356 0.19175795 -0.19529125 -0.018527789 0.059291016 0.064912364 -0.24406262 0.20030022 0.06805924
ㅋㅋㅋ -0.09920987 0.007268033 -0.054594193 0.034476466 -0.029943032 -0.003956959 -0.043986447 0.056043796 0.012063557 0.001210839 -0.052781958 -0.0060470076 -0.023137314 -0.06541622 -0.065397136 0.013532323
... 0.046178427 -0.033546098 -0.015540539 -0.080171436 -0.01813077 0.11167696 0.030760065 0.059554156 0.07862082 -0.070588335 -0.047777817 0.038293775 0.039101116 -0.0436996 0.0044203107 0.079420775
드라마 -0.075037085 -0.04167838 -0.018693358 -0.050467618 0.052908294 0.072060585 -0.05522015 0.019765174 0.1506432 -0.1711596 -0.028389 0.10697502 -0.008041823 -0.24914761 0.21041584 0.020642914
생각 0.03202039 0.08725375 0.013913934 0.06979886 0.09241722 -0.040527795 -0.038114496 -0.100628816 0.11474904 -0.025736852 -0.012098955 0.027374187 0.032358512 -0.0753877 0.074593775 0.034437355
아니 0.061806638 0.0011778107 0.012915437 0.009344632 -0.060889237 -0.049939044 0.04618524 0.007772841 -0.07221366 0.15348247 0.05588332 -0.099680014 0.06052256 0.24382992 -0.17073011 0.023083603
더 -0.06802686 0.037902825 -0.04852567 0.025427282 -0.013784302 0.039420232 0.10577007 0.00893223 0.0885374 0.015648374 0.030238159 -0.06378158 0.088705346 -0.024077399 -0.002982976 -0.016786221
그 0.012531725 0.040768325 0.0029947355 0.02877169 0.062394336 0.010423204 0.04205478 -0.032962475 0.03226274 -0.07921443 0.039663885 0.06962083 0.011302191 -0.06978619 0.13179943 -0.021173092
싶 -0.0629953 -0.05208393 -0.08057313 -2.8543785e-05 0.03741587 0.07707885 0.03484871 -0.005188749 0.05080559 -0.136031 -0.03475646 0.05384739 0.054418694 -0.16199908 0.10376741 0.006084413
사람 -0.000822418 0.01972119 0.03608376 0.09612795 0.036248345 -0.008070079 0.037558954 -0.06516552 0.027827187 0.006715399 -0.054637935 0.00113126 0.014149986 0.046350934 -0.001904798 -0.04954821
듯 -0.009453192 -0.012017444 -0.021247718 -0.042702954 -5.8316044e-05 0.034694698 0.027477283 0.017152054 -0.00044224554 -0.01148271 0.023184473 -0.009574544 0.0057481383 0.030382322 -0.07146269 0.0008453266
때 0.058436148 0.021668643 0.005941607 0.05527354 -0.008301272 -0.030197848 0.021373082 -0.09653481 0.037353598 -0.0013678562 0.030031294 0.08443394 0.008305695 -0.06116786 0.06333899 0.008372428
감동 0.16918172 0.01025499 0.117652155 0.08020344 0.17123558 0.047905132 -0.09558981 -0.06239231 0.15065129 -0.19126147 -0.23030683 0.18105356 -0.08045942 -0.2798807 0.24124792 -0.056928344
함 -0.0634573 -0.07399989 -0.0011832379 -0.042681273 0.0045153378 0.044801366 -0.0076661995 -0.027288027 0.060040835 -0.074087456 0.008406974 0.040998075 0.015146347 -0.10287376 0.06369732 0.02281219
배우 -0.0027492002 -0.030842729 -0.0144148795 0.024290338 -0.029784277 0.03471786 0.016329557 0.00928163 0.02332675 0.052020993 0.067566656 0.024835285 0.027513508 -0.054529186 -0.007839218 0.07643455
본 0.048837848 0.042411275 -0.024999404 0.028581806 0.080846034 0.027628474 0.016393896 0.013256999 0.10429941 -0.023315817 -0.020197744 0.06367675 0.005427436 -0.122265354 0.112947725 -0.05279089
까지 0.016485114 -0.01112074 -0.058877848 -0.043478183 -0.013801886 0.045026436 -0.0017014703 -0.0029102333 0.040448282 0.0132382205 -0.016847603 0.004194905 -0.013101697 -0.15164773 0.023296393 -0.046504762
뭐 -0.06285574 -0.027999854 -0.039773792 -0.06855522 -0.10912026 0.09625415 0.0716008 0.045117114 -0.03486521 0.011569846 0.082625605 -0.11409625 0.11800251 0.021099387 -0.06273468 0.02711678
알 -0.012357969 0.017054848 -0.029557332 -0.03658768 0.015962563 -0.031745527 0.019749526 -0.02286464 -0.012252008 0.07409833 -0.016009865 -0.042038735 0.014421003 0.023387266 0.006962193 0.044973157
만들 -0.04184225 -0.04282873 -0.067352384 0.0045022485 -0.033820212 0.10090684 -0.018682592 0.07860881 0.033356782 -0.009407227 0.048987854 -0.06798955 0.0878106 -0.087115794 0.0271578 0.017205594
내용 0.014332371 -0.03451098 0.008979045 -0.098631635 -0.034064785 0.07618094 0.09569092 0.101010084 -0.08257657 0.07279111 0.072114184 0.030444613 0.029404966 -0.027020507 0.05198511 0.054771733
볼 0.066589504 -0.00482191 -0.013303052 0.03361257 0.084083326 -0.047991738 -0.046261884 -0.027318204 0.056155402 -0.037674975 -0.049900003 0.0441487 -0.034266166 -0.11973775 0.024217684 -0.079937205
감독 -0.11655248 -0.09656364 -0.1247213 -0.09426815 0.0026667076 0.16324596 0.07121402 0.119330026 -0.042973757 0.006480887 -0.008790553 -0.0025090645 -0.0074772453 -0.10195507 0.008397899 0.089765176
보다 0.076481454 0.052804586 0.023395037 -0.015524651 0.033954885 0.017969353 -0.007304664 -0.006245924 0.04472986 0.06434797 0.0021771681 0.09151283 0.03912669 0.034241512 0.009511623 -0.0012745353
라 0.10020002 0.06663741 0.03759619 -0.014169562 -0.032008022 0.019337792 0.052541923 -0.055713523 0.058354158 -0.004506353 0.08257461 0.03036382 0.05800678 0.08082839 -0.015326561 0.026150566
그냥 0.01978219 -0.12897441 -0.09976956 -0.026979255 0.025095973 0.0977814 0.0032978263 0.110387 -0.10832195 0.046687182 0.047667377 -0.05912556 0.037419066 -0.02859259 0.011963265 0.0040924135
재미 0.081984416 -0.10418238 0.027763663 -0.043488853 -0.015836872 0.018095884 -0.03548711 0.015730757 -0.06627929 -0.02419213 -0.04567329 0.04863061 -0.046601422 -0.07193338 0.054975756 0.05309384
시간 0.019938786 -0.10312031 -0.05491753 -0.08540945 -0.042015433 0.0759296 0.03157346 0.026589436 0.03181115 0.060787015 0.08069745 0.014090391 0.08641538 -0.024900537 0.076013006 0.054614753
지루 -0.13608362 -0.15287784 -0.08310591 -0.1654249 -0.23162104 0.12465358 0.13424698 0.08058758 -0.16627376 0.28213012 0.09013812 -0.1859833 0.19070664 0.34943685 -0.2718082 0.10263444
중 0.08022794 -0.02566348 0.09779177 -0.00992691 0.029545788 0.09649927 0.040117558 -0.050808698 0.10566669 -0.07102556 -0.014300896 0.09797935 0.010062199 -0.17708787 0.08810665 -0.017882627
재미있 0.13699627 0.045694735 0.11757429 0.096253864 0.19207539 -0.06802283 -0.17221801 -0.19637176 0.18964872 -0.1507752 -0.09543424 0.1837451 -0.076082796 -0.27561373 0.21236128 -0.12137018
년 0.056222945 0.03605721 0.05962985 0.029485028 0.0685614 -0.0047647315 0.011513581 0.005089387 -0.010293177 -0.039304 -0.036806498 -0.0094394125 -0.017693821 -0.03691926 0.009414672 0.023558885
10 0.12697694 0.18118227 0.10300367 0.10687135 0.16837037 -0.17640331 -0.15470052 -0.09282236 0.1051967 -0.09935188 -0.20232135 0.1519127 -0.19476877 -0.14823776 0.088019945 -0.18962745
였 0.038094122 0.060817104 -0.0117145935 0.059043415 0.013442528 -0.021902837 0.007148079 -0.06176033 0.08808307 -0.02626572 0.044439588 0.0021805656 0.03948658 -0.068563595 0.06832533 0.025496697
잼 0.12977804 0.017497832 0.03517858 -0.0017239342 0.12551409 0.005818695 -0.05633007 -0.061528068 0.17661895 -0.14319824 -0.13371615 0.101873815 -0.06833329 -0.2815668 0.19528975 -0.009778995
사랑 0.15351854 0.028086705 0.16131818 0.059545476 0.10145653 -0.058459546 -0.14131257 -0.06968932 0.12654357 -0.11047395 -0.14493923 0.13537367 -0.09349316 -0.14121133 0.1342276 -0.15694343
못 -0.02605885 -0.0067909607 -0.06886374 -0.06652549 -0.043635093 0.032747798 0.062336154 0.08785637 -0.06423782 0.10751497 0.0952774 -0.07810006 0.013818524 0.089868136 -0.11696601 0.05746777
냐 -0.014486617 0.012351851 -0.050281696 -0.05132211 -0.06098364 0.052874815 0.043515798 -0.0025151216 -0.10398392 0.072453976 0.06463622 -0.12108552 0.102520786 0.1945938 -0.1270735 0.08462011
재미없 -0.2803159 -0.22235532 -0.25206763 -0.19285601 -0.2449889 0.2603792 0.2759775 0.26096442 -0.27288982 0.2705732 0.20631275 -0.27059105 0.26005805 0.28932494 -0.25543806 0.20281525
쓰레기 -0.20402497 -0.1976898 -0.27130485 -0.24608174 -0.28029963 0.14781828 0.27178377 0.19372895 -0.22117448 0.32782426 0.208101 -0.2828941 0.18995458 0.29901206 -0.31170174 0.21441723
서 0.0066535734 -0.03857081 -0.013518455 0.015796639 0.013614258 -0.008093014 -0.0086925775 -0.0038273414 -0.026224246 0.01930963 -0.02460165 -0.033360925 -0.02656434 0.024114983 -0.06407366 -0.008711332
2 0.05953143 -0.014462758 0.04403163 0.0011419419 -0.046078272 -0.0071120583 0.043409362 -0.0016815361 0.020398594 0.023447007 0.120069735 -0.0032933373 0.15688992 0.110749386 -0.011076197 0.09007806
라고 0.0018382613 -0.054215446 -0.012252096 0.030002145 -0.020844754 -0.009793922 0.056073267 0.04430408 -0.08309159 0.054518048 0.019811902 -0.018145973 0.034348223 0.11156277 -0.12060693 0.020574328
야 0.0205804 0.03606079 0.01729199 0.06630365 0.029261865 0.033602044 0.047938928 0.01019822 0.005175888 -0.036063634 0.034793336 -0.005169434 0.08485617 -0.010985443 -0.010159141 0.022593914
니 0.018389719 -0.009331046 0.02389698 0.019461049 -0.023194695 -0.03569099 0.045117237 -0.050173674 0.018376872 -0.03064384 0.0755021 0.014726648 0.031021312 0.008846522 0.024969464 0.026413089
면서 0.055634692 -0.020573573 -0.021111296 0.008098438 0.02327064 0.06159851 -0.086692065 0.0011579207 0.033905197 -0.012098844 -0.09144363 0.059976164 0.0032996037 -0.123447835 0.038856626 0.010382922
번 0.070044 0.05584916 0.04708037 0.057095367 0.07787225 0.011570934 -0.0657266 -0.0055364375 0.06374421 -0.061820928 -0.071025275 0.03139877 0.008443579 -0.1038659 0.04905204 -0.036474306
다시 0.15244949 0.005210206 0.15497859 0.03643284 0.13109376 -0.05955654 -0.098686114 -0.09843396 0.09309404 -0.08360891 -0.029019183 0.13442846 -0.056072235 -0.13501975 0.06352828 -0.033808265
나오 -0.07897467 -0.06616392 -0.059056535 -0.04611092 0.018497916 0.06510746 0.005433609 0.0048823943 0.046236623 -0.046162896 0.024868133 0.019053053 0.07353279 -0.07140442 0.030518137 0.06064718
작품 0.03153073 -0.02323487 0.038604915 0.008840837 0.08191087 0.017055633 0.052038424 -0.03922773 0.09145538 -0.018340183 -0.05057821 0.055492382 -0.026747884 -0.11109117 0.111212075 0.03797678
이거 0.07301598 -0.025744239 -0.018039942 0.0027378707 -0.0031152184 0.024161102 0.05288659 0.0041310284 0.018518953 -0.0076756016 0.0034233695 0.053558443 -0.013029606 -0.017856939 0.03209152 -0.015414173
하나 -0.027905457 -0.032696992 -0.009236619 -0.0011975709 -0.04434712 0.06826402 0.08674275 0.03331462 -0.00741895 -0.01856858 -0.022978868 -0.018432532 0.042026512 -0.013511489 0.01732083 0.06743055
줄 0.028271647 -0.0021734487 0.05392124 -0.024035778 -0.007948919 -0.040653665 0.04058898 0.0134534575 0.027450163 0.09663983 0.02538521 -0.011400856 0.053257175 0.048160367 -0.01879546 -0.017319039
해서 0.019713692 -0.05336589 0.030543325 0.039673306 0.02854427 0.030560927 -0.007899587 0.046962004 -0.007898232 0.016582886 -0.008133938 0.037520867 -0.00086810114 0.04389428 0.039738987 0.051150747
개 -0.027924413 -0.0900913 -0.03876161 -0.07504314 -0.019359602 0.055468436 -0.0111575015 0.008697757 0.043904524 0.009679924 0.07599716 0.03442113 0.021141127 0.014514936 0.03715803 0.08058742
남 0.01611366 -0.11235274 -0.09188754 -0.05313513 0.006290388 0.089151815 0.026825137 0.028655253 0.06668191 -0.13263316 0.0067297313 -0.01132939 0.08821466 -0.20839459 0.07494518 0.0068768496
정도 0.04377825 0.02941762 -0.01767707 -0.034911353 -0.0102049755 -0.0020256855 0.031534795 0.033365097 0.05872638 0.03535909 0.061914586 0.040622946 0.09162486 0.02034763 -0.0346588 0.048823558
마지막 0.038175423 0.06560408 0.045507807 0.068879284 0.10241828 -0.056819916 0.010987547 -0.051584247 0.086111955 -0.105938494 -0.06835856 0.010905358 -0.0156147685 -0.12471845 0.12350766 -0.048268743
끝 0.026144523 -0.018255388 -0.024719095 0.022638395 -0.0019841099 0.07358058 0.07927139 0.06293702 0.052509088 0.018502817 0.025378715 -0.053527776 0.10107305 0.022555107 -0.038299166 0.029677996
이건 0.030765042 -0.14433652 -0.0024854974 -0.084801696 -0.059547495 0.08417574 0.121177495 0.06761613 -0.09910076 0.14780743 0.15637437 -0.02365118 0.08895671 0.1890322 -0.11355234 0.07531112
액션 -0.009648536 -0.0017409186 0.0558807 -0.0063880477 0.010781 -0.0036772434 -0.062290806 -0.028023131 0.07308352 -0.019164113 -0.048823558 0.026612118 -0.050255444 -0.040758375 0.04409355 -0.030344835
임 0.050378803 -0.06910039 -0.022198034 -0.039567176 0.066314 0.061746847 0.03504506 -0.028501041 0.07951658 -0.09860882 -0.007621136 0.055873804 0.019833168 -0.08022123 0.14407553 0.012309949
ㅋ -0.106085554 -0.01767534 -0.04365475 -0.01899568 0.026428204 0.04305873 -0.07095217 -0.0034823918 -0.005601942 -0.110084124 -0.15231428 -0.01654474 -0.09740755 -0.1384486 0.03323387 0.0010904607
3 -0.04720308 -0.05148119 0.0110113425 -0.022906996 -0.05788274 0.06268907 0.056149784 -0.0019039004 0.0018713663 0.03370176 0.08119963 -0.033083208 0.103714034 -0.014335196 -0.040121336 0.084677905
기대 -0.03758935 -0.08202107 -0.0513032 0.032875866 -0.057189997 0.021420592 -0.034867346 0.028901398 -0.04079682 0.039867558 -0.13485883 0.05088147 -0.09076333 -0.042934828 0.039427787 -0.04905337
입니다 -0.042397834 -0.043038238 -0.096314676 -0.0135603165 0.023985729 0.12615092 0.0068506678 -0.048951223 0.18956324 -0.1387558 -0.008134978 0.059251513 0.028277898 -0.245644 0.21318358 -0.01238491
건 -0.040101703 -0.0047774306 -0.022809753 0.019175516 -0.060370885 -0.04879653 0.010212045 0.019573316 -0.06406641 0.084299885 0.023792842 -0.023545582 -0.022354955 0.09229578 -0.07288649 0.016665837
라는 -0.08128249 -0.04361389 -0.03924254 0.034282926 0.048606377 0.017481975 0.024302704 -0.008519784 0.06571618 0.005347895 0.013935138 -0.043831535 0.018209962 -0.07879514 0.058460947 0.062396888
분 -0.033729203 -0.057776004 -0.063625455 -0.02985781 -0.09081707 0.042459212 0.023584262 0.024211427 -0.04653611 0.115740746 0.057096627 -0.07245144 0.050095085 0.1538474 -0.11887304 0.09775416
완전 0.17435226 -0.10122212 0.09356174 -0.0436929 0.08372532 0.10501151 -0.01394973 -0.022461135 0.02647016 -0.015825598 0.08825176 0.07154201 0.00611309 -0.08533279 0.13243721 0.05987378
다는 0.023779046 0.04364576 -0.039377306 0.0040699653 -0.043118976 -0.03421978 -0.0450495 0.051483568 -0.0412734 0.019267088 -0.011975084 -0.03750881 -0.01801984 0.039757203 -0.10106665 2.3081375e-06
참 -0.012519514 0.0020378702 0.0015468762 -0.022427948 0.02111233 0.080560714 -0.007993981 0.06968863 -0.035024278 -0.029667241 -0.007984512 -0.03228125 0.03622537 -0.06322893 0.029899219 0.058252506
많 0.11935575 0.0517077 0.053170584 -0.0031213125 0.012051829 0.00015253537 0.017641174 -0.08954726 0.06596938 -0.006371408 0.0642742 0.018015817 0.032082368 0.012192069 0.06940806 0.009456973
처음 -0.0507906 0.04860997 0.030306797 -0.04116654 -0.031591788 0.06406813 0.0659569 0.020715918 0.019399622 0.021405648 -0.022199638 -0.061188914 0.018054511 -0.004847649 0.04926144 0.023017198
장면 0.03634736 -0.029417489 0.032766704 0.004146984 -0.019070802 0.07531293 -0.0117695 -0.019562041 0.0469488 0.034984678 0.05480382 0.024962403 0.026837427 -0.044560924 0.04663028 0.025468975
대 -0.02396273 0.044154566 -0.020863224 -0.010562137 0.0126301 -0.016113821 -0.04003246 -0.020615878 -0.010893325 0.09308294 -0.058223408 0.006084913 -0.0055335686 0.083941 -0.03588403 0.013276385
아깝 -0.15769242 -0.10436199 -0.13169987 -0.1714221 -0.05621074 0.18698186 0.16861524 0.16639338 -0.08523169 0.13054012 0.07732696 -0.047028895 0.12699787 -0.015691109 0.0045754807 0.16673224
다가 0.039500736 -0.036817748 -0.019892417 -0.084101774 -0.040861234 0.08008435 0.020812472 0.055738244 -0.084628224 0.025430085 0.11450832 -0.028658306 0.05526799 0.09061383 0.016980138 0.09911817
으면 -0.033913795 0.040486645 0.021093773 0.025034234 -0.008595158 -0.03276816 -0.008847545 -0.011024005 0.03313619 -0.019068075 -0.05316803 0.012126149 0.0033781587 -0.045306142 -0.007605009 0.011633849
지금 0.126071 0.09222562 0.11584215 0.054447316 0.10169996 -0.025046093 -0.07118972 -0.06264144 0.038660716 -0.030388944 -0.038262837 0.107154235 -0.05517652 -0.12081737 0.07231521 -0.022220533
모르 0.047442567 0.0049772793 0.03260235 0.061104316 0.052123006 -0.043106057 -0.044922005 -0.044081766 -0.015711358 0.033990692 0.040437687 -0.022302262 0.0037616636 0.037160862 -0.014302625 -0.04458634
이렇게 0.14294256 -0.08966578 -0.01728347 -0.0868739 0.07477794 0.06149805 -0.033573996 -0.0067033223 -0.034472454 0.011644222 0.012874998 0.096507736 0.0017816953 -0.049196385 0.070549734 0.037006415
' 0.0124900965 0.05962308 0.027952552 -0.019226717 -0.0064562755 -0.015903395 0.040889364 0.0060296953 0.02397389 -0.056250956 -0.0055031683 -0.00058183173 -0.048898734 -0.005326966 -0.018103706 0.03936277
편 0.027395464 0.06344067 0.0515458 0.09726666 0.030139333 -0.08499293 -0.019028049 -0.017249504 0.03425471 -0.016293734 -0.033584725 -0.023738377 -0.02636604 0.03331082 0.02565933 -0.03889322
일 0.048292793 -0.025487706 0.0047182506 -0.007926797 0.02751097 -0.037079416 -0.0037988152 -0.009346863 0.008041976 0.013803372 -0.017190004 -0.0064298967 0.07342815 0.083875746 0.006902503 -0.0038388167
돈 -0.14960137 -0.13373621 -0.12602401 -0.16236596 -0.09334693 0.09333752 0.10119099 0.10949765 -0.088689126 0.07367434 0.093930036 -0.10052875 0.10126414 0.020134456 -0.025034841 0.16664277
이게 -0.07969677 -0.061939254 -0.059496954 0.0042211968 -0.10154966 -0.0046161427 0.02084214 0.091712825 -0.04396932 -0.011400563 -0.012229529 -0.094980784 0.07083315 0.0786939 -0.04557404 0.060315836
성 -0.034854867 -0.004420442 -0.025926886 0.00017458634 0.022480283 0.09089206 0.010631082 0.044214036 -0.026467595 0.060334567 0.046585638 0.012674272 -0.016163886 -0.058260478 0.054231953 0.0374041
느낌 0.059842806 -0.03757955 -0.041416675 -0.014780325 0.022911558 0.07200867 0.03383137 0.0147811435 0.03800764 -0.048217364 0.023571681 -0.011539241 0.03467124 -0.08906207 0.12388034 0.04583513
시 -0.0037634869 0.007924638 -0.010130955 0.0061832485 0.040462483 0.011865567 -0.0036400787 -0.014508585 -0.01164423 0.019877411 -0.027897077 -0.012652691 0.009403866 0.02522081 0.035585437 -0.024585025
이야기 0.03542942 -0.027304363 -0.02670067 -0.05977416 0.027315672 0.01701985 0.025358213 0.012650505 0.07135018 -0.066137806 -0.041246165 0.03158821 0.0362435 -0.102727026 0.102345005 0.0060747806
최악 -0.42003283 -0.4379533 -0.46608782 -0.35041413 -0.4237978 0.46655732 0.5412798 0.4050508 -0.40691498 0.33253062 0.3962186 -0.4007653 0.44548523 0.32507008 -0.4087988 0.38004228
된 -0.0033362359 -0.0063527273 -0.0033948934 0.017796023 0.06951385 0.05545815 -0.019506557 -0.02367436 0.04306098 -0.03546393 -0.041073415 0.08925903 0.025057226 -0.15008919 0.09970396 -0.023680646
봐도 0.085751295 -0.02483115 0.050270904 0.075714566 0.11564265 0.087101795 -0.010845495 -0.0869771 0.17565532 -0.13232592 -0.08256724 0.098256364 0.012501852 -0.30014822 0.24336864 0.0015593442
님 0.0036566248 -0.028629215 0.03195967 0.068942346 0.0730042 0.024244059 -0.034415904 -0.059858333 0.059029147 -0.09254517 -0.060654625 0.025373947 0.021218095 -0.08411146 0.1038548 -0.035922512
어서 0.013517396 -0.014365981 0.03673253 0.04148503 0.017753575 0.039159592 0.050356764 -0.029987862 0.026842654 -0.07649482 0.045991234 0.04462492 0.09218084 -0.077635914 0.061357133 0.06451388
애 -0.054436736 0.0005131811 -0.082255274 0.03910557 0.004290368 0.0012543653 0.027055172 0.041487046 -0.04193394 0.012364404 0.018887259 -0.004677741 0.038035065 -0.016808372 0.029126814 0.01688189
전 0.046133537 0.023577455 0.04393479 0.0187847 -0.06526722 -0.038252905 -0.020851843 0.037910517 0.026108079 0.052809834 0.06926986 -0.008966605 0.009013298 0.07629127 -0.019127063 -0.017760081
넘 0.07615435 -0.10731525 0.031301238 -0.063409194 0.081431374 0.061859347 -0.05520162 0.002045412 0.053365156 0.027025435 -0.08687968 0.04958688 -0.008462236 -0.13042097 0.15786861 0.01736989
ㅠㅠ -0.095184505 0.0017869936 -0.0026593213 -0.027995365 0.06036464 0.08294535 -0.006392871 -0.01897454 0.13524267 -0.12249896 -0.11067363 0.040831935 -0.03824117 -0.23574208 0.19857454 -0.030298207
인데 -0.0010926095 0.018779725 -0.045849007 0.029307812 -0.04589725 -0.0308314 0.030485112 -0.036944415 0.0634705 0.016481195 -0.00029587213 0.0028494801 0.06146896 -0.029198658 0.04171395 -0.008406151
다고 0.017735722 -0.017229613 0.046244904 0.055004563 -0.12217808 -0.08961792 0.00061504217 0.029768977 -0.12090895 0.1506541 0.0076903077 -0.043941405 -0.010756197 0.29116395 -0.22223878 -0.045874253
이해 0.004965544 0.058448415 0.0010542594 0.054253522 -0.035786346 -0.059651453 0.025961788 0.0036530108 -0.018682603 0.035303455 0.02434698 -0.0012756267 -0.05789816 0.010285869 0.002353103 0.02454047
별로 -0.19551419 -0.18093105 -0.23746683 -0.18675949 -0.25912952 0.19424199 0.20555577 0.19362292 -0.17622863 0.20272776 0.112979315 -0.23068224 0.23150289 0.24270523 -0.28349358 0.18236558
그리고 0.032928564 -0.04080223 0.05244307 -0.04261732 0.098396726 0.03198773 -0.087445475 -0.052888118 0.04175479 -0.0254982 -0.14088061 0.04766406 -0.091905944 -0.18124923 0.10687327 -0.081025206
명작 0.17742215 0.18339683 0.12811826 0.1343048 0.24567153 -0.14344458 -0.19093561 -0.19764224 0.29737222 -0.23391967 -0.23089027 0.22808008 -0.100419566 -0.31495044 0.26772323 -0.16446467
여자 -0.07572467 -0.06495759 -0.092380755 -0.02962131 -0.10011458 -0.007027999 0.05869035 0.03596581 -0.07488455 0.08439958 -0.023653863 -0.04952426 0.054295946 0.027108861 -0.08860258 0.05071891
^^ -0.062617175 0.015055095 0.010700258 0.02734437 0.115368225 -0.08273469 -0.053595606 -0.056154624 0.17527626 -0.19249019 -0.09631094 0.08363505 -0.022695296 -0.17190483 0.19545066 -0.050548993
역시 0.036806628 0.060526993 0.06631 0.040929988 0.114156395 0.019206349 -0.030487416 -0.062039774 0.114095084 -0.09914713 -0.053160727 0.12177936 -0.064718135 -0.1445065 0.10945439 -0.021753136
난 0.091464326 0.057883732 0.093592755 0.045060087 0.010991919 -0.05662713 0.035389975 -0.0648249 0.059279013 0.05071695 0.07680465 0.05156852 -0.02974979 0.04454801 0.06750799 -0.0043607783
이상 0.022893824 -0.04823739 -0.009374698 0.027686303 -0.014138394 0.035262965 0.025445828 0.029594388 0.057318732 -0.024215713 0.04974279 0.071206294 -0.00877852 -0.061279114 0.05510564 0.010357423
또 0.10204959 0.01743532 0.10134285 0.016782772 0.053369317 0.008246246 -0.07492177 -0.03212079 0.10240631 -0.071219094 -0.027009541 0.047155038 -0.061651707 -0.13465318 0.13930094 -0.0687513
걸 -0.07069808 -0.018109506 -0.08302102 -0.05405648 -0.023310458 -0.005101444 0.014440008 0.015204314 -0.0019154667 0.0651797 0.07169611 -0.029265158 0.048722412 0.031472173 -0.026146214 0.05850217
한국 -0.017649302 0.0975058 0.018077124 0.056766562 -0.0021345136 -0.05908185 -0.03905927 -0.07310862 0.039974503 -0.012161885 -0.027562417 0.010587752 0.011344279 -0.033818506 -0.009285689 -0.045255277
는지 -0.10635176 -0.0050755413 -0.05095776 -0.05349741 -0.06586937 0.072092675 0.044107217 0.044660646 0.0054364083 0.06610258 0.005067992 -0.074452855 0.05043056 -0.0010157326 -0.012716076 0.01362148
많이 -0.028115042 -0.029736333 0.018940372 -0.0041875835 -0.030551046 0.017496511 -0.01744883 -0.04368495 0.014317323 -0.015206075 0.028588956 0.006865731 0.047124498 -0.050438233 0.0862679 0.03741136
에게 -0.029623292 0.009723052 0.0525884 -0.024589686 0.019483898 0.014351989 0.045007892 -0.043822087 0.036017794 -0.019244563 -0.011949648 0.038095675 0.010759884 -0.047185082 0.04323945 0.00036871244
부터 0.037321813 -0.00043645356 -0.01394406 0.003011389 -0.013195463 0.022944788 0.015775789 -0.014435896 -0.0005299699 0.09890491 0.050324153 -0.032635823 -0.00057261187 0.0063271285 0.0079059135 0.013937616
만든 0.03370955 -0.060017575 -0.037617512 -0.03355969 0.0033736294 0.06388231 -0.03392033 0.019873038 0.067382224 0.0025047197 0.008409764 0.038495727 -0.027441641 -0.047811784 0.010715396 -0.0020399902
주인공 -0.084321484 -0.024941761 -0.091150306 0.0074164798 -0.025002781 0.07278547 0.037505258 0.022752168 -0.014956037 -0.03141378 0.0015075558 0.023669707 0.0342851 -0.0065690586 -0.033755492 0.07447776
받 0.01756568 0.0048989016 -0.02717684 0.051510915 0.005241106 0.039546713 -0.03527085 -0.036404774 0.048102926 -0.038306132 -0.018131018 0.023372255 0.04951232 -0.013153401 -0.01202869 0.009326399
합니다 -0.017204985 -0.039877716 0.026260575 -0.020543063 0.03887571 0.06333677 0.034558546 -0.0015448292 0.14636837 -0.07187081 -0.039863925 0.00968836 -0.019776592 -0.13934518 0.10541908 0.014285332
우리 0.035626892 0.03753819 0.07936489 0.11248254 0.028991075 -0.06639554 -0.05511558 -0.101424485 0.05523217 -0.08449239 0.02434455 0.06823852 0.038030393 -0.0527902 0.07254894 -0.036065508
두 0.05946483 -0.008115225 0.03633943 0.054222595 0.05650935 0.046699043 -0.030329652 0.03178965 0.046788346 -0.0057129255 0.008561521 0.019881982 0.022978578 -0.014865832 0.024454605 0.01392459
살 -0.010138268 0.008230416 -0.004542138 0.012099154 0.052799504 0.033213295 -0.09761865 0.018548347 -0.009680666 -0.013662029 -0.1264558 0.076803096 -0.05514447 -0.15403832 0.06105757 0.0029181845
!! -0.1092469 -0.049188152 -0.056248724 0.014334767 0.037227806 0.010701471 0.042917702 0.0343246 0.10296855 -0.050061733 -0.08867979 0.019441184 -0.04148897 -0.14439501 0.11532608 0.01896242
길 -0.094190314 -0.014391218 -0.018624034 -0.036716606 -0.0009537819 -0.013348094 0.028547822 0.037982136 0.021723103 -0.07117511 -0.08428303 0.009821039 0.016977867 -0.031814378 0.053666785 0.035301942
엔 -0.023783026 0.08484873 -0.04613707 0.019867688 0.011927226 -0.08184385 -0.018169824 -0.044550993 -0.029746734 0.06099429 -0.005815663 -0.014045201 0.0459877 0.04248688 -0.060640343 -0.0014496869
괜찮 0.10078953 0.07396313 0.08813485 0.080308825 0.13295439 -0.068226546 -0.14307462 -0.068413526 0.16510762 -0.16852576 -0.15718883 0.17544061 -0.18768823 -0.22242634 0.103085876 -0.12622003
기억 0.064202085 0.015781784 0.023136424 0.047914952 0.069432236 0.07001444 -0.057070866 0.005168072 0.11641959 -0.08245555 -0.06295597 0.08250008 -0.0154193025 -0.15967682 0.09902711 -0.04835974
연출 -0.009602452 -0.07429306 -0.041314468 -0.04574399 0.059674058 0.049523063 0.049786717 -0.0046850806 0.03588826 -0.018567167 0.058881044 -0.023964437 0.03176289 -0.10821447 0.05594678 0.049960993
한다 3.642564e-05 0.00882712 0.019059593 -0.002470149 0.004112332 -0.026489954 0.0075079524 -0.007167738 0.051683977 -0.0873523 0.04187084 0.069598645 -0.037314393 -0.050411623 0.021409377 0.036499806
때문 0.015225922 0.061039146 -0.04373665 0.009500502 -0.01696913 -0.010203368 -0.04265961 -0.036731664 0.036301456 -0.010357748 -0.09760714 0.048131056 -0.021613276 0.024673456 0.023556123 -0.02550864
이나 -0.016114168 -0.0025061138 -0.004968843 -0.049376447 -0.033915766 0.061524022 0.014327043 0.045923583 -0.010850116 0.082764074 0.040509444 -0.03345143 0.06986151 0.034763295 -0.03354824 0.09086556
ㅎㅎ -0.090497 0.033683512 -0.042335626 0.02027783 0.121774144 0.07044412 0.018231383 -0.12416868 0.2593103 -0.2631836 -0.08303237 0.09345853 -0.051180888 -0.24846895 0.2286943 -0.027586464
요 -0.059229825 -0.040842786 -0.036878444 -0.03951569 0.03567274 0.04489666 0.008964353 -0.030223217 0.09771485 -0.13953647 -0.124564335 0.02936987 -0.044048555 -0.22298469 0.08595303 -0.010674266
저 0.077143684 0.02049924 0.067002386 0.020082913 0.023986673 0.047920603 0.059884895 -0.04911507 0.016968254 -0.0031429257 0.015555973 -0.0014087113 0.041380525 -0.015800886 0.08251082 -0.004282868
재 0.043076266 -0.05943796 -0.024725059 0.02943281 0.12627764 0.08389836 -0.061319314 -0.007945227 0.13246734 -0.094095424 -0.12696093 0.06626188 -0.08246865 -0.14811972 0.083340496 -0.055921916
꼭 0.1700127 0.12626277 0.14623101 0.11604373 0.096388616 -0.12607293 -0.104897305 -0.1642599 0.15691723 -0.19086513 -0.082472116 0.1320378 -0.0643074 -0.22397992 0.15253611 -0.105736
랑 -0.024687342 0.022221262 -0.045696203 0.042637367 -0.005911993 0.009798554 0.010575948 0.04198127 -0.023852203 0.027194992 -0.042226028 -0.0018533482 -0.00013897149 -0.058924146 0.0020331256 -0.016132716
며 -0.016329952 0.041462015 0.038397834 0.05077212 -0.010513644 0.046594787 -0.03890903 -0.015747787 0.031340692 -0.09510299 0.0040967357 0.044528536 0.0027493932 -0.12090987 0.08616211 -0.0500505
현실 0.113712 0.045402072 0.11498675 0.11878948 0.058528934 -0.03872822 -0.049289025 -0.13294032 0.046077594 -0.011648798 -0.05830643 0.040501866 -0.017184235 -0.1009006 0.06848414 -0.11226474
긴 0.001903709 0.01907251 0.087053634 0.05606164 -0.04766148 -0.011437916 0.012899565 -0.0042363727 -0.060168423 0.17524377 0.09199896 -0.09381432 -0.02873736 0.23426904 -0.14636162 -0.02584875
ㅡㅡ -0.09247976 -0.07437675 -0.09638887 -0.117905885 -0.11292118 0.12618722 0.1320342 0.0903404 -0.004454723 0.028258486 0.06576235 -0.07822779 0.096309856 0.06893556 -0.039284233 0.09236418
무슨 -0.06995853 -0.08207107 -0.081474386 -0.04607854 -0.038279675 0.04679704 0.11277571 0.05270417 -0.12927699 0.066533096 0.1140575 -0.045117527 0.12121066 0.044542305 -0.031214233 0.05510902
내내 0.06587443 -0.015103887 -0.053663414 -0.083396785 -0.00024406746 0.026871521 -0.00413335 0.016506102 0.06391771 0.01953954 0.020438772 0.07544041 0.026049023 -0.1352502 0.10328516 0.0778853
결말 -0.037865758 -0.0152786 0.0040369425 -0.010203884 -0.00034418798 -0.0076884395 -0.007874507 0.031371877 0.019475542 -0.08289111 -0.004739444 -0.034716852 -0.017316518 -0.049937624 0.045523904 0.044573754
죽 -0.034239624 0.0015921097 -0.044218794 -0.036034577 -0.05392633 0.057273023 0.00439081 -0.030512072 0.026740467 -0.031486757 0.022679633 0.0002457978 0.039763883 -0.045270648 0.0038981554 0.06123421
남자 -0.0053861244 -0.038656093 -0.0233389 -0.00437751 0.040425602 0.058219705 0.026131025 -0.038970318 0.040915586 0.011676787 -0.057889223 -0.027037745 0.02367896 -0.018552251 0.08018781 -0.0043371147
세요 -0.046046734 -0.012214243 -0.00020549924 -0.03441042 0.012627215 0.059260614 -0.02431355 0.041020613 0.0076473616 -0.009781216 0.0244495 0.049610667 -0.027414631 -0.032824162 0.0025730934 0.025682861
전개 -0.0184175 -0.01809484 -0.091523 -0.099039294 0.028931914 0.009011874 0.05376002 0.033500988 -0.018176218 0.02491626 0.05005183 -0.04968 0.016320122 -0.025115797 0.041655287 0.056427553
마음 0.09042764 0.11378026 0.11764737 0.09756534 0.11708085 -0.056126703 -0.022309225 -0.10760199 0.08535781 -0.09309845 0.016262192 0.1393042 -0.0034211222 -0.09063351 0.14148776 -0.06459597
소재 -0.070614494 -0.009019899 -0.09194264 -0.079493605 -0.10130251 0.05801766 0.06909398 0.056251265 -0.15921363 0.15538111 0.0566559 -0.05813308 0.010431728 0.09456078 -0.16759726 0.058659222
속 0.07046987 0.0041808225 0.0027518733 -0.0031470344 0.03216069 -0.01186605 0.061643638 -0.038047515 0.012563523 0.034202375 0.057328656 -0.046094734 0.03524956 -0.010668489 0.050101988 0.011066872
공포 -0.0094657075 -0.06579317 -0.06194687 -0.061630074 -0.0098846 0.12120969 -0.008624098 0.06344572 -0.02600315 -0.021575375 0.062389214 0.022021042 0.01811879 -0.02872197 0.04209499 0.06550315
아서 0.061235778 -0.084634736 0.00175328 -0.047732793 -0.017065689 0.054280393 0.020384878 -0.011377809 0.036071286 0.042894777 -0.0026763391 -0.016041458 0.014641994 -0.04374905 0.045643643 -0.02776589
다른 0.048597876 0.08575595 0.029890604 0.030384747 0.031378727 0.020426508 0.007650428 -0.028866421 -0.009803751 -0.0013577557 -0.035688907 0.06263571 0.05000161 0.037150566 0.05402684 0.0026234423
씨 -0.06618589 -0.002328397 -0.073809825 0.011457488 0.059201058 0.08902109 0.011988187 0.034224007 0.049888935 -0.047936548 -0.05110588 0.008738227 0.010775695 -0.12100219 0.08755552 0.0028971003
인생 0.15000391 0.086836345 0.07909007 0.123540886 0.10454108 -0.09960912 -0.039678864 -0.14690405 0.1062523 -0.090278275 -0.09161624 0.09952337 -0.09384176 -0.11225016 0.12567434 -0.14058703
~~ -0.103706986 -0.07856475 -0.0542061 -0.03359017 0.039327733 0.07599839 0.0026585879 0.045596074 0.16829622 -0.16794516 -0.076705426 0.08410724 0.011713563 -0.19615959 0.1570048 -0.045447584
짜증 -0.23338228 -0.11973758 -0.20644921 -0.18348086 -0.2244134 0.15370123 0.1472692 0.16531421 -0.14881283 0.21619721 0.15007503 -0.18050878 0.14039879 0.23079774 -0.2015835 0.11830065
짱 0.010858274 -0.040025987 0.03465795 0.04180755 0.1918838 0.0818942 -0.15061963 -0.146991 0.26134968 -0.27961808 -0.23694098 0.18519053 -0.0487591 -0.34103802 0.24255447 -0.10053263
뿐 0.024520926 -0.061626695 -0.043761674 -0.060959633 -0.10844679 0.03446881 0.037783496 0.0329388 -0.049613625 0.12662388 0.08186058 -0.08993044 0.08573965 0.17160724 -0.054764483 0.015112094
은데 0.01992344 0.043022778 -0.039632447 0.07163648 0.016775168 -0.09570092 -0.0062023187 -0.01767921 -0.011608571 -0.015029936 -0.0006157713 0.026861427 -0.03491163 0.09609219 -0.04647298 -0.03346205
별 -0.064247996 -0.07255764 -0.048589073 -0.037685607 -0.08041295 0.07998297 0.07864657 0.10390288 -0.084038146 0.006945 0.006119868 -0.02792055 0.027977921 -0.052604124 -0.027420504 0.12198891
아요 0.0060458537 0.0069002165 -0.017819522 0.0064059263 0.070759505 0.06974695 -0.010338666 -0.07844415 0.17556114 -0.12192322 -0.032976214 0.08713118 0.026884185 -0.21053296 0.18258868 0.00019408402
유치 -0.07556452 -0.13858457 -0.09208363 -0.1626677 -0.18962117 0.06674147 0.14521955 0.13272339 -0.13490146 0.19172052 0.17836562 -0.12660675 0.19012915 0.23441009 -0.13673706 0.113686785
가장 0.049270287 0.043027364 0.022112772 0.03106166 0.057488218 0.003498058 0.011769287 -0.040236726 0.0040273615 0.0042351396 0.020387648 0.007274793 0.08585466 -0.0290607 0.062233377 -0.0113208825
필요 0.06014798 0.14633624 0.11815229 0.13014364 0.19248478 -0.14134082 -0.13794045 -0.17615835 0.14086746 -0.15325242 -0.13808565 0.11108981 -0.09074682 -0.15042938 0.121361166 -0.17170605
음악 0.13423264 0.05927287 0.070181675 0.10833513 0.082687914 -0.059130985 -0.054662038 -0.07189919 0.07608743 -0.0069945036 -0.072064474 0.07606267 0.0242832 -0.11613621 0.10850777 -0.09960448
) -0.0072650076 -0.0020122733 -0.0052004927 -0.020003553 0.03731022 -0.03950862 -0.029056272 -0.032202482 0.022895394 -0.014765151 0.0016732308 0.022617128 0.05153561 -0.055557963 0.023264091 0.0019516086
일본 0.003692992 0.034793474 -0.06311339 -0.03447852 -0.08334241 0.055496465 0.058919422 0.015340425 -0.037864313 0.03676461 0.09512916 -0.0216468 0.01574924 0.033748366 -0.061609622 0.056234512
낮 0.07619978 0.16164708 0.11182981 0.23112987 0.20845139 -0.19138962 -0.087759875 -0.23953179 0.24364372 -0.23875837 -0.12548624 0.13285394 -0.10521417 -0.15654154 0.2270101 -0.13688542
아이 -0.028896432 -0.054293666 -0.030860338 0.033714477 0.029122826 0.09970354 -0.041209243 0.020638498 0.09998541 -0.0023751468 -0.074217506 0.017189603 0.006881456 -0.0838808 0.13151439 0.0004519224
;; -0.001349437 -0.04514886 -0.066948004 -0.021084942 -0.05076943 0.017775645 0.024019169 0.009491198 0.008193517 -0.021220593 0.00093384454 -0.05424891 0.095311254 0.020507183 -0.032401994 0.030499801
오 0.038411442 -0.0020018234 0.045642603 0.042471338 0.01732753 0.017135268 0.024974663 -0.005305559 0.061972015 -0.06385609 -0.029584311 -0.007248086 0.052059643 -0.06696008 0.07143491 0.0068810005
반전 0.073752135 -0.013305193 0.07012507 -0.008497108 0.031712852 0.015006174 -0.07053678 -0.015641788 0.0066291634 -0.057758674 -0.012395211 0.0332128 -0.058961045 -0.107888535 0.057320375 -0.08481966
수준 -0.10269252 -0.09016779 -0.09066237 -0.08623175 -0.085498475 0.10492863 0.09593789 0.09136024 -0.1475524 0.08184646 0.06726878 -0.13566318 0.09390325 0.113143295 -0.0801907 0.07278724
다니 0.024316845 0.033741273 -0.059345677 0.025978902 0.010102263 -0.01966678 -0.018621555 -0.0053141327 -0.005212696 -0.034950655 -0.030909037 0.011831781 0.049404636 0.033095688 -0.024068478 -0.011309056
웃 0.040901013 0.06709089 0.030749049 0.043620225 0.071576245 0.03150565 0.018871786 -0.08354345 0.013775314 -0.05628776 -0.022518469 -0.015966432 0.021993881 0.0029875222 0.074294396 0.008065361
매력 0.14413102 0.035420302 0.024767678 0.08562747 0.10041016 -0.053500373 -0.090009205 -0.074211285 0.044143252 -0.06980692 -0.10296477 0.09705104 -0.15338042 -0.13791063 0.07094034 -0.09460408
맞 -0.08161998 0.0013929954 -0.0133835925 -0.014015091 -0.018695377 0.033825394 0.0209175 0.00012315388 -0.075061455 0.030768504 0.054295797 -0.058868058 0.030792361 0.014858986 -0.03981413 0.02372698
인지 -0.05247329 -0.053792212 -0.05639162 -0.07367885 0.018586751 0.030967738 0.03820135 0.044105522 0.015351032 -0.01432446 0.019634698 -0.036923733 0.02363522 0.013137999 0.03768396 0.04262716
가슴 0.09820911 0.07624645 0.11297453 0.14428213 0.1981254 0.018362 -0.082434535 -0.11938266 0.21510963 -0.22869779 -0.1275236 0.1795445 -0.06287563 -0.2990612 0.20335609 -0.06568628
없이 0.042979944 0.015992174 0.012774662 -0.047030356 -0.031205628 0.04394606 0.012032969 0.026481394 -0.013528904 0.029708277 0.04486996 0.026038975 0.0217331 -0.027447972 0.018599516 0.022586636
원작 -0.019771334 -0.07133002 -0.039995596 -0.01173265 -0.05912401 0.055449348 0.059272934 0.014765474 -0.07601296 0.043613434 0.007517912 -0.097089946 0.08515671 0.08075907 -0.08521971 0.0047312607
ㄷ 0.06689961 0.08412591 0.011388823 0.011839971 0.03811228 -0.0409492 0.029704798 -0.082173176 0.035170045 0.0034303172 0.028637415 -0.008309757 0.0025408322 -0.022701517 0.06974875 0.0064731906
인간 0.05897717 0.1448087 0.11054537 0.083224356 0.05129989 -0.105008505 -0.049773354 -0.12677634 0.071492195 -0.005944302 0.012910105 0.03777802 -0.04758581 -0.002769224 0.09237159 -0.030140549
데 0.053786814 0.019937584 -0.010770407 0.053845815 -0.035967294 -0.007828633 -0.032535058 -0.027779331 5.391109e-05 0.03302907 -0.05001928 -0.016876837 -0.046954866 0.056854084 -0.00087823026 -0.05191355
굿 0.18257149 0.104808986 0.21177793 0.15244782 0.26785168 -0.09980269 -0.22642851 -0.23740213 0.31884837 -0.28513908 -0.21314354 0.22682102 -0.095145114 -0.3098331 0.3522492 -0.14244722
ㅠ -0.09676636 -9.484858e-05 0.008444288 0.0072781886 0.02831718 -0.036224615 -0.028541427 -0.052593395 0.058067285 -0.09484625 -0.022791019 0.05703183 -0.02976257 -0.123790465 0.026047867 -0.032778013
높 -0.014862266 -0.119527064 -0.03472422 -0.047822803 -0.03817815 0.10351711 0.041758336 0.12721887 -0.14744446 0.12360461 0.01998476 -0.1110755 0.0851152 0.09143859 -0.06571227 0.047349606
밋 0.13289581 0.07615541 0.09240193 0.12463336 0.17507304 -0.04400904 -0.14953841 -0.14673735 0.21052799 -0.13047028 -0.0978 0.1338741 -0.023328068 -0.17079338 0.15215759 -0.06390933
( -0.09601472 -0.026439287 -0.05295194 0.03447128 0.028355194 0.01779941 -0.007379246 -0.04342448 0.009058955 -0.03372622 0.095233954 -0.039498854 0.08560213 -0.0019480656 -0.018074848 0.029870342
만드 -0.011944835 -0.05997951 -0.077890635 -0.050159913 0.030976916 0.038187597 -0.03589024 -0.00800523 0.06663485 -0.029705178 -0.002730092 0.02792394 0.029899674 -0.091721356 0.119968124 0.031675693
급 0.0063425046 -0.049078446 0.006571472 0.010461037 -0.015505698 0.022089759 0.014002716 0.008561974 -0.0071547753 -0.035180274 -0.016649555 0.023590758 0.045643378 -0.069944315 0.114137456 0.054264933
눈물 0.16568664 0.1196313 0.11124687 0.13831572 0.18088354 -0.029284772 -0.1260511 -0.116212696 0.12807511 -0.16787845 -0.2091784 0.119972125 -0.11295059 -0.21217862 0.17731738 -0.10270725
보여 0.043108925 -0.07253207 -0.01526087 -0.018442329 -0.012855172 0.052112706 -0.022010153 0.04047103 -0.040698353 0.037742626 -0.04103012 0.038382445 -0.005118214 -0.049977068 0.058268096 -0.047253598
준 -0.010265905 0.037802488 -0.033197366 0.0773667 -0.009730017 0.02293572 -0.006952119 -0.021686105 0.0011750808 -0.0056426846 0.0069723893 0.0011621831 -0.06585943 -0.039124247 0.011779155 -0.05439873
찍 -0.09011083 -0.083979525 -0.13255908 -0.10995454 -0.08687926 0.10002641 0.08357427 0.121622935 -0.016919287 0.019711208 0.0075160987 -0.0706024 0.09874774 -0.036800016 0.022523804 0.027539873
인가 -0.05030343 -0.09472256 -0.08933651 -0.046646953 -0.0072416235 0.028701091 0.023777852 0.021558447 0.01311988 0.046419173 0.041539364 -0.03919806 0.03615763 -0.042454403 -0.03425411 0.006330863
노 -0.28050345 -0.23235752 -0.30306244 -0.14563563 -0.2777017 0.24210224 0.2655954 0.21750721 -0.30834275 0.27937928 0.198365 -0.29142684 0.22976637 0.36584395 -0.30505422 0.19035985
을까 -0.02162551 -0.015031625 -0.07075624 -0.0024348202 -0.00508231 0.017494688 -0.01704826 -0.011288634 0.0106204655 0.052158263 0.012214847 0.0006269036 0.036011577 -0.05847303 -0.045784842 -0.011772315
용 -0.049084436 -0.017687581 -0.022088686 0.022935841 0.010062311 0.070225514 0.011101222 0.0035957831 0.03459081 -0.02025869 0.053062666 -0.072583735 0.09012673 -0.014588234 0.027332123 0.083824866
코미디 -0.03772078 0.028169084 -0.04939702 -0.008731992 0.0026257532 0.03887101 0.03041175 0.05096646 0.025580548 0.05727105 0.007350375 0.014034224 0.015277366 0.06511912 -0.04108807 0.010490813
마 0.0019791631 -0.039250553 -0.043916177 -0.03176488 -0.09008696 0.039383568 0.08016452 -0.0058540488 -0.05151354 0.112156875 0.05939031 -0.10469728 0.04180014 0.07885267 -0.097498335 0.031147046
화 -0.023942044 -0.036532402 -0.034580298 0.014004093 -0.060188927 0.039031353 0.07698529 0.057732176 0.01177586 0.037834402 0.09952801 -0.038713265 0.05629047 0.007512389 -0.009415374 0.07732934
신 -0.007478337 0.028600939 -0.01514299 0.05361182 0.03683624 0.009577646 -0.049857587 -0.03840828 0.07505807 -0.069139674 -0.10354529 0.028774895 -0.026718281 -0.0855731 0.013411138 -0.006935089
모든 0.0050027054 0.015597269 0.056553937 0.0004455859 0.08727684 -0.012925214 -0.02093822 -0.07180378 0.09896524 -0.015536962 -0.0063601187 0.08014262 0.048380595 -0.11703207 0.076941125 -0.027099034
쓰 -0.09775906 -0.02771949 -0.11380953 -0.06409718 -0.033104632 0.033367425 0.04773857 0.019168295 -0.0605318 -0.0077418983 -0.009225125 -0.043330096 0.022883417 -0.042853374 0.01987769 -0.0022569373
여 0.0012670867 0.0057192156 0.009154749 -0.030298702 0.022838645 0.007642233 0.049524687 -0.022841033 0.03964319 -0.0383278 0.005735782 -0.04387283 0.05917822 0.006814699 0.016575245 -0.0057013347
5 0.0063266708 -0.0013585989 -0.030604392 0.029686904 -0.0039409753 -0.09243713 -0.121624954 0.01229316 0.06856541 -0.014376857 -0.105341695 0.029888067 -0.06055208 -0.044290584 0.06573283 -0.056295354
아직 0.09450814 0.046089485 0.010014186 0.061532862 0.020810615 -0.023536304 -0.033605035 -0.0038730823 0.075606085 -0.05556073 -0.048045363 0.08925234 -0.077485695 -0.103312865 0.08331175 -0.071916215
추천 0.056809053 0.032846708 0.0068625673 0.0016652714 0.020827534 -0.031441618 -0.059403125 -0.08431635 0.14849202 -0.14214827 -0.017391136 0.069496095 -0.013296775 -0.11838462 0.09353931 -0.07384316
처럼 -0.012044861 -0.02067398 -0.0026898189 -0.017103316 -0.0077373856 0.03887805 -0.0050773444 -0.037910335 -0.03732663 -0.04385365 0.026404493 0.0077151684 0.026401231 -0.023978272 0.012182445 -0.021450737
눈 0.022363974 -0.050479036 -0.038149733 0.0134945335 -0.062431958 0.03224148 -0.018528508 -0.0008438282 0.011909116 -0.0218818 -0.00444004 -0.0049514696 0.003154813 0.06308236 -0.038168497 0.067280956
아닌 0.0046672826 -0.078407206 0.0119526405 0.011559141 -0.10164701 -0.037605625 0.084046856 0.046468474 -0.10351602 0.068478696 0.07210394 -0.041714117 0.09924788 0.109159574 -0.07979758 0.031676255
자체 0.041480858 -0.047341347 -0.008913641 -0.022010997 0.029045304 0.07717528 -0.0051933695 -0.019040199 0.0061445865 -0.033876058 -0.001266767 0.004403459 0.023941947 -0.11468863 0.05680173 0.073564276
울 0.08129833 0.074318424 0.051640116 0.13753931 0.14891265 -0.064026624 -0.12885849 -0.10319237 0.15090746 -0.2010883 -0.12713738 0.1081057 -0.031195674 -0.3071831 0.20837402 -0.10540656
몰입 0.12246116 0.020098748 0.06853452 -0.0032386929 0.05233147 0.008481913 -0.05566626 -0.010328092 0.06997551 0.011118258 -0.04792087 0.07662086 -0.07664071 -0.20358644 0.18787836 -0.061208174
4 -0.011517693 -0.06514908 0.0074931905 -0.06100836 -0.037712898 0.00834245 0.07298886 0.026720634 -0.04024159 0.025773603 0.0069673564 -0.08010925 0.103588685 0.051594146 -0.01991769 0.059152763
대박 0.102996394 0.059151497 0.10556884 0.13307391 0.13749926 -0.015643723 -0.14830235 -0.18735611 0.19900115 -0.20756844 -0.1390182 0.17579705 -0.10501496 -0.16400853 0.15510605 -0.14180277
몇 0.023485737 0.048003107 0.018125283 -0.025263894 0.06428001 0.039137892 -0.068448566 0.0071995775 0.05673367 -0.049466923 -0.031251967 0.042452987 -0.046225853 -0.14787288 0.060732603 -0.017577115
스럽 0.0084419465 0.0014069936 0.036052324 -0.0034443946 0.014497286 0.012254964 -0.027733343 -0.020192042 0.07360781 -0.0070994566 0.06857372 0.0037890908 0.061430246 -0.030704549 -0.040178668 -0.007981012
실망 -0.20306334 -0.14990179 -0.1987995 -0.2515136 -0.190309 0.19818403 0.2691457 0.2189486 -0.15668719 0.20146847 0.18206261 -0.23832828 0.17582001 0.28836668 -0.23847961 0.14758636
는다 -0.01912327 -0.062841974 0.0358976 -0.03547106 0.008760718 0.06236542 -0.027787142 -0.05252221 0.11236931 -0.067977294 0.035672747 -0.014945684 0.047655158 -0.08663634 0.049724802 0.01609417
대한 0.029346002 0.012628127 0.031013396 0.086819865 0.06187641 -0.00060612743 -0.052682724 -0.060799465 0.049005315 -0.07906701 -0.08265822 0.08306445 -0.018901626 -0.12905446 0.047477927 -0.005185594
죠 0.0066139777 0.014858864 0.009252865 0.0755541 0.02393388 -0.05338535 -0.029309291 -0.06534187 0.07599441 -0.0648205 -0.06033639 0.059408825 0.0083328355 0.022350721 0.0764727 0.012129645
란 -0.048916303 0.017062971 -0.035882693 0.002906999 0.035341226 0.0046049873 0.008302643 -0.0072394013 0.002246203 -0.045911036 -0.023462871 0.0060159476 0.011227921 -0.076320074 0.09253222 0.011212069
그런 0.05225058 0.07336202 -0.023268824 -0.014089233 0.016299423 -0.025457388 0.007375941 -0.056089725 0.024673542 -0.024228506 0.041729365 -0.049723882 0.06182573 0.061968673 0.018008828 0.061174814
솔직히 -0.0092467405 -0.042049494 -0.05346758 -0.0030845068 -0.034537748 -0.02667474 0.06540621 0.001666925 -0.0040673735 -0.0116382195 0.04880381 -0.08145589 0.07750072 0.07383506 -0.029697973 0.07862789
캐릭터 -0.044589166 -0.1057773 -0.0060275723 -0.10452655 -0.025902158 0.12173911 0.0030159988 0.08173489 0.017289875 0.02056666 -0.016053861 0.044149015 -0.007841444 -0.11547864 0.07624415 0.060048427
ㅎ -0.06264683 0.015424919 -0.004582772 -0.0027632727 0.041700687 0.030510364 -0.055284586 -0.04213011 0.20967092 -0.19731565 -0.08933562 0.055245798 -0.005385864 -0.2124468 0.14328955 0.0098663755
모두 0.15198538 -0.012723538 0.045004252 -0.008181567 0.09699568 -0.044453368 -0.027849473 -0.03531665 0.024614012 -0.053854354 -0.0654953 0.07706232 -0.026142858 -0.09895431 0.14234966 -0.04682762
아주 0.087766506 -0.020734537 0.035567604 0.0448104 -0.021343125 0.017015185 0.011771346 -0.044808708 -0.00060554466 -0.04310431 -0.068398364 -0.012246715 -0.015235062 -0.038662773 -1.2303673e-05 -0.03902247
- -0.03791529 -0.04847766 -0.01365092 -0.00833302 -0.011304444 -0.034678 0.0045662406 0.02418232 -0.029628854 0.030710794 -0.062546626 -0.03732667 -0.05427157 -0.092886895 -0.00097112346 0.0036013308
가족 0.12861355 -0.004596278 0.10955685 0.032153506 0.015300817 -0.056324966 -0.04727297 0.0037254705 0.022716412 -0.052097328 -0.108226575 0.061347693 -0.10693287 -0.07317074 0.10845732 -0.0817617
여운 0.17317735 0.13476641 0.15969463 0.20822531 0.28890237 -0.04457397 -0.27972665 -0.2829332 0.33755103 -0.2846009 -0.19312903 0.21170822 -0.17146607 -0.38536367 0.30808803 -0.21983488
건지 -0.050088525 -0.10589165 -0.06682529 -0.080975436 -0.013981967 0.10205764 0.050797626 0.09950906 -0.008032704 0.039217412 0.028527895 -0.09109239 0.053912695 -0.032630503 0.013827531 0.04669319
전혀 -0.052817687 -0.054997064 -0.056428142 -0.007516345 -0.05502166 0.0006832914 0.012378258 0.06009687 -0.037824325 0.1269139 -0.022118323 -0.12212766 0.02785714 0.09369022 -0.14251207 0.040434923
연기력 -0.04408803 -0.096026435 -0.042820465 -0.066525266 0.032655552 0.05118947 -0.007856601 -0.017272761 0.07008894 0.004934657 0.007720819 0.041764818 0.021748384 -0.0314906 0.09248421 0.029162575
나라 -0.01789683 0.013030745 -0.0066654594 0.03531221 -0.026892388 0.012469436 0.057679374 -0.046769384 0.024295796 -0.046416048 0.072100766 -0.07264541 0.049183592 0.07354332 0.030150684 0.014723008
후 -0.062259715 0.064544424 -0.0034426756 -0.0014426626 -0.030528005 -0.0074192723 -0.0040818383 -0.010012861 -0.020560315 0.056106035 0.07363499 -0.061154976 0.028312325 0.14924027 -0.085707664 0.022951795
될 -0.06420805 -0.024523525 0.0173535 -0.008042408 -0.026670285 0.058088962 0.00014338712 -0.02295094 0.029071165 -0.0011413033 0.021585189 -0.028449453 0.039022986 0.039554015 -0.09052423 0.00073188485
다면 -0.006692747 0.017338967 0.018168353 0.06799235 -0.01094985 -0.02160442 0.032498054 0.03286587 0.03232193 -0.012642987 0.008628738 -0.029480577 0.0013711537 0.07513626 -0.07715262 0.016980942
뭔가 -0.03129263 -0.09646544 -0.03045123 -0.04777442 -0.021231506 0.006144254 0.022404576 0.020296292 -0.0296537 0.04358432 -0.02171388 0.023285197 0.02755189 -0.07765992 -0.000121088815 -0.019479163
그래도 0.028471198 0.041360736 0.013620172 0.044348273 0.025234593 -0.037021454 -0.0304952 0.05044738 0.0003608838 0.005110151 -0.04746793 0.03965451 -0.13155161 -0.023570675 0.0046798764 -0.006016447
; 0.06862277 -0.03204884 0.033538252 -0.040493347 -0.039642256 0.013191727 0.060951613 -0.023162484 -0.052269798 0.017448971 0.045837764 -0.042806502 0.0038243965 0.051236182 -0.061573632 0.025851214
시리즈 0.032053273 0.023393549 0.06487132 0.025759717 0.06478546 -0.014205767 -0.070980184 -0.05708416 0.03798588 -0.054226078 0.00968643 0.019768417 -0.053589545 -0.07064572 0.077217184 -0.045297306
근데 0.065592706 0.062049277 0.06844609 0.061095733 0.103697665 -0.010788027 0.007233924 -0.057849478 0.13118584 -0.09619915 0.01678033 0.046073005 -0.028485708 -0.019515486 0.060944192 -0.085785866
작 0.022765147 -0.044704366 0.021359509 -0.018811632 -0.00013788347 0.0034942033 0.0714951 -0.016615124 0.036978357 -0.025734618 0.052326296 -0.02730965 0.04475118 0.03336838 -0.004784713 -0.016310168
표현 0.062290076 0.039158653 0.10695843 0.08019812 0.08679894 -0.07384994 -0.08964471 -0.115811765 0.12676813 -0.059461206 -0.12504487 0.07016114 -0.07351808 -0.15502895 0.064061455 -0.07196837
모습 0.0734516 -0.02294197 -0.014585851 0.009240503 0.035556123 -0.02037842 -0.07227398 -0.016086893 0.00015260224 -0.07243304 0.007623572 0.050408963 -0.015144362 -0.056226954 -0.0028136356 0.015239547
공감 0.021950105 0.0006664333 -0.01109256 0.046233654 0.0861914 -0.0041156206 -0.01580518 0.004296131 -0.014086927 -0.0145280175 -0.072647534 0.035908893 -0.028926998 -0.10370456 0.086796865 -0.035573207
계속 0.06177064 -0.06767598 -0.016003812 0.025974937 0.10476921 0.08554434 -0.06591625 -0.015257439 0.10919683 -0.106660746 -0.122340016 0.09556152 -0.08409823 -0.18295123 0.1859779 -0.04356007
먹 -0.008050712 0.0111339 0.025839638 -0.023698138 -0.05541699 -0.009694228 0.010049992 -0.002609392 -0.05513684 0.0067007933 0.008560553 -0.05687218 0.046040624 0.10247438 -0.068289645 0.035333604
"" -0.013228502 -0.00039479957 -0.009204193 -0.036826335 0.006490839 0.06428877 0.038081173 0.041453436 0.008859406 -0.0120827425 -0.021328665 -0.008938426 0.049643412 0.052271403 -0.056544878 0.051150266
제목 0.009210829 0.00045953115 -0.029468596 0.05103919 -0.048084073 0.015360037 0.045561507 -0.039543383 0.017157838 -0.076621674 -0.02427303 -0.012970821 0.08190582 -0.016016236 -0.014846351 0.011265667
7 0.05969901 0.055095855 0.08892203 0.11318791 0.04783503 -0.08591995 -0.06532487 -0.090456806 0.07999104 -0.056993615 -0.03637765 0.06284983 -0.047633663 -0.0123595 0.047160875 -0.05420074
이랑 0.022187222 0.049042355 -0.02557945 -0.029343216 -0.038690843 0.010069036 0.036417365 0.028276328 0.0129961455 -0.029163197 0.031690795 -0.03797557 0.044410083 -0.052837558 -0.028172802 0.028845996
극장 -0.024039632 -0.0067773056 -0.013758112 -0.06638692 -0.07244352 0.039958242 0.058872152 0.06522982 -0.0024370917 0.052049994 -0.016856175 0.000793866 0.058288924 -0.04165742 -0.013666039 0.07610648
치 -0.066763446 -0.06640061 0.00018501387 -0.098525055 -0.06701414 0.052037984 0.06613044 0.048345212 0.007310628 0.045096546 0.082560204 -0.0012362832 0.03092491 0.09635726 -0.049113296 0.016227342
비 -0.017229943 -0.027929494 -0.023289703 -0.04407112 -0.048680965 0.008987214 0.016446272 0.032423116 0.0063975323 0.014795511 0.08186114 -0.1029546 0.11502392 0.09230327 -0.1080544 0.024031196
이걸 -0.14905076 -0.04599199 -0.12794378 -0.03068655 -0.09997992 0.03604563 0.13164462 0.02116715 -0.046452846 0.05693826 0.03209906 -0.14376016 0.11121978 0.11488103 -0.115711614 0.12734026
진 0.049439434 0.007667624 0.025834829 0.03575539 -0.02086116 -0.033265553 -0.05872907 -0.009087977 -0.06778817 0.07315178 0.046007086 -0.016074553 -0.026041614 0.111362666 -0.097384825 0.021903018
바 -0.1030673 -0.12321565 -0.14054283 -0.112603374 -0.048814546 0.08474578 0.03416546 0.10762989 -0.077378 0.034637645 0.07919808 -0.059002202 0.05436576 0.02794812 -0.08085271 0.10907278
대사 -0.08476677 -0.05494482 -0.023691319 -0.07692509 0.026005285 0.051134456 0.034296993 0.063612424 -0.004834494 0.008315127 0.034096587 0.033628333 -0.007968503 -0.15153319 0.057446104 -0.0059921793
부분 0.013744159 0.059331 -0.01675063 0.017302047 -0.02277662 -0.060527906 -0.0012664227 0.03588853 -0.012146183 0.08881824 -0.050581254 -0.005224289 0.01705871 0.08840343 -0.08064785 -0.05956825
그렇 -0.039996225 -0.026804166 -0.051117428 0.001404923 -0.044540633 0.095882475 0.113060236 0.029646207 -0.020158049 0.08917605 0.04250511 -0.09427887 0.11571214 0.07024808 -0.049505476 0.10701169
개봉 -0.003994965 0.01408189 -0.044013027 -0.053925596 0.014209024 0.037943058 0.0145190945 -0.0036848737 -0.068222426 0.03558722 0.028298682 -0.061139178 -0.00951784 -0.008481945 -0.061295792 0.06008717
0 -0.21210204 -0.16022097 -0.19450277 -0.10696223 -0.10719022 0.15647948 0.028275749 0.18395013 -0.06822081 0.05666925 0.025481608 -0.0827513 -0.027655344 -0.08275499 0.03050801 0.06345251
OO 0.0014273103 -0.06453218 -0.089415915 -0.01907357 -0.025335237 -0.005135908 0.11233917 0.04776573 -0.054402623 0.043757256 0.09047418 -0.059147324 0.040893465 0.111769274 -0.1259312 0.03992623
대단 0.083507605 0.06744833 0.09862329 0.10391331 0.096268125 -0.10566852 -0.06960497 -0.13544509 0.13422714 -0.05551532 -0.05567742 0.027738841 -0.0065573426 -0.08340228 0.07750497 -0.10976279
어디 -0.01114696 -0.007896743 -0.017812522 -0.028148064 -0.049511146 0.0039838 0.01154339 0.07615328 -0.015850045 0.018887687 0.020199625 0.0055213855 0.0006906933 -0.0183292 0.004417484 -0.022391345
작가 -0.10317727 -0.026092812 -0.044184767 -0.045934383 -0.06151683 0.11544425 0.10599185 0.100210115 -0.055695456 0.028025594 0.07031 -0.03632622 0.1043837 -0.011567204 0.016294561 0.026223775
된다 0.065460265 -0.0030946904 0.044199552 0.007365857 -0.004238796 0.053507943 0.01036753 -0.07000232 0.08520703 -0.033912763 0.055896487 0.04077679 0.08365039 0.055936243 0.07698386 0.035053823
아쉽 -0.016905263 0.023638016 0.07226796 0.027432151 0.074330546 -0.005104457 -0.0010684165 -0.023256361 0.09279839 -0.06510186 -0.048457388 0.0017201172 -0.0017985327 0.032798067 0.04643875 -0.083195195
기분 0.042785164 -0.08887536 -0.08200636 -0.0918235 -0.04386296 0.0948263 0.037724227 0.061499085 -0.029441599 -0.018462408 0.023130959 -0.007702449 0.06688521 -0.0018961082 0.084776215 0.051775273
제 0.04622681 -0.041501895 0.004707636 -0.027871916 -0.01586853 0.037161876 -0.0013854316 0.0203213 0.00317859 -0.039146904 0.06897173 0.0154649075 0.05556574 -0.0013215034 -0.011721078 0.009983444
진심 0.0063801347 -0.086396016 -0.08168278 -0.030666893 -0.0272127 0.042625654 0.03177928 0.015859747 -0.021278143 0.010420334 0.026375502 0.00086500903 -0.012381037 -0.045487832 -0.015130037 0.049326055
타임 0.020116577 0.032416582 -0.040694255 0.07906776 0.032481883 -0.021971492 0.03970057 0.0029481156 0.03668983 -0.021542583 0.014352759 -0.04490841 0.046565656 0.021670308 -0.03917028 0.0555299
/ -0.030513382 -0.032897312 0.04150133 0.01429238 0.009510047 -0.0013432056 -0.031308558 0.0020958753 0.043377984 -0.033121273 -0.009666996 0.020739194 -0.025417676 0.031795233 -0.003981315 0.0038397866
웃기 0.011858586 -0.006332632 0.028323669 0.01258743 0.06601898 0.0027278317 -0.047273327 -0.017664012 0.0030894445 -0.07066461 -0.10068178 0.003904457 0.003380581 -0.11339862 0.046675123 -0.005012551
보이 -0.005613981 -0.038677797 -0.05775781 -0.009083198 -0.023339313 -0.029317115 0.020081572 0.06555428 -0.014199608 -0.021826273 0.0029439537 -0.012397539 -0.081329785 -0.048927445 -0.020398276 0.0056853415
놓 0.038917337 -0.03693251 8.777142e-05 0.013621192 -0.028532082 0.042659987 0.0079833595 0.019997716 -0.04242074 0.04016193 0.009671459 -0.014364926 0.0012205677 0.10986528 -0.05596549 0.05600809
해도 0.017554881 0.03320744 0.026028374 -0.028517475 -0.034827 -0.035271127 0.017252421 -0.008341924 -0.016227214 0.03741823 0.054113097 -0.040940132 -2.581285e-05 0.014416923 0.018378586 0.059397087
이제 -0.047132142 -0.005110001 -0.08739353 -0.0072519016 -0.02920165 0.07395227 0.041324954 -0.002135109 -0.0098864185 0.009163267 -0.04417801 -0.008787519 0.015830036 -0.036187675 0.06681144 0.05229481
물 -0.0065286933 0.011165184 0.024749897 -0.028493302 -0.03504374 0.042170808 0.011174229 -0.009641261 0.060193885 0.01773448 0.03563923 -0.040120736 0.02236135 -0.030600201 -0.0134235555 0.06297235
봐야 -0.008715926 0.029439053 0.057868533 0.041943528 0.046684753 -0.02036273 -0.084031045 -0.087089285 0.15291002 -0.14770234 -0.111535 0.07790275 -0.09569243 -0.15882322 0.11672452 -0.114909895
막장 -0.06626259 -0.10259153 -0.16026424 -0.12438176 -0.13016856 0.15648553 0.13644032 0.06411684 -0.14193691 0.08916607 0.16123791 -0.17849278 0.21299127 0.17324598 -0.12507518 0.11131089
삶 0.13578542 0.16016592 0.1749179 0.12025293 0.14663419 -0.14973159 -0.11771651 -0.19385357 0.09805816 -0.07093664 -0.076828934 0.10971742 -0.056231637 -0.037869643 0.13063253 -0.077310055
친구 0.018206399 0.017233215 -0.020481663 0.052711938 1.1692813e-05 0.030173002 0.020087123 0.015306754 0.039187443 0.008077377 -0.0795241 0.023348033 -0.055789776 -0.052493263 0.03392022 -0.019336935
잔잔 0.096736476 0.045390453 0.02603835 0.07322471 0.058958642 -0.056182288 -0.047152136 -0.07412738 0.12341092 -0.024970207 -0.02579566 0.06291925 -0.0290074 -0.11853902 0.057262298 -0.043296542
조금 -0.031510033 0.0701352 0.041390643 0.054902382 0.06500666 -0.08614448 -0.03526499 -0.027124032 0.087632254 -0.08310632 0.032337826 0.026732922 0.028127769 -0.043453645 -0.02078223 -0.06819053
씬 -0.02847225 0.020385757 -0.06167102 -0.04118333 0.023477284 0.047419928 0.019166168 -0.026347572 0.07006859 -0.059137937 -0.0869633 0.041783635 0.030487288 -0.119669266 0.05054448 -0.031367294
딱 -0.046653654 -0.068731315 -0.05779012 -0.09518888 0.0057844794 0.030976508 0.048733395 0.11197147 -0.012988229 0.0072346395 -0.037583556 0.010679805 0.012630126 -0.090269074 -0.047996137 0.063023955
영상 0.06571954 -0.007450633 0.011266402 0.047478333 -0.0044079586 0.03270158 0.03650467 -0.0055277687 0.015141267 0.005976354 -0.001969052 0.0671898 0.019621417 -0.09237687 0.006914173 0.023404064
억지 -0.15819857 -0.14210255 -0.17096266 -0.1018161 -0.11652312 0.1179851 0.15261616 0.16128278 -0.16485573 0.13611107 0.18211932 -0.18257761 0.18530183 0.15907913 -0.17621435 0.11029286
찾 0.0016723153 0.032432117 0.035311956 0.06093534 0.04556293 -0.008871228 0.03641819 -0.06346503 0.053677566 -0.043211453 0.02687127 0.023465568 0.05543684 -0.031550575 0.010009026 0.040016282
요즘 0.11772579 0.18601614 0.15434992 0.11140847 0.112856716 -0.14315951 -0.14170036 -0.18828273 0.1534641 -0.10189983 -0.064371474 0.0967276 -0.009207202 -0.13847388 0.10774511 -0.13016787
같이 0.011471588 0.01419814 0.015711784 0.019586207 -0.032619014 -0.015758485 -0.061368927 0.002336002 0.021585662 -0.035929456 -0.0070777703 0.00032127867 0.0027664553 0.009369374 -0.017089035 -0.04420177
중간 -0.023238612 -0.060255986 -0.023599286 0.010741422 -0.047936138 0.043736886 0.060653415 0.01587495 0.01954614 0.055084996 0.04001252 -0.09529107 0.093118146 0.067500554 -0.043072145 0.0009059984
" 0.025038442 -0.0022733617 -0.058009118 -0.042094484 0.031413414 -0.007073226 0.071943685 0.06986404 -0.045035653 -0.032515362 0.041875966 0.026098927 0.0030430856 -0.02312866 -0.03390878 -0.00701619
구 -0.04379676 -0.038563866 -0.02984279 -0.044450462 0.040812973 0.036622312 -0.021152787 -0.021132838 0.0077685425 -0.05188845 -0.03687886 0.058979508 0.013073367 -0.13479863 0.09457175 0.018950148
라도 -0.030609857 -0.039893977 -0.06774639 -0.059146643 -0.0027815101 0.07317065 0.029659402 0.0026151254 -0.03071775 -0.008966538 -0.036542177 0.042609256 -0.031272873 -0.07016197 -0.0274035 -0.041108914
스릴러 0.029930405 -0.031170897 -0.026781911 0.029723221 0.041455507 0.06357914 0.051643446 0.0031587116 0.020168658 -0.022291603 -0.009170133 0.015734274 0.06140234 -0.095938005 0.02139842 0.06030756
가지 -0.008278436 -0.0061049475 -0.06714509 -0.04421168 0.01690861 0.04312332 0.032626048 0.0052863555 -0.028350297 -0.029759942 -0.0075317677 0.0027500198 -0.00080084475 -0.11410638 0.013637892 0.06877268
8 0.14204745 0.07928345 0.1612491 0.08290102 0.06813155 -0.08808671 -0.060839593 -0.06875389 0.10429704 -0.08132354 -0.13535695 0.07168738 -0.14059697 -0.035938676 0.04119775 -0.09826493
믿 0.05164255 -0.022708055 0.017022151 0.066746615 -0.006087426 0.0045560994 -0.044123556 -0.018303253 0.044691477 -0.07121265 -0.06965989 0.0015432881 -0.0063418048 -0.08249666 0.0307955 -0.06966147
싫 -0.08692855 -0.06661759 -0.07197461 -0.09473178 -0.13160138 0.0973984 0.076683156 0.060514823 -0.08447995 0.17080407 0.12407105 -0.12577422 0.12966307 0.22108163 -0.16379027 0.10936307
.... -0.006130078 -0.049038418 -0.091079555 -0.10234221 -0.032190446 0.051347826 0.019742837 0.017323535 0.019671217 -0.047884192 -0.02282739 -0.06636622 0.05167759 -0.01108356 0.019055896 0.09669411
나왔 0.019695112 0.018016301 0.007103326 0.026455075 0.05309297 0.025191901 0.026596207 0.012888486 -0.0039395737 -0.022925086 0.025445057 -0.014739637 0.058815833 -0.045270283 0.061733067 0.01317122
아까운 -0.1253417 -0.08833902 -0.13220774 -0.12560758 -0.064246036 0.09952325 0.09665745 0.14524077 -0.12203102 0.030522203 0.10084533 -0.07997651 0.17581567 -0.01896549 -0.02287965 0.08400022
긴장감 0.15227227 0.07169056 0.048314944 0.09417721 0.088213325 -0.107982114 -0.030456591 -0.048733097 0.062381137 -0.0726146 0.006282574 0.05482132 0.0042067 -0.010937828 0.09278131 0.016477019
점수 0.0041904394 -0.06474511 0.015828567 0.005412591 -0.102984875 -0.017617147 0.007879005 0.04161062 -0.015638106 0.09308059 0.054725137 -0.07768565 0.057798818 0.13614249 -0.09418672 0.015594457
개인 0.021484729 -0.041084632 0.029683894 0.013671473 0.032635264 0.023940276 0.018899117 -0.047934894 0.003627423 0.010252453 0.089276604 -0.023466818 0.02447437 -0.0018412826 0.044542532 -0.018328272
제대로 -0.00078333437 -0.019743042 0.030690322 -0.045778472 0.027800877 0.03888463 -0.018945727 -0.008167389 0.020582799 0.012338974 -0.0066113644 -0.0013241693 0.010999812 -0.14473513 0.084721334 -0.040700868
부족 -0.08501373 -0.061361097 -0.03158361 -0.06578452 -0.12276154 0.04561942 0.08405576 0.020632893 -0.08690768 0.07011503 0.06655367 -0.080432266 0.08383908 0.10472984 -0.043185007 0.1187352
이유 -0.0620302 -0.03137981 -0.019502439 -0.014170167 -0.028343707 -0.020199083 0.046425812 0.00020170357 0.034169987 -0.023803083 0.045070976 -0.016310364 0.056057293 0.011902641 0.064299196 0.012215889
노래 0.017827736 0.052346136 -0.05105349 0.02993529 0.03899126 -0.008663565 0.017913794 -0.045239795 0.030867811 0.021397792 -0.036526263 0.05192603 0.056886226 -0.022934906 0.0112929065 -0.052664146
만큼 0.07342708 0.012534682 0.06672314 -0.0027191225 -0.006938823 0.018880371 -0.04285366 -0.011636548 0.0448526 0.0068184193 -0.005059756 0.06880207 0.025852108 0.032969538 -0.0093593765 0.049207326
라면 -0.04106024 -0.007589781 0.069216184 0.05413174 -0.030728912 -0.0079498505 0.0033276915 -0.04989975 0.06221457 -0.027515836 0.0524593 -0.014663721 0.061910618 -0.041162856 -0.0037894815 0.008814166
시작 -0.03040414 -0.012482072 -0.0016103357 0.020361789 0.0070903767 8.334094e-05 0.038255125 0.053483333 0.032008447 -0.065734215 -0.053015985 0.032342415 0.059057653 -0.017204637 -0.010790063 -0.013509741
구나 -0.0037219187 -0.060514994 0.024707463 0.023808166 -0.036404524 -0.013996055 0.08329407 0.029226206 0.051305894 0.03282538 0.04960356 -0.026132397 0.034110807 0.018885411 0.047515444 0.030874483
잇 0.06571242 0.034993514 0.03298772 0.018723665 0.060688213 0.016147783 -0.10290193 -0.054054312 0.03580554 -0.08646674 -0.11569134 -0.0008896524 -0.08693956 -0.08011613 0.046007447 -0.049311865
특히 0.061206616 0.031479236 0.04200358 0.05646568 0.023655603 0.05563211 -0.050659314 -0.051564466 0.14508043 -0.11914146 -0.073848434 0.07940518 0.038268395 -0.17896378 0.122497074 -0.03666415
한테 -0.07400361 -0.015762277 -0.03400029 -0.0018748177 -0.03779287 0.0516019 -0.004106381 0.005043356 -0.011860777 0.059306588 -0.029074695 -0.009632726 0.019406965 0.018244758 0.016318213 0.046191387
날 0.051971003 0.029115433 -0.026849516 0.035924207 -0.016978001 0.021526728 -0.015550972 -0.06331939 0.06604497 -0.015218005 0.033994537 0.044167284 0.030213226 -0.08864643 0.075891785 0.008037196
려고 -0.07469773 -0.05040056 -0.06469113 -0.030124327 -0.08216333 0.08968581 0.020671286 0.030446079 -0.10130285 0.10260318 0.036735628 -0.019203555 0.017819462 0.018979365 -0.009880234 0.04660786
제일 0.062484283 -0.023244567 -0.00017551516 0.012328615 -0.0012006302 0.048450995 0.0019279032 0.01385436 0.037208434 -0.026718535 -0.012051037 -0.009297026 0.038083248 -0.061602004 0.040509254 0.035779614
아름다운 0.12885459 0.058548104 0.10986412 0.13710088 0.15876 -0.10453291 -0.106163435 -0.12744072 0.12998693 -0.113121085 -0.122290336 0.15236208 -0.09371466 -0.26513618 0.19635318 -0.09147849
시대 0.043548465 0.041084945 0.058609117 0.058283146 0.058146566 0.0026131507 0.035303142 -0.048215285 0.030404385 0.05705701 0.016950611 0.0011875266 -0.024166495 0.07472902 0.041013543 -0.031783905
ㅜㅜ -0.016424865 -0.013476494 -0.02214955 -0.006860036 0.09297877 -0.008267825 0.035262495 -0.04658919 0.053633768 -0.08610153 0.010511884 -0.011738668 -0.014420735 -0.112152934 0.0954004 -0.0041206307
어떻게 -0.029251313 0.057163067 -0.006994101 -0.0125852395 -0.025062196 -0.07106193 -0.052031778 -0.018564878 -0.0028746277 0.02066031 0.012772454 -0.023696503 -0.051286563 -0.01572275 0.023917235 -0.0598488
엔딩 -0.031774957 0.00068915717 0.05365853 -0.018115915 0.08235557 0.017108073 -0.031662572 -0.09269756 0.07364797 -0.06765113 0.03792181 0.034960095 0.011117804 -0.07920106 0.056406263 0.029206172
당시 0.03652984 0.089007385 -0.014567266 0.09249674 0.037905112 0.017263003 0.0015382428 -0.0024180727 0.045545667 -0.043674894 -0.039902296 0.0541902 -0.034463447 -0.049111724 0.053116728 0.016067019
하지만 0.04010499 0.062380854 0.04238408 0.049740348 -0.009265962 -0.09498679 -0.010576376 -0.05083176 -0.08667229 0.04344339 0.04544656 -0.0130796265 -0.019585544 0.20941077 -0.16457988 0.03120016
나름 0.014317801 0.06464284 0.010261092 0.02028071 0.013356138 -0.051291082 -0.09013019 -0.07537543 0.040530458 -0.078932814 -0.1412042 0.069129385 -0.035993636 -0.106970325 0.0019773457 -0.059131894
봐 -0.013180923 -0.03849008 -0.057724357 0.016404126 0.028989647 0.043828394 -0.042899895 -0.011121125 -0.06326864 0.00465813 -0.014943518 0.017886516 0.040240575 0.010970879 -0.012629324 0.0015686475
무섭 -0.014259592 -0.05723465 -0.04720207 -0.0035911703 -0.0020475986 0.041850016 -0.03716838 0.007079729 0.007050252 -0.074411154 -0.049405962 0.02765782 -0.010552932 -0.12304877 0.07915906 0.0005265357
나온 0.03425203 -0.044613037 -0.051866286 -0.013127598 0.057993427 0.021054354 0.073540844 -0.05576953 0.0005068382 -0.05307533 0.014252463 -0.031599894 0.061333403 -0.09879051 0.045711804 0.036216304
명 0.032452755 -0.015352465 0.07759514 0.06383376 -0.046954285 -0.040512584 0.018246453 -0.022765117 -0.020159343 0.030993136 0.017055819 -0.043741405 0.017507832 0.048003715 0.0019078504 0.028427552
사 0.010462938 0.04899903 0.0865343 -0.014857589 -0.017160155 -0.010781113 0.015240521 -0.022089534 0.011236171 -0.056299303 0.022053886 0.08886804 -0.03878243 -0.04997734 -0.0070970617 -0.07924359
니까 0.0031630704 0.038112793 0.08431028 0.0712275 -0.0492351 -0.024815556 -0.051501565 -0.048540544 0.0063120215 0.04480027 -0.017530406 0.014440889 -0.03156764 0.11409958 -0.04067608 0.014929897
오랜만 0.08221056 0.0060234265 0.14243494 0.05759329 0.11934891 0.041405912 -0.018353982 -0.058427244 0.11038064 -0.05791211 -0.0349349 0.1118966 -0.0055711265 -0.17724265 0.12913798 -0.081144035
이것 -0.040629458 -0.089736275 -0.05295491 -0.016048918 -0.05410914 0.03587586 -0.00737501 0.027695704 -0.015579429 -0.025103522 0.0664969 -0.03603196 0.02962339 -0.02709099 -0.020560676 0.05215438
해요 -0.08070959 -0.0102343075 -0.040154822 -0.02067928 0.033115394 0.08462736 -0.06504506 -0.008582587 0.07326658 -0.1480685 -0.12544322 0.051686678 -0.026781673 -0.16869812 0.12076904 -0.027290968
9 0.16008474 0.11470129 0.107350096 0.10763524 0.16389868 -0.18990962 -0.16213657 -0.14928684 0.16857275 -0.15560809 -0.17329577 0.16976856 -0.15200245 -0.056983925 0.09223078 -0.13479146
팬 -0.008014318 -0.05695168 -0.051391356 -0.06102519 0.01362298 0.007878089 -0.043767046 0.033089016 0.020205861 -0.02099488 -0.002524662 0.035316586 -0.0034925197 -0.081904486 -0.04221671 0.022518596
차라리 -0.342268 -0.2708645 -0.35392946 -0.35132352 -0.27554536 0.32366806 0.40689558 0.3428434 -0.24530597 0.16270122 0.23767734 -0.31028932 0.28645408 0.15145889 -0.19825368 0.29543123
절대 -0.01082353 -0.04266198 -0.06792102 -0.032016087 -0.010862689 0.0069189826 -0.027884802 0.025623739 0.0070058717 -0.015031954 0.018677084 -0.026886713 -0.010364763 0.0047678105 0.033462796 0.011714275
세상 0.04233719 0.054633528 0.0075310743 0.038011417 0.07405265 0.0014782993 -0.060204227 -0.028080586 0.004273565 -0.034430124 0.025287274 0.08012982 -0.04444458 -0.056335602 0.050729714 -0.009582269
세 -0.043691214 0.02208588 0.03500377 0.000879065 0.04702689 0.006389836 0.0024150468 0.027153047 0.020074563 0.057631932 -0.01040836 -0.026230775 -0.023534494 -0.05950104 -0.003819654 -0.012289198
못하 -0.096213706 -0.07556239 -0.0050314297 -0.056873884 -0.04040253 0.07533585 0.078317024 0.07149468 -0.056802988 0.0419197 0.062368963 -0.033460554 0.108767755 0.07685271 -0.07682286 0.04717655
의미 0.04881212 0.021752067 0.014665458 0.054055516 0.03231978 7.1957475e-05 -0.028339867 -0.04365209 0.05760479 0.058081724 0.03384473 -0.026779655 -0.017879454 0.048688054 -0.034483586 -0.0041125813
던데 -0.044183955 0.031743526 0.053395584 -0.01450194 0.10724332 -0.02554789 -0.0184837 -0.10846969 0.10566289 -0.12454871 -0.04242387 0.07977086 0.059165627 -0.1134829 0.11385346 -0.021103706
봄 0.028535135 -0.004940057 0.008888679 -0.021039784 0.037705395 0.027423676 0.082645394 -0.033366553 0.10957748 -0.05116189 -0.019114139 -0.0018799284 0.029636152 -0.086943544 0.09674904 0.070745654
욕 -0.055453118 -0.07010595 -0.114895776 -0.015879922 -0.16117567 0.03296525 0.13771331 0.10036636 -0.06461287 0.1405576 0.11441086 -0.14873756 0.13439655 0.10007265 -0.1294127 0.103867084
훌륭 0.17044051 0.09990121 0.0929839 0.1626918 0.14082375 -0.15400156 -0.21964005 -0.09765 0.108084664 -0.13225318 -0.16991206 0.13982946 -0.22334157 -0.15367542 0.110435985 -0.09838718
너무나 0.11599476 -0.013350194 0.07515745 0.06820553 0.080493495 0.015175785 0.0057056476 -0.013761703 0.047117144 0.0027386977 -0.00208188 0.09182681 0.010373859 -0.055570837 0.06986096 -0.017850686
강추 0.047151916 0.071627416 0.08708997 0.12672856 0.19557199 0.009484837 -0.09925637 -0.17619391 0.26565918 -0.24742533 -0.11789743 0.15657385 -0.05733906 -0.25918508 0.22278854 -0.11756293
감 0.03897128 -0.006220663 0.026823075 -0.030112654 0.022306975 0.028216269 0.012308664 0.03046832 0.00031264217 0.037032265 -0.017533273 0.025571402 0.024905177 0.003806677 0.042845022 0.026410712
됨 -0.050935246 0.02806632 0.045620345 -0.009032803 0.0038901323 -0.0196846 -0.049132396 0.036804445 0.03790482 -0.112414435 -0.016916167 -0.018192932 0.004043092 -0.08510121 0.0934317 -0.015095163
ㅡ -0.047332693 -0.0074414685 -0.053387716 -0.03169119 -0.00013865919 0.07786846 -0.0053283675 0.031706408 0.035897754 0.015938174 0.02395401 -0.020126909 0.014037354 0.010558566 0.039511338 0.06373734
따뜻 0.1649845 0.07477135 0.099241056 0.10910014 0.19861975 -0.05298512 -0.16890575 -0.14258957 0.14734262 -0.18058524 -0.16726616 0.21631932 -0.09031221 -0.21736005 0.1836605 -0.15121503
빼 -0.019831134 -0.08502887 -0.011543809 -0.034416087 -0.07354676 -0.022101125 -0.019267056 0.09880439 -0.06765367 0.12827979 0.03819601 0.030245889 -0.0095160445 0.070486955 -0.102197446 -0.0139962435
느끼 0.04729513 0.019506333 0.006507856 0.0423028 0.012945033 0.024206053 -0.053465817 -0.04401438 0.04855347 -0.01795721 -0.018292712 0.053406365 -0.03977809 -0.08266979 0.04178321 -0.051050406
해야 0.018893167 0.018205948 0.03072298 0.075315 -0.043215986 0.017391993 0.0035151457 0.02023239 -0.04232728 -0.042776816 0.00053486554 0.028917376 0.0034700292 0.02555127 -0.042845476 -0.05457089
드 -0.07298757 -0.050284453 -0.10649359 -0.030052418 -0.009381147 0.08410878 -0.012353698 -0.013253604 0.048987493 -0.02918895 -0.0062702363 -0.043375865 0.04935317 -0.14423582 0.052805733 -0.013169709
도대체 -0.1496619 -0.14257812 -0.162019 -0.07692575 -0.031429637 0.11673183 0.05765307 0.06477581 -0.061888505 0.07686419 0.031718142 -0.129451 0.057749577 0.011145776 -0.10122197 0.14212991
어야 -0.06195403 -0.13169646 -0.05993456 -0.119817615 -0.021784129 0.052742768 0.034142006 0.073935986 -0.087230526 0.078368545 0.014093872 -0.027385278 0.06416589 -0.0039723176 -0.0448104 0.070063
답답 -0.12004305 -0.1729325 -0.1534431 -0.14654967 -0.11004941 0.08740048 0.1170454 0.16404858 -0.13359572 0.13449691 0.1434036 -0.11211008 0.12555507 0.13874163 -0.16945086 0.114517994
마다 0.010112804 -0.02356344 -0.0755001 -0.032212093 -0.012840006 0.06915637 0.009212546 0.017863791 0.025322657 0.0025505468 -0.07895512 0.034966383 -0.027681416 -0.11351776 0.06421743 0.03428605
준다 -0.030401377 -0.064688966 0.0029766834 -0.020798003 0.040284514 0.09111357 0.123019084 0.031083763 0.09164563 -0.086255774 -0.04365787 0.005693638 0.10206516 -0.054538965 0.06401607 0.09996386
글 -0.03549121 0.016389582 -0.0042059137 -0.008875911 -0.05230447 0.0032640945 0.08896956 0.028029367 -0.037155 0.031025555 0.053820442 -0.0027544277 0.011831632 0.14780882 -0.1095906 0.032355078
전쟁 0.03192714 0.0044817063 0.08140226 0.010796898 -0.009507451 -0.027151693 -0.02789965 -0.059754692 -0.011069718 0.05149713 0.07270674 0.03127472 0.023858914 0.063091554 0.041847028 -0.014309543
놈 0.0026861867 0.040329713 0.028841458 0.032279536 -0.04982995 -0.05430644 0.010504139 0.007991424 -0.028354283 0.010240031 0.024739044 -0.07129793 -0.02701547 0.20011303 -0.12426877 -0.0059491023
설정 -0.033715855 -0.072842434 -0.11531455 -0.06055158 -0.0057370914 0.10071142 0.1050951 0.12260178 -0.07478399 0.012776425 0.03769814 -0.064998396 0.08754264 -0.021520035 0.010665151 0.048446637
무엇 0.028633995 -0.0026034196 0.040761646 0.029537616 0.029544113 -0.0037556086 -0.06098769 0.00019410954 0.07213307 -0.08266267 -0.081695616 0.08844506 -0.04864643 -0.109625675 0.13977426 -0.04010692
수작 0.24904431 0.18283446 0.2495955 0.21102625 0.31156838 -0.2715625 -0.27321902 -0.31664467 0.39367813 -0.39730275 -0.28224754 0.31481677 -0.24826558 -0.39013708 0.3795322 -0.33685377
만화 -0.082349636 -0.052421153 -0.080857955 0.029016891 0.019878097 0.0028199174 0.03173018 0.059697025 -0.043637652 -0.07445113 -0.049639363 -0.050252873 0.010124084 -0.019133056 -0.047267474 -0.013645044
흥미 0.061671313 -0.06322511 -0.028324302 0.03276397 -0.022006141 -0.024999142 -0.029034607 0.045748614 0.043223374 -0.05081578 -0.053129103 0.030617472 0.00046674116 -0.07058172 0.067712925 0.035312686
그저 -0.03092434 -0.049370274 -0.031280335 -0.024327315 -0.025597047 0.07402542 0.08624879 -0.001862868 -0.026582643 0.037826527 0.15490578 -0.1049335 0.112337194 0.079913385 -0.08777701 0.05310587
감정 -0.0203573 0.032088123 0.04572456 0.013142701 0.06235422 0.05708295 -0.043122984 -0.0009195311 0.029549323 -0.04410586 -0.053789724 0.059538793 -0.020248642 -0.14465289 0.13041995 -0.05354285
미국 0.01565815 0.041653436 0.07648288 0.12714384 0.0126513485 -0.07475105 -0.061278887 -0.03885303 -0.001937225 -0.007604875 0.039653048 0.0045543537 0.054918423 0.08642551 -0.03549474 -0.016429145
신선 0.041658778 0.029691214 0.066691756 0.10275007 0.05799747 -0.08688796 -0.049151685 -0.11062416 0.116546035 -0.10368161 -0.055795666 0.054394774 -0.122156896 -0.10608784 0.14402187 -0.059931118
행복 0.08160226 0.050231323 0.10604532 0.09207568 0.17505983 -0.0825905 -0.13569377 -0.11740528 0.16092698 -0.21746731 -0.10672176 0.13690071 -0.10340162 -0.2901622 0.23649417 -0.13204318
뻔 -0.03438483 -0.032541357 -0.0966034 -0.055600286 -0.060742866 0.07803853 0.06287598 0.062316146 -0.034345377 0.081221566 0.04367942 -0.08656908 0.04406316 0.06865199 -0.024782663 0.051682286
형 0.004165322 -0.0049740365 0.0052830796 0.05303025 -0.034335047 -0.011159206 -0.010210787 0.023681652 0.014484652 -0.050927248 0.041196387 0.024739392 -0.017731171 -0.043711293 0.040987905 -0.03387415
앞 0.037105456 -0.0069958447 0.0030055244 -0.014661108 0.03474572 0.04360977 -0.069236346 -0.04882713 0.04299386 0.024666814 -0.029753814 0.040800747 -0.05802128 -0.1137791 0.114646 -0.07375838
허접 -0.24420606 -0.28902104 -0.23812951 -0.2571324 -0.2903367 0.24139322 0.25489593 0.25186482 -0.28440794 0.29567042 0.22976948 -0.26913399 0.28433537 0.19403812 -0.17883839 0.25508195
어도 -0.028019194 0.05211984 -0.05044879 0.004781173 0.026273536 -0.056401443 0.01951375 -0.014359492 0.039270043 0.017419208 0.05967488 -0.00661554 0.04541973 -0.012040146 -0.016515391 -0.030428525
군 0.07314462 0.0002652399 -0.024633287 0.010014142 -0.07444885 0.032980915 0.04838943 0.04955102 0.0024005573 -0.004547572 0.057692785 -0.026505213 0.0077601126 0.14090575 -0.09844984 -0.008995394
시절 0.039835263 -0.04768845 0.03285942 0.038296536 0.09140398 0.05130707 0.012008252 -0.02510433 0.11400363 -0.044886127 0.01938942 0.08772047 -0.0011274414 -0.084383465 0.052924767 -0.031006003
관객 -0.053883687 -0.03623038 -0.12632823 -0.11181348 -0.114055514 0.04730631 0.09837611 0.06675175 -0.030033275 0.09165595 0.09914312 -0.14131409 0.073481195 0.077999644 -0.088242225 0.11409108
배경 0.012812917 -0.008807084 0.0465486 -0.00036513933 -0.0122585995 0.06461911 0.0043442394 0.007935745 0.04377113 -0.042469002 -0.057821367 -0.0036975646 0.043411445 -0.033159196 0.019420687 0.017059825
6 0.046677016 0.09177555 0.06206278 -0.011209669 -0.0022360992 -0.09437383 -0.0017322004 -0.05174339 0.055838957 0.018995915 0.015838234 0.003849934 0.020031177 0.043930087 0.010491406 -0.071712084
초반 -0.123134136 -0.027091946 -0.07100183 0.024514442 0.0071475906 -0.004712426 0.024460698 0.010650023 -0.031460952 -0.014582047 0.0026373544 -0.09911971 0.015455274 -0.012752875 -0.05753047 -0.014402287
사실 0.098272264 0.094073825 0.07402531 0.04300681 0.09191084 -0.12744217 -0.07203471 -0.030484103 0.030598244 -0.061322182 -0.0590777 0.042470757 -0.098748356 -0.013707841 0.07756262 -0.045284476
웃음 0.024953019 0.004749607 0.044425428 0.039992057 0.007854896 -0.0037037367 -0.008367808 0.026139015 -0.018751953 -0.025359746 0.050854683 0.054234557 0.053134035 -0.05371655 0.06422772 0.021103298
답 -0.033764526 0.006530326 -0.062305458 -0.03716707 -0.018512312 0.06425829 -0.07002136 0.04144084 0.05898402 -0.035343226 -0.054860085 0.05681237 -0.04303018 -0.08408465 0.047729176 0.023925956
엄청 0.0826918 -0.015841492 -0.00037088883 0.009190047 0.09736111 0.0852769 -0.01019246 -0.07685455 0.0820306 -0.041051544 -0.008393887 0.09144814 -0.02168418 -0.12551436 0.12089049 -0.022616701
더라 0.015324805 -0.00044924964 0.007447946 0.028252415 0.014180055 0.024797669 -0.0034441852 -0.042601548 0.031905297 -0.017103067 0.052726086 -0.04246488 0.042144295 0.0055036214 0.03668753 0.041200258
라니 0.07112001 0.0570237 0.031252015 0.047822088 0.01597506 -0.0071032317 -0.02060926 -0.050996557 -0.023448316 -0.03291145 0.07389077 -0.029072456 -0.013193844 0.061314348 -0.0016241277 0.0026358683
질 -0.11626122 -0.037155 -0.13132359 -0.04810893 -0.0147702405 0.080628686 0.07675212 0.04037668 0.016902182 0.0044806325 0.047594767 -0.060064286 0.06259058 0.016880305 -0.033941925 0.05318264
자신 -0.052776717 0.05175025 -0.042559184 0.060297217 -0.024937605 -0.03178538 -0.0038518673 -0.025418652 0.07494395 -0.011457503 0.020761982 -0.039807703 -0.007377563 -0.0074105235 -0.013085955 -0.025873289
추억 0.013015822 0.052900404 0.07830747 0.0722743 0.045735985 0.03104681 -0.08727105 -0.04226811 0.06295338 -0.12943195 -0.08023716 0.122046195 -0.016054278 -0.16316007 0.09501716 -0.021902025
캐스팅 -0.05833902 -0.019817231 -0.059762113 -0.03459983 -0.018051747 0.027813759 0.052366678 0.0061221384 -0.10561862 0.085911475 0.03779608 -0.020603532 0.056740772 0.09630543 -0.07372686 0.09304534
첨 -0.049990162 -0.011651345 -0.050602444 -0.01277268 -0.087333195 0.024024246 0.08685661 0.025250077 0.02548433 0.013299048 0.070655935 -0.026499847 0.077765375 -0.0007277586 -0.04068015 0.00744042
멋있 0.11437197 0.025875779 0.082088806 0.13781546 0.18274191 -0.00348447 -0.13344534 -0.12081439 0.14230546 -0.19518481 -0.16889921 0.15117216 -0.119115904 -0.22612162 0.16021352 -0.07878431
류 -0.016420411 -0.04368588 -0.04194836 -0.080057755 -0.0611013 0.107350245 0.12015164 0.10199802 -0.058522176 0.015100889 0.082427 -0.07730463 0.07957391 0.07459424 -0.014511702 0.12169073
어색 -0.18232556 -0.12667367 -0.13216148 -0.102269344 -0.12875919 0.16365743 0.17259903 0.11825781 -0.17509057 0.12934037 0.12561843 -0.117600285 0.20120619 0.14866856 -0.13979326 0.13849027
시나리오 -0.09720682 -0.07884181 -0.07537955 -0.09968653 -0.08767636 0.09647506 0.015061303 0.06253822 -0.09240267 0.10163228 -0.009530568 -0.075218394 0.076614864 0.021089483 -0.04806111 0.033693515
머 -0.06235687 0.0027023517 -0.091994636 -0.006140851 -0.034902778 0.017851254 0.071762346 0.08061508 -0.001169848 0.07433155 -0.0017435778 -0.06209085 0.053459596 0.043124072 0.024470637 0.08853879
밖에 0.03375253 0.03767427 -0.0119376015 0.015770528 0.023637172 -0.028928025 -0.024026942 -0.03880561 0.004172601 -0.029455934 -0.0762057 0.031657845 -0.04768153 -0.059215564 0.0342626 -0.08542427
OOO -0.041248593 -0.049857955 -0.1282262 -0.08261573 -0.1170335 0.09222219 0.09179044 0.06400393 -0.075216234 0.15953715 0.12140458 -0.14278677 0.11675766 0.18566236 -0.12454187 0.13917778
슬프 0.12704809 0.16060092 0.21595757 0.13889213 0.1549574 -0.17649053 -0.12374051 -0.19894347 0.13830844 -0.13577142 -0.036329884 0.14959702 -0.09311603 -0.14346537 0.11896786 -0.1148013
정신 -0.13381684 -0.03926055 -0.087794445 -0.061207224 -0.0784805 0.10451871 0.040432602 0.084212 -0.089967035 0.053890795 0.10251123 -0.034823876 0.10840449 -0.0024644213 -0.06308519 0.07233431
분위기 -0.027266111 0.041502118 0.022395594 -0.017474247 0.046332978 -0.015734255 -0.08820734 0.013356208 0.08321145 -0.07194285 -0.083913445 0.011034884 -0.0069110543 -0.13933718 0.04827291 0.00060375803
소름 0.0874556 0.10005709 0.11129394 0.040444825 0.14742412 -0.07000118 -0.103361934 -0.079211615 0.14852837 -0.07569621 -0.09500767 0.14506258 -0.14958826 -0.13717616 0.10460613 -0.14965959
멋진 0.11248121 0.046260543 0.06489973 0.07652216 0.07714256 -0.05397263 -0.11505957 -0.10659978 0.10654351 -0.15775359 -0.1661905 0.13530841 -0.08992631 -0.25313535 0.18230608 -0.096981965
힘들 -0.015451441 -0.005642441 -0.09885855 -0.01095568 -0.07203924 0.09520186 0.071734965 0.023351006 -0.050010573 0.07075731 0.08796869 -0.048474498 0.10198129 0.14217441 -0.09462416 0.11112784
오늘 0.036493402 0.0056290817 -0.0070907073 0.04956686 0.04650527 -0.034484476 -0.07523124 -0.078662656 0.02465047 -0.06830075 -0.092477635 -0.021839166 -0.010487338 -0.06719333 0.030857684 -0.05801757
어이없 -0.18255728 -0.1892297 -0.24857964 -0.17887866 -0.19602701 0.18287878 0.22944432 0.21964838 -0.18939671 0.21320212 0.14391707 -0.16131593 0.2316787 0.18463191 -0.21367243 0.195102
봐서 0.057535723 0.012411266 0.052866563 0.06591428 -0.032474313 -0.064677596 -0.00064472284 0.030077953 0.023071302 0.033270106 0.062865555 0.034601085 0.02594774 0.01619151 -0.023883287 -0.007919012
잡 -0.0030829436 -0.0003424178 -0.05912802 -0.023092043 -0.04285407 0.009881539 0.004957297 0.0024481842 -0.01666944 0.026372157 0.023051785 0.027424442 0.04294802 -0.012255115 0.048877373 0.06030694
구성 -0.017117385 -0.04428746 -0.015161892 0.023988852 0.023246458 0.009043185 -0.029602095 -0.028553136 0.008639292 0.022168063 0.05614203 0.053196006 0.040544912 -0.051233873 0.079422355 -0.002326108
엄마 0.031466343 0.015686164 0.0007422829 0.05469444 0.054251865 -0.012018931 -0.02527761 -0.013222079 0.048265595 -0.04512073 -0.091413684 0.09972593 -0.038189985 -0.15848786 0.12243451 -0.06690966
함께 0.07206126 -0.014333598 0.065580696 0.058515318 0.10483285 0.015641082 -0.07961622 -0.09002392 0.07844768 -0.04352254 -0.08968012 0.07978559 -0.08560582 -0.11090853 0.13790354 -0.09345833
문제 -0.0103907 -0.034979843 -0.011953587 -0.07138481 -0.11533494 -0.016900407 0.029234221 0.07828339 -0.115961716 0.09733305 0.062922135 -0.046640262 0.043477595 0.20002979 -0.11201339 0.030925982
위해 -0.019259091 -0.054796364 -0.0629458 -0.021379488 -0.010362746 0.020399166 0.032340158 0.05058612 -0.056106064 0.08053718 -0.055802945 -0.038231257 0.014745446 -0.025457697 0.029242193 0.001190676
졸작 -0.18765134 -0.19909184 -0.24983741 -0.2808933 -0.20796824 0.27064607 0.3019129 0.25561514 -0.25090227 0.31254172 0.2597324 -0.24392156 0.29856744 0.2557122 -0.22690822 0.248932
잊 0.12416513 0.12867154 0.09796287 0.12577163 0.13664356 -0.091641046 -0.15348737 -0.1897964 0.17613998 -0.14796317 -0.18242915 0.1556025 -0.15833285 -0.28890046 0.17029127 -0.116043106
이딴 -0.26993993 -0.20289595 -0.26070738 -0.23649476 -0.18982369 0.28059104 0.22758509 0.25997913 -0.17264023 0.19976549 0.232666 -0.22231732 0.20541598 0.16709764 -0.2003524 0.20734698
등 -0.0070164744 0.07135965 -0.021412631 0.092981406 0.038857125 -0.014370472 -0.11065187 -0.034479693 0.06183568 -0.05953406 -0.116309516 0.009957576 -0.039476637 -0.15783471 0.043467548 -0.022954645
집 0.0060658874 0.010932774 0.025750848 0.0047219223 -0.064197585 -0.041443944 0.016734459 -0.048983347 -0.05328768 0.03953877 0.06325983 -0.0026975323 0.05952913 0.0515757 0.0055278414 0.039205953
유쾌 0.20026927 0.17455372 0.22987677 0.23136073 0.1511541 -0.16593067 -0.21484177 -0.21420082 0.1954468 -0.21220338 -0.1391755 0.17305064 -0.14937755 -0.23367591 0.15760748 -0.20212641
뻔한 -0.029831437 -0.037928373 -0.06834969 -0.10914786 -0.122831866 0.0933925 0.095552035 0.017107835 -0.06989701 0.046359375 0.12877072 -0.047541067 0.1540359 0.08031554 -0.10231677 0.077553086
킬링 -0.02729826 0.027188646 -0.035526928 0.06952664 0.027423378 0.006000215 -0.04099878 -0.02196625 0.03824344 -0.011565379 0.05827373 -0.05541956 0.06354292 -0.032442145 0.0307826 0.009429889
스러운 -0.012791609 0.008570417 -0.017061053 -0.021028997 0.10037692 0.07908033 -0.03397794 0.0017111568 0.07494517 -0.083697654 -0.11933934 0.020359298 -0.050294966 -0.17044495 0.14571218 -0.05021872
결국 -0.010308305 -0.042066455 0.005451047 -0.011915416 -0.027185477 0.033883117 -0.02317383 0.04001284 -0.023360213 0.005827653 -0.015177355 -0.059708968 0.050861575 -0.00868768 -0.041287776 0.0038908091
낫 0.060392626 0.05943076 -0.0020919621 0.027035 -0.065541506 -0.02533997 -0.051407844 -0.01120365 -0.0034289488 0.04269599 -0.02742723 -0.0014531241 0.023433862 0.048432037 -0.06024965 -0.02773838
한데 -0.0035770447 0.04001585 -0.005294726 0.008560634 -0.00012703058 -0.06902227 -0.0021520564 0.022412816 -0.070724264 0.070329346 0.031308204 -0.05202167 -0.048330825 0.062429275 -0.067612946 0.0043081087
나요 -0.015824279 0.05873983 -0.009297306 0.0682468 0.07822127 -0.02320898 -0.056651633 -0.03256845 0.063136175 0.010617545 -0.02574812 0.027024359 -0.04281302 -0.046962216 0.04066255 0.014172176
뭘 -0.057946388 -0.06426515 -0.056146365 0.026806712 -0.10458103 0.039854925 0.018076299 0.04335822 -0.0649163 0.021723492 -0.030346807 -0.087893926 0.054963283 0.036386147 -0.06405647 0.002822822
소리 -0.06724893 -0.04379874 0.016537897 -0.030844191 0.02842331 0.057358213 0.047687713 0.026575945 0.029964237 -0.018185945 0.025824752 0.035934854 0.049189836 -0.050544586 0.0009798156 0.028040854
간 0.07494775 0.0019471133 0.02623982 -0.018038346 0.006659534 -0.020442916 0.043218672 -0.016999504 -0.021390267 0.010312784 0.008866922 0.012639095 0.06532836 0.004607306 0.0570169 0.032169573
